{
  "defaults": {}, 
  "inputs": [
    {
      "name": "corr_met_singleLepCalc", 
      "offset": -165.24141648903736, 
      "scale": 0.008050092394092974
    }, 
    {
      "name": "AK4HTpMETpLepPt", 
      "offset": -1641.4048260698878, 
      "scale": 0.001875847185386984
    }, 
    {
      "name": "AK4HT", 
      "offset": -1327.6909548776332, 
      "scale": 0.002213271955756054
    }, 
    {
      "name": "NJets_JetSubCalc", 
      "offset": -5.772456117272265, 
      "scale": 0.5615670926449761
    }, 
    {
      "name": "NJetsAK8_JetSubCalc", 
      "offset": -3.0909340486499164, 
      "scale": 3.1630792405694095
    }, 
    {
      "name": "jetPt_1", 
      "offset": -541.5774812225948, 
      "scale": 0.0045053100760192935
    }, 
    {
      "name": "jetPt_2", 
      "offset": -379.5206482598435, 
      "scale": 0.006860749584466219
    }, 
    {
      "name": "jetPt_3", 
      "offset": -275.56733613853646, 
      "scale": 0.012488929110888027
    }, 
    {
      "name": "dnnJ_1", 
      "offset": -0.2977767939360366, 
      "scale": 2.74267724058159
    }, 
    {
      "name": "dnnJ_2", 
      "offset": -0.2654949390839057, 
      "scale": 2.8128505670671635
    }, 
    {
      "name": "dnnJ_3", 
      "offset": -0.30632731916626077, 
      "scale": 2.7051981767831186
    }
  ], 
  "layers": [
    {
      "activation": "linear", 
      "architecture": "dense", 
      "bias": [
        -0.13272948486803324, 
        1.0454743334760241, 
        0.5129816201169128, 
        0.3832280918944051, 
        0.2545967240613316, 
        -0.5984338413593112, 
        -0.7724843371254533, 
        0.6566502315041246, 
        0.26887927539314177, 
        -0.02099072453728139
      ], 
      "weights": [
        0.022014646213552716, 
        -0.21719436176023033, 
        0.14289484460288315, 
        0.0457162636653714, 
        1.2854664904716224, 
        0.17503405713343226, 
        -0.07889469278117482, 
        -0.08701039137360136, 
        -1.5643427799374208, 
        0.2487336678761023, 
        0.03565020590083516, 
        -0.051355518348108135, 
        -0.6294054664274414, 
        0.039320590983439645, 
        -0.1080457543571284, 
        -0.1592857644460881, 
        0.5113363315633402, 
        -0.03603953935310955, 
        -0.03076200932498382, 
        0.13861322178064697, 
        0.3516848659505498, 
        0.19555111443058826, 
        0.015381903290685835, 
        -0.22595090023070752, 
        -0.4190109535004496, 
        -0.4156898653167723, 
        -0.7095143363017672, 
        0.2633257953919412, 
        0.28455029563958456, 
        0.06784005027851307, 
        0.12386639182716631, 
        0.06145221965846163, 
        0.40255191295662446, 
        0.15155118236311169, 
        0.6929698812182405, 
        0.4833008763937403, 
        -0.3957924527377216, 
        -0.09514421972464168, 
        -0.6024827649890192, 
        -0.16318124518066104, 
        -0.1527526344445831, 
        0.017431545772968415, 
        -0.003515089283293068, 
        0.08814268727275909, 
        0.04318006583716385, 
        0.08213854977464063, 
        -0.032837373187361456, 
        0.1382725991379127, 
        0.1668909534233319, 
        0.713652831237732, 
        0.27329815601849333, 
        0.12901323750551807, 
        0.30545632298748976, 
        0.2374625617832153, 
        0.044073148224109016, 
        0.046527592981034746, 
        -0.4477864985828517, 
        -0.06491634082038478, 
        0.009788119558448539, 
        0.2719343848455693, 
        0.44736104705399754, 
        -0.08595044665385784, 
        0.14649677546653478, 
        0.08272385517091564, 
        -1.0446183892365704, 
        0.37938441576290166, 
        -0.003974777523251088, 
        0.0032676526086247142, 
        0.038705143053392045, 
        -0.0017080348779502702, 
        0.16675381191243077, 
        -0.022218885807764537, 
        0.015203496340455192, 
        -0.015460064770847323, 
        0.010639563268925071, 
        -1.30035201558154, 
        -0.013265099417622639, 
        0.04723882207433299, 
        -0.8213588858724977, 
        0.4807948358740296, 
        0.10021932600922555, 
        0.019384473980066763, 
        -0.1182290162474087, 
        -0.06208595386405496, 
        -0.19718468489458546, 
        0.4008243109562472, 
        0.14059841643324858, 
        -0.016802764451036064, 
        -0.09375818368793191, 
        -1.0803484918664317, 
        0.027144426581163186, 
        0.1551249156042751, 
        0.35691475290384134, 
        -0.11928786941863265, 
        -0.017644899007927713, 
        0.05336967293655467, 
        -0.04335608038755989, 
        -0.0048884948517013286, 
        0.04571804183389988, 
        -0.04292890917370834, 
        0.05999507093204318, 
        -0.22261345891003365, 
        0.03921254337073921, 
        0.20058178514758965, 
        0.22523331191148774, 
        0.29108924461584934, 
        0.2424684249373007, 
        -0.3808455752818425, 
        -0.5025417700667466, 
        -0.7585650511102315
      ]
    }, 
    {
      "activation": "rectified", 
      "architecture": "dense", 
      "bias": [], 
      "weights": []
    }, 
    {
      "activation": "linear", 
      "architecture": "dense", 
      "bias": [
        0.16113304010192966, 
        0.003149252271319597, 
        0.6219153543388598, 
        -0.19274550247760008, 
        -0.14199652407815244, 
        -0.07158926868246397, 
        -0.2063878602816622, 
        0.18790022322574812, 
        0.2096424558421888, 
        0.20445674920233106
      ], 
      "weights": [
        -1.2595330152611948, 
        0.49214057037733855, 
        -0.3786059474154917, 
        0.08028549372674271, 
        0.13081296779001378, 
        -0.06103496063181677, 
        1.0092979407659752, 
        0.4665516622561955, 
        -0.10734542175682742, 
        0.014986188574041569, 
        -0.06787065473924062, 
        0.7037097214978087, 
        0.1636255510788384, 
        -0.3281963561010761, 
        -0.424242656022362, 
        0.05431303213575577, 
        -0.7253787036673541, 
        0.5576736284402167, 
        0.4095092718286132, 
        0.10834670467568275, 
        0.42085082333340446, 
        -0.21717658238447815, 
        0.2219728402513824, 
        0.1916555300436789, 
        -0.1181497497893069, 
        0.08470296600705567, 
        1.186351308351898, 
        -0.26450772967482034, 
        -0.18967229408125483, 
        0.1500472307674399, 
        -0.08055676145715071, 
        -0.023184234125504858, 
        -0.3343631386783557, 
        0.2401035833107381, 
        0.45913927547833355, 
        0.21453673986459543, 
        0.32496100775651593, 
        -0.11767961418380873, 
        -0.2636372795320027, 
        0.12853143672650177, 
        -0.25264337018357036, 
        -0.25637191421605654, 
        -0.31693655369039125, 
        0.015010861367475233, 
        -0.06021700349766709, 
        0.012750052695616899, 
        0.40807867300602024, 
        0.49236440665619996, 
        -0.2308293258141696, 
        0.3714897529131111, 
        0.0690672864375967, 
        -0.4214947138166573, 
        -0.03121005351023882, 
        0.6724473341147595, 
        -0.45448534201188273, 
        -0.17717712551265508, 
        0.5146361684014921, 
        -0.6508538571229707, 
        0.10100495239304179, 
        0.5259404583093503, 
        0.24476902826108898, 
        -0.05801715703327397, 
        0.726204270142873, 
        -0.47121365412836397, 
        -0.24289229708541168, 
        0.26128278897326745, 
        0.3947344785930411, 
        0.20556879725040597, 
        -0.1626318666747806, 
        0.31851191699594683, 
        0.862457396962592, 
        -0.1123748501708865, 
        -0.2561527258885643, 
        0.012514603503070985, 
        0.14955921080814805, 
        0.14763699959955645, 
        1.333295805888189, 
        0.3535575691374651, 
        -0.07243062932872857, 
        0.19348543185987765, 
        -1.0874952951731562, 
        0.6309084759695357, 
        0.46536292837384213, 
        0.4382959875156556, 
        0.31862805014808615, 
        -0.48574596850715324, 
        -0.7470225400394892, 
        0.5753465840660016, 
        -0.439519172274465, 
        0.27204225819174627, 
        0.22927584235546675, 
        0.2744906899599474, 
        0.4326860298598211, 
        -0.6879345094968298, 
        0.20845384605480877, 
        0.6230106025506065, 
        0.6575362937716888, 
        0.41603317675341034, 
        0.7290753251327107, 
        -0.3185196062927226
      ]
    }, 
    {
      "activation": "rectified", 
      "architecture": "dense", 
      "bias": [], 
      "weights": []
    }, 
    {
      "activation": "linear", 
      "architecture": "dense", 
      "bias": [
        -0.3128542262583868, 
        -0.3041295329055192, 
        -0.4771311786075483, 
        0.4329648674440439, 
        0.05259229326659845, 
        -0.5218973775751407, 
        -0.016280050222481468, 
        0.5919167083935327, 
        -0.446640271386512, 
        0.18242623372816896
      ], 
      "weights": [
        0.18335356290889887, 
        -0.10620359624200511, 
        -0.09150470763244128, 
        0.3366760164085014, 
        -0.280263150024925, 
        0.02617663395193524, 
        0.2671931317629623, 
        0.7701238306204397, 
        0.5320249731599239, 
        -0.3447974772919985, 
        0.5951895730402545, 
        -0.42244905693073936, 
        -0.023800085153663737, 
        -0.6154637589702049, 
        0.34589540805372887, 
        -0.15790614949820864, 
        0.7353841726942599, 
        0.5433493480549376, 
        0.007965846604651527, 
        0.2543772668990025, 
        0.014877321842238772, 
        0.31964543113550203, 
        1.3366747557474013e-07, 
        8.690276110208175e-229, 
        -1.5938083851592084e-06, 
        -1.7739835966060242e-37, 
        0.02588772347628827, 
        -0.036097758104130004, 
        -0.10769601059873898, 
        -0.2053593323656094, 
        0.4352371701778505, 
        -0.3618673251388918, 
        0.5277703335682424, 
        0.315370894904749, 
        0.5429130598152948, 
        0.4067391309469815, 
        0.6951240582172843, 
        0.008413705110205122, 
        -0.540611687272805, 
        0.09192684721025347, 
        -0.49146182180580733, 
        0.4612734076143289, 
        -0.39428141294323915, 
        0.2138071473520713, 
        0.24623923107301135, 
        -0.11090386770752035, 
        -0.018922598468954343, 
        -0.8618599625265513, 
        0.5218924640060459, 
        0.13641072554030853, 
        -0.9525593506413362, 
        0.1547208614143544, 
        0.5608147546288884, 
        0.41314512450234586, 
        0.10906748941723167, 
        0.4164659724857703, 
        0.19016392554337402, 
        0.6329718547243463, 
        -0.7460380261668723, 
        0.003697242417138207, 
        -0.9543089881175607, 
        0.3355626434545617, 
        -0.26628791780140226, 
        0.5108093552365304, 
        0.2504223050894575, 
        0.5783943876044056, 
        0.2771270606103486, 
        -0.11585877101168768, 
        0.7128587367252929, 
        -0.3644175608149408, 
        0.5384731735536671, 
        -0.19042970006958806, 
        0.7159186874722853, 
        -0.23107240026440393, 
        0.07676918932521226, 
        0.4904473180071423, 
        0.22174498954095903, 
        0.4136388963027201, 
        0.18913913828797108, 
        -0.4592457908500434, 
        0.7846924183570688, 
        0.4286367253739648, 
        0.3204048245935951, 
        0.4347708988153791, 
        -0.4677779161862823, 
        0.43893341595518603, 
        -0.14455273076237402, 
        0.3953369282094694, 
        -0.36508046800044314, 
        0.48134532640493755, 
        -0.41370250024272276, 
        0.5764303313367973, 
        -0.6176285252586194, 
        0.5088845030218898, 
        0.1649401059982246, 
        0.3764033967343815, 
        0.553685854679198, 
        -0.588412514697056, 
        0.2994231713365421, 
        0.536752328285877
      ]
    }, 
    {
      "activation": "rectified", 
      "architecture": "dense", 
      "bias": [], 
      "weights": []
    }, 
    {
      "activation": "linear", 
      "architecture": "dense", 
      "bias": [
        0.7162697496967992, 
        0.3492646800480619, 
        -0.054241544911062
      ], 
      "weights": [
        -0.2980045994657926, 
        -0.7084707152357848, 
        -0.05007982073436798, 
        -0.6159411746067236, 
        0.8470293656517527, 
        -0.6297778656389892, 
        0.2898058615792057, 
        -0.3323948757636939, 
        -0.40981978453066115, 
        0.5226220949859371, 
        0.49048973652192296, 
        0.2656834764243317, 
        -0.061958465874309525, 
        0.23454204253570576, 
        -0.8114297756809652, 
        -0.011054694561815091, 
        -0.8130873345430044, 
        -0.12475772283635148, 
        0.8045377616590427, 
        0.25938357707643434, 
        -0.15809275112986385, 
        -0.19265953463118307, 
        -6.480037518764867e-16, 
        0.9694848140138609, 
        -0.21133678578968654, 
        0.7783015340258607, 
        0.11170704850247438, 
        0.7634095898845664, 
        -0.38536512371707743, 
        -0.5153451793795195
      ]
    }, 
    {
      "activation": "softmax", 
      "architecture": "dense", 
      "bias": [], 
      "weights": []
    }
  ], 
  "miscellaneous": {
    "scikit-learn": "0.18.1"
  }, 
  "outputs": [
    "Wjets", 
    "ttbar", 
    "Tprime"
  ]
}