{
  "defaults": {}, 
  "inputs": [
    {
      "name": "corr_met", 
      "offset": -165.16576943846226, 
      "scale": 0.007992176294171779
    }, 
    {
      "name": "AK4HTpMETpLepPt", 
      "offset": -1627.2006553153992, 
      "scale": 0.001881635721722484
    }, 
    {
      "name": "AK4HT", 
      "offset": -1313.3303905855814, 
      "scale": 0.0022321623464965487
    }, 
    {
      "name": "NJets", 
      "offset": -5.676465277777778, 
      "scale": 0.5747354234271593
    }, 
    {
      "name": "NJetsAK8", 
      "offset": -3.066451388888889, 
      "scale": 3.6479174825141825
    }, 
    {
      "name": "deltaRAK8", 
      "offset": -2.156704887120674, 
      "scale": 1.560544598439847
    }, 
    {
      "name": "nH_DeepAK8", 
      "offset": -0.6562847222222222, 
      "scale": 1.4044667130597943
    }, 
    {
      "name": "nT_DeepAK8", 
      "offset": -0.2695694444444444, 
      "scale": 2.0232361647100734
    }, 
    {
      "name": "jetPt_1", 
      "offset": -541.2290541471905, 
      "scale": 0.004468054785525874
    }, 
    {
      "name": "jetPt_2", 
      "offset": -377.5696142800649, 
      "scale": 0.006872592454185904
    }, 
    {
      "name": "jetPt_3", 
      "offset": -274.09578219000497, 
      "scale": 0.012604685940245193
    }, 
    {
      "name": "sdMass_1", 
      "offset": -87.51748374192294, 
      "scale": 0.012831383538512642
    }, 
    {
      "name": "sdMass_2", 
      "offset": -79.99656525140298, 
      "scale": 0.015095859130122156
    }, 
    {
      "name": "sdMass_3", 
      "offset": -62.725891701288305, 
      "scale": 0.018956541243898648
    }, 
    {
      "name": "dnnLargest_2", 
      "offset": -1.9257847222222222, 
      "scale": 0.605073743145518
    }, 
    {
      "name": "dnnLargest_3", 
      "offset": -1.883, 
      "scale": 0.5789372959980668
    }, 
    {
      "name": "dnnJ_1", 
      "offset": -0.2949742974153908, 
      "scale": 2.748432985503582
    }, 
    {
      "name": "dnnJ_2", 
      "offset": -0.2598529817563758, 
      "scale": 2.824586591055748
    }, 
    {
      "name": "dnnJ_3", 
      "offset": -0.298145802596867, 
      "scale": 2.7171986103669203
    }
  ], 
  "layers": [
    {
      "activation": "linear", 
      "architecture": "dense", 
      "bias": [
        0.683830574469386, 
        0.6264232373536449, 
        0.4346907756569401, 
        0.33413484614483874, 
        -0.47034604237088806, 
        0.7916454318526187, 
        0.1492974376761797, 
        0.48829732418493776, 
        -0.987168852610306, 
        -0.9059394781722627, 
        0.08033120553060516
      ], 
      "weights": [
        -0.039789030547926214, 
        -1.2682772632236206, 
        0.5822501686971793, 
        0.031121613032647027, 
        -0.06369798575673721, 
        -0.39422335219297133, 
        -0.023268048398581098, 
        -0.031110820374550624, 
        -0.1646608201665996, 
        -0.15992946720771425, 
        -0.1608540221082103, 
        0.0282625986083136, 
        -0.04870024424912741, 
        0.04016373339767791, 
        -0.01226207453979222, 
        0.08004043733550367, 
        0.12250734356200652, 
        0.011171500460699734, 
        0.10026695649015153, 
        0.09880666146994233, 
        0.4790066177022617, 
        0.03836432149186538, 
        -0.009019733540561573, 
        -0.07485529495693818, 
        -0.22509318003123138, 
        -0.12807966421068767, 
        -0.11441590899771567, 
        -0.36938084184703773, 
        0.12020275816100037, 
        -0.010744606048431436, 
        -0.14357539200718084, 
        0.10802199221649482, 
        -0.15435098520540685, 
        -0.04417959763186656, 
        0.16583118137101566, 
        -0.27823511380052435, 
        -0.42110057985377575, 
        -0.3838430709465595, 
        0.07054926267965571, 
        -0.05008816635310812, 
        0.09800400958355672, 
        -0.8832168504067897, 
        -0.39966928731948864, 
        0.0859038309496802, 
        -0.03997840788510053, 
        -0.1092337543812888, 
        0.11814016935509816, 
        0.172930016061297, 
        -0.1634360100502714, 
        0.048542668051233126, 
        -0.24812513187692212, 
        0.005304397189053451, 
        0.18901682077422852, 
        0.14375114593248287, 
        0.3766877432051091, 
        0.2535205606891233, 
        0.3215555652027844, 
        -0.0753264320779909, 
        -0.8843377298655303, 
        -0.19782301052131288, 
        -0.19629572547755075, 
        -0.6423369523475239, 
        -0.048139587119164565, 
        -0.13539459652574445, 
        0.002979616646984183, 
        -0.24805367857166208, 
        -0.20274240686061604, 
        -0.13564571431665004, 
        0.2681323042625615, 
        0.18925819106507524, 
        0.3243209422584686, 
        -0.09375698831673622, 
        -0.05298691921158571, 
        0.07492756202302885, 
        -0.09756109732740022, 
        0.013840321301207497, 
        -0.06772791716618588, 
        -0.112746605485271, 
        -0.05862859262680774, 
        -0.011400389344864592, 
        0.11910834518141745, 
        -0.021540332067415936, 
        -0.038050024062822485, 
        -0.02273724332110304, 
        0.1296486259897949, 
        -0.015993344410444126, 
        0.10018670628218967, 
        0.038005295043520425, 
        -0.029193423887774277, 
        0.3078214503737723, 
        -0.09309117926143742, 
        -0.31796232419158127, 
        -0.01391510566500517, 
        -0.1637410643971585, 
        -1.4784040879853697, 
        -0.0664834967362183, 
        0.05767005890014477, 
        -0.30710398498146857, 
        -0.14551756558857193, 
        -0.7148228891814346, 
        -0.306428682481245, 
        0.020189720429689716, 
        0.12245314790974555, 
        0.3630574302667851, 
        -0.0034572490249969983, 
        0.04526869122530425, 
        0.01111446879586768, 
        0.0992082647943367, 
        0.38804673506732174, 
        -0.03948719935751685, 
        0.11751333863224536, 
        0.2941296450469241, 
        0.09309690420791224, 
        0.42214089912339126, 
        -0.12798151925642873, 
        0.8913392846206981, 
        -0.10484537138596021, 
        0.03962433670254516, 
        0.3727493215077653, 
        -0.011055009482008963, 
        -0.0899663848025228, 
        -0.11519868332183743, 
        -0.3425618798475521, 
        -0.2578997303810508, 
        -0.11111306021679541, 
        -0.22192958530767146, 
        -0.6357701565870499, 
        -0.13653862659057053, 
        0.056136472591348595, 
        0.02513865746248961, 
        0.015049548044043503, 
        -0.0030164181715293553, 
        0.14976461045273712, 
        0.11972740729959276, 
        0.06506875502382214, 
        0.20937550138413152, 
        0.15609922814173366, 
        -0.3028040969643226, 
        0.03406855822389144, 
        -0.017764824922146497, 
        0.15138260725086478, 
        0.25404233814677285, 
        -0.09046381980104615, 
        -0.3457341947279748, 
        -0.18775356585995145, 
        0.05043104699507513, 
        -0.16643847942359052, 
        0.066461523148732, 
        -0.06088728782063999, 
        0.6772014833088119, 
        0.3210222949635371, 
        -0.6483756691728526, 
        0.0008764634884297334, 
        0.03473904006026146, 
        -0.048768237793809455, 
        0.021386954748180885, 
        0.18319457521033555, 
        -0.01764748001922114, 
        0.02944982980888364, 
        0.08767114771176594, 
        0.07140782823688666, 
        -0.02198866642210817, 
        -0.008687006357861658, 
        0.06284964950113507, 
        -0.03627128188919199, 
        0.014317963834981528, 
        -0.002079884661800416, 
        0.01540990685836432, 
        -1.6647163888929195, 
        0.026462958298007214, 
        0.045284334032976985, 
        -0.042481343320270475, 
        0.10204273350035482, 
        -0.13065008289955365, 
        0.02775308686869588, 
        0.38588702620671544, 
        -0.007968050817846474, 
        -0.009773161376302592, 
        0.00010054271701831523, 
        0.049822189733691374, 
        0.00806857235426862, 
        0.01223086229326716, 
        -0.0014432470415928567, 
        0.014624288008776184, 
        0.02220688335486683, 
        -0.10432512647655291, 
        0.019058588165917482, 
        0.03516688067903544, 
        -1.830505610349146, 
        0.09257930364405775, 
        -0.2209610420723094, 
        -0.09844571055724541, 
        0.17966046903984953, 
        0.07329746168127375, 
        -0.060003136885978865, 
        0.847231278607294, 
        0.08709799361232742, 
        0.12334575531734042, 
        -0.14544214217259793, 
        -0.12329731664826363, 
        0.1042082545693397, 
        -0.18531910608634625, 
        0.10333851090285587, 
        0.11240596258009583, 
        -0.01650300260356814, 
        0.033747610596807094, 
        0.0711670562683528, 
        0.3171579905331377, 
        0.1955592043495082
      ]
    }, 
    {
      "activation": "rectified", 
      "architecture": "dense", 
      "bias": [], 
      "weights": []
    }, 
    {
      "activation": "linear", 
      "architecture": "dense", 
      "bias": [
        -0.3979139674592294, 
        0.34588907621192794, 
        -0.20471468283386385, 
        0.3227990224858796, 
        0.08586470419517071, 
        0.5419616555313255, 
        -0.1077318788656857, 
        -0.0012884039293406327, 
        0.07227762732554234, 
        0.31222521684560706, 
        0.6083489379393198
      ], 
      "weights": [
        0.30359059441785075, 
        0.08583841045753202, 
        0.25036775744389067, 
        -0.11022219121427441, 
        0.5804794762076904, 
        -0.510369922508456, 
        0.263031041403629, 
        0.10793905315694605, 
        0.7828407410698168, 
        0.7492216724725085, 
        -0.0025641983203131347, 
        0.10673490660125276, 
        -0.20217105522530623, 
        -0.18947605025934258, 
        -0.07486547831829571, 
        -0.5105710558673299, 
        0.6601785063595982, 
        0.24011053132174665, 
        0.1203225380798522, 
        -0.942509095844066, 
        -1.2229423566184172, 
        0.1844201258880946, 
        -0.26501665498863924, 
        -0.8848688763913194, 
        0.36979167782550976, 
        0.0990999586323044, 
        -0.328659595414815, 
        -0.08914156635040545, 
        -0.16171214109911938, 
        -0.02356505413261587, 
        -0.3258546193528327, 
        -0.5904857788221359, 
        0.5082226474374336, 
        0.4593743100839798, 
        -0.18563875090211637, 
        -0.07511383452956748, 
        -0.11387888956138432, 
        0.11837071658534604, 
        -0.24889176214924988, 
        -0.05929227543814338, 
        0.05962122845477428, 
        0.4810858381847667, 
        0.7411714463961357, 
        0.35144483741342886, 
        0.34666114126041214, 
        0.04253229279184855, 
        0.44739816331573606, 
        -0.26836139639773804, 
        -0.07670333320894393, 
        0.2115817006312548, 
        -0.4152375344042341, 
        -0.419400753843969, 
        -0.9266173731146986, 
        -0.6401620917221108, 
        0.40913997509879835, 
        0.08800326088019349, 
        0.39850984902162956, 
        -0.09590693108585027, 
        -0.05194270531013539, 
        0.0929042002019213, 
        -0.577316500991785, 
        -0.08545304419121076, 
        0.19888449006021483, 
        0.5644147756561901, 
        0.4585022047400938, 
        -0.3267479283435802, 
        0.03394266281699995, 
        0.3555436753051606, 
        0.5087989954245512, 
        0.24090821902238913, 
        0.42339232417451006, 
        -0.10998641811319386, 
        0.4731628027801733, 
        -0.2427654319531918, 
        -0.1415027789438274, 
        -0.07234402596835379, 
        -0.4239187840311414, 
        0.030487118105479834, 
        0.03702730056713822, 
        0.7414367245322715, 
        0.44109707543185156, 
        -0.5093153394616644, 
        0.588424433254695, 
        -0.5602928793786985, 
        0.26912381248424094, 
        -0.3914312488588384, 
        -1.084697615871784, 
        0.08660775758604515, 
        0.4239278586642324, 
        -0.30048745433408575, 
        -0.11044650197144486, 
        -0.2074184827071591, 
        0.051004711778342995, 
        0.3883220865999302, 
        -0.0941783858731335, 
        0.6184121519086104, 
        0.9750199256521688, 
        0.9886180675560049, 
        0.1386218362877448, 
        -0.48726985638500836, 
        0.37417410805947204, 
        0.26492456042207624, 
        0.25461680841502854, 
        0.5365585547035093, 
        -0.10242879258502349, 
        0.1532346915662752, 
        -0.2320624993959874, 
        1.0397070754747837, 
        0.5031307308117338, 
        0.11423867322792804, 
        0.6897966002289215, 
        -0.2464214880964411, 
        0.025293201106618153, 
        0.5291277947862761, 
        0.09551621149089985, 
        -0.4821596386034216, 
        -0.17077847744359284, 
        0.1759737015461745, 
        -0.25918765337344074, 
        0.05428712881830067, 
        0.41207189863889615
      ]
    }, 
    {
      "activation": "rectified", 
      "architecture": "dense", 
      "bias": [], 
      "weights": []
    }, 
    {
      "activation": "linear", 
      "architecture": "dense", 
      "bias": [
        0.03800468799216596, 
        0.1855160970647165, 
        -0.2715074143962292, 
        0.2697900230075354, 
        -0.13206294587125755, 
        0.21919989922802574, 
        -0.47507103980455034, 
        0.28915278086358615, 
        0.09747460503904189, 
        0.37632336149995305, 
        0.5503051387378806
      ], 
      "weights": [
        0.2926631547058415, 
        0.3369485239440337, 
        -0.367060702503832, 
        0.3541732518100758, 
        -0.30120391890947174, 
        0.6379277935522453, 
        -0.17387073095802522, 
        -0.4389740575458082, 
        0.06596088910893382, 
        0.30666720919747187, 
        -0.004721630475886999, 
        0.07528335466949475, 
        -0.1251772646550499, 
        -0.048825066346915386, 
        -0.08944768382998325, 
        0.23866077045706957, 
        0.2745074190874206, 
        -0.11670597797325391, 
        -0.09918829287244162, 
        0.6859918583695231, 
        -0.1907448402204301, 
        0.20197037163421214, 
        -0.24818557595796875, 
        -0.4810952456685587, 
        -0.2796006623974636, 
        0.28032893876653936, 
        0.08607921475526302, 
        0.44482634271918864, 
        -0.33823383417471037, 
        -0.49315229986125286, 
        0.6104436466729658, 
        0.1704181974240709, 
        -0.031198384210159996, 
        -0.7529885530050829, 
        0.715500601381733, 
        0.257708146398415, 
        -0.12219442735374171, 
        0.3480377407380304, 
        0.30059786311108133, 
        0.09769444837173842, 
        0.8662919320800258, 
        -0.6888890394770116, 
        -0.3200681738138994, 
        0.15980289958135666, 
        0.3515014865400917, 
        -0.023647752402239024, 
        -0.143130693076144, 
        0.5191802187465588, 
        -0.009490967300960376, 
        0.5477927075488084, 
        -0.10471119984157495, 
        -0.1868562647241329, 
        0.6941207043890292, 
        0.8999449927628949, 
        -0.27714519069130866, 
        -0.026206564465145892, 
        -0.960497058001445, 
        0.07004001533084138, 
        -0.5216260663279751, 
        -0.24416045422057128, 
        0.3327775581967044, 
        -0.0883826726040341, 
        0.16289789791523968, 
        0.235094881354554, 
        0.37967880355935063, 
        0.009812862425226958, 
        0.35273077882610265, 
        -0.36538554952334806, 
        0.03417107525623432, 
        0.009359364838682832, 
        -0.07481322571607435, 
        0.10700155662309441, 
        0.6969416786621844, 
        -0.12913037018825121, 
        -0.3000892850459202, 
        -0.6117630366554995, 
        0.5790779766993958, 
        -0.07708228775228614, 
        0.36935225943658406, 
        0.7165862857989571, 
        -0.012615516272995906, 
        0.2754747853513129, 
        -0.03488733063937798, 
        -0.27947575032947014, 
        0.0984527366675388, 
        0.31858401247005597, 
        -0.06750348065349968, 
        0.6790222467391814, 
        -0.04980839901862668, 
        0.7734482118920767, 
        0.1300147094998238, 
        -0.4196553967942666, 
        0.13236847589531323, 
        0.14145608311456043, 
        0.49125808636070345, 
        -0.19602221817021884, 
        -0.276715809698038, 
        0.6340203927067898, 
        0.003929794418330994, 
        0.39781119785335606, 
        0.34632738020552933, 
        -0.06918105691430751, 
        -0.3349922337528997, 
        -0.2880670278775577, 
        0.6719339814076515, 
        0.2426528740090694, 
        -0.0707751562704005, 
        0.02975274244997138, 
        0.5234778129426455, 
        -0.2514486160255888, 
        -0.5337817058360034, 
        -0.8034055352142394, 
        -0.1279600724014052, 
        0.0738591193149964, 
        0.08541227150760772, 
        -0.27694329951076097, 
        0.1924747851159593, 
        0.2136930767528072, 
        0.08257485023962281, 
        -0.26287224610710064, 
        0.3131577212726206
      ]
    }, 
    {
      "activation": "rectified", 
      "architecture": "dense", 
      "bias": [], 
      "weights": []
    }, 
    {
      "activation": "linear", 
      "architecture": "dense", 
      "bias": [
        0.3063390657841585, 
        0.20653682803562473, 
        -0.49019793338871576
      ], 
      "weights": [
        0.20209271757320985, 
        -0.5205473062978606, 
        -0.19674348815645923, 
        0.7588470341063417, 
        -0.5516479721015997, 
        -0.3338159246126811, 
        0.22360537799717667, 
        0.43154325344275507, 
        -0.2886074517048621, 
        -0.5581797402855353, 
        0.2515883023029864, 
        -0.38252024732738965, 
        0.04451327504529729, 
        -0.007305039431706263, 
        -0.6372996293758004, 
        0.6029409595317369, 
        0.16778468040176533, 
        1.0091817933427918, 
        0.37681211186569236, 
        -0.8377255605035034, 
        -0.3037046627156558, 
        0.6146030173796684, 
        0.34728065057895363, 
        -0.4663245717056041, 
        0.6477893718259292, 
        0.02744240404316149, 
        0.48655467926974855, 
        0.1169612847591478, 
        -0.17428921420918259, 
        -0.5480294867603984, 
        0.21609051861536815, 
        0.6059959738100955, 
        -0.6052638125645079
      ]
    }, 
    {
      "activation": "softmax", 
      "architecture": "dense", 
      "bias": [], 
      "weights": []
    }
  ], 
  "miscellaneous": {
    "scikit-learn": "0.18.1"
  }, 
  "outputs": [
    "Wjets", 
    "ttbar", 
    "Tprime"
  ]
}