{
  "defaults": {}, 
  "inputs": [
    {
      "name": "corr_met_MultiLepCalc", 
      "offset": -169.52235792579893, 
      "scale": 0.007645827366327285
    }, 
    {
      "name": "AK4HTpMETpLepPt", 
      "offset": -1623.2171393803037, 
      "scale": 0.0017803848863754792
    }, 
    {
      "name": "AK4HT", 
      "offset": -1302.4551640837753, 
      "scale": 0.0021275422556621517
    }, 
    {
      "name": "NJets_JetSubCalc", 
      "offset": -5.711099829346317, 
      "scale": 0.5571839758805724
    }, 
    {
      "name": "NJetsAK8_JetSubCalc", 
      "offset": -3.0946546862480044, 
      "scale": 3.0703786602074725
    }, 
    {
      "name": "jetPt_1", 
      "offset": -550.4533830057776, 
      "scale": 0.004306364052655945
    }, 
    {
      "name": "jetPt_2", 
      "offset": -387.73954021494296, 
      "scale": 0.006468834945688678
    }, 
    {
      "name": "jetPt_3", 
      "offset": -280.7910180247577, 
      "scale": 0.011787617457942386
    }, 
    {
      "name": "dnnJ_1", 
      "offset": -0.32834100969741775, 
      "scale": 2.730670087787338
    }, 
    {
      "name": "dnnJ_2", 
      "offset": -0.2952550952489104, 
      "scale": 2.773751789072363
    }, 
    {
      "name": "dnnJ_3", 
      "offset": -0.3252771781513808, 
      "scale": 2.7089918429829294
    }
  ], 
  "layers": [
    {
      "activation": "linear", 
      "architecture": "dense", 
      "bias": [
        0.24337996919439184, 
        -0.6697782418766319, 
        0.9892186348386595, 
        0.7728207394380356, 
        -0.7802985006642629, 
        0.14019544413285293, 
        -1.1511593269640243, 
        -0.7285380158451278, 
        -0.04499226539959661, 
        0.7214759316725771
      ], 
      "weights": [
        -0.07533920611492649, 
        -0.9795350023869694, 
        -0.24847715129696438, 
        -0.01912569112180466, 
        -1.0835318784764205, 
        0.3948647935307369, 
        0.1162777553264285, 
        0.22565569035019797, 
        -0.12406589452265421, 
        -0.08116404480407725, 
        0.10328991281371641, 
        -0.05732574961170073, 
        0.11303532277448945, 
        -0.09393457868137174, 
        0.0029060937513135502, 
        0.19829019431575698, 
        0.012360588018990527, 
        0.01536571994424, 
        0.032228485803840475, 
        -0.0043576741162333985, 
        -0.01577056151917973, 
        -1.1094128472302605, 
        -0.11446332894395665, 
        0.3078064394950635, 
        -0.863285803530335, 
        -0.49414228315970915, 
        -0.44669091781384196, 
        0.04697537331658783, 
        0.1848085066939031, 
        0.07018121643439651, 
        0.01772926117544271, 
        0.06470313099945009, 
        0.09889823534347161, 
        -0.005218426612210863, 
        -0.7067887545703083, 
        -0.012743022472852798, 
        0.0917422151747213, 
        -0.0021354010841529818, 
        0.5725628516457041, 
        -0.08906870202657892, 
        -0.2839026204779681, 
        0.18031846664382037, 
        0.07544641253924217, 
        -0.19528651606738764, 
        -0.07822053367522605, 
        0.5249561720337873, 
        -0.23183859798620435, 
        -0.04477557042826853, 
        0.11853145733722185, 
        0.6056977993701941, 
        0.17558673003152517, 
        0.14510414863817572, 
        0.023415556102862937, 
        -0.0076240348102553125, 
        0.08281753090528088, 
        -0.06393035090246882, 
        -1.1051453524535608, 
        0.5173602960249368, 
        0.08180106462985483, 
        0.2100734083571805, 
        -0.6947595830768503, 
        -0.004978299459001899, 
        0.021322799792467494, 
        0.035576494497533646, 
        0.1127238315315087, 
        0.11919600318538832, 
        -0.02387914086233644, 
        0.039435612419121406, 
        -0.044726044947049556, 
        0.008585767469558038, 
        0.04320318360867639, 
        0.02137065149854009, 
        0.020729008249188986, 
        0.013177574948064036, 
        0.010778505343166704, 
        -1.6142778421535176, 
        0.022024719887721856, 
        0.02435587194797952, 
        0.04122366043774498, 
        -0.14882982093051583, 
        0.038285995489638555, 
        1.140227266790063, 
        0.12117510971532151, 
        0.022611805487946023, 
        0.026133011233949704, 
        -1.588980629595865, 
        0.04422106093645423, 
        0.04720642588153873, 
        -0.1286470247249274, 
        0.013655834799167769, 
        -0.526244797545523, 
        -0.8433378661365902, 
        -0.6307605345661648, 
        0.34772202760694126, 
        0.20803886770336172, 
        0.16531035232262994, 
        0.22132842620883308, 
        0.31400947337773266, 
        0.3465850993616936, 
        0.007643806393101503, 
        0.7933409421769432, 
        -0.07137055100963963, 
        -0.2289715298332558, 
        0.15449263797784193, 
        -0.24607763331981689, 
        0.002552478914528066, 
        -0.04188711993051681, 
        -0.41377858808752355, 
        -0.3865209132941377, 
        -0.31241426061499705
      ]
    }, 
    {
      "activation": "rectified", 
      "architecture": "dense", 
      "bias": [], 
      "weights": []
    }, 
    {
      "activation": "linear", 
      "architecture": "dense", 
      "bias": [
        0.07875559021952278, 
        0.6576041224320777, 
        -0.1235239963202999, 
        0.24113511139968952, 
        0.2382897450614325, 
        -0.4199044265107503, 
        -0.042504472101692566, 
        0.36525313134519743, 
        -0.3062015959869426, 
        0.11578084333977053
      ], 
      "weights": [
        0.20676855402734878, 
        1.021028271120462, 
        -0.5536778798630708, 
        0.184408014690263, 
        -0.651700201308184, 
        0.5721235045565602, 
        1.7050164178715506, 
        0.8055151940808081, 
        0.49502807791268, 
        0.3232677287877938, 
        0.39915782485858525, 
        0.11213484553821686, 
        -0.2221888639044552, 
        -0.14174556826231596, 
        -0.03621828430328207, 
        -0.23532513185791207, 
        -0.8788008777060552, 
        -0.2725213043478793, 
        -0.57723792910474, 
        0.8632790430677952, 
        0.19871935789457865, 
        0.41559803624029745, 
        -0.4069962810272322, 
        -0.04137499768538757, 
        -0.5829251891912615, 
        -0.017881018365465857, 
        1.2682110497745138, 
        0.6839123002432651, 
        -0.3379871214556495, 
        0.7071361936091992, 
        -0.21434568525305475, 
        1.3287012074292508, 
        0.20265577745887972, 
        0.17194388510919376, 
        0.28943382200206946, 
        -0.41594742402037527, 
        2.0708894208219415, 
        1.198030226377604, 
        -0.04598288276848279, 
        0.11521963401191443, 
        0.6271781520626103, 
        -0.45911074628740833, 
        0.1416688923550406, 
        0.561652478727154, 
        0.4960214858067079, 
        0.6589534426309543, 
        -0.6975376141445796, 
        0.2962078242057657, 
        0.5968089041263279, 
        -0.24145376275013009, 
        0.02885625292590917, 
        0.7831412711938326, 
        -0.10137330039506066, 
        -0.31081378067210264, 
        -0.0672456692355176, 
        0.013119290052234882, 
        0.16949388636059765, 
        -0.018664828849069705, 
        0.6932059165648679, 
        0.6069607496011106, 
        0.2994499973981621, 
        -0.6329100144342495, 
        -0.05014729887352936, 
        0.2282670843350358, 
        0.438613234254863, 
        -0.007785345843024129, 
        -1.1443022818413435, 
        -0.6990102145440713, 
        0.6907710041238447, 
        -0.6608410250203912, 
        -0.00440889756063209, 
        -0.7584494941980924, 
        0.08690440382818074, 
        0.009256837487463669, 
        -0.16412492740790607, 
        -0.1664704018150206, 
        -1.2083602416453074, 
        0.11730321984006815, 
        0.24475940030343768, 
        0.6179951848558419, 
        0.6431417352703394, 
        -0.44062137497616083, 
        0.45779070341902744, 
        0.8004901384016988, 
        0.28102672057108424, 
        0.261109886092036, 
        0.455590852259814, 
        -1.0896359741581334, 
        -0.19441350923517653, 
        -0.3627740384436899, 
        -0.2357362130969603, 
        -1.0180184743811436, 
        0.691636569044487, 
        -0.0479087581821805, 
        0.14970872566077534, 
        -0.20061454282011065, 
        -1.39288536387644, 
        -1.0956501090886983, 
        0.14416116834703172, 
        -0.14844671388311992
      ]
    }, 
    {
      "activation": "rectified", 
      "architecture": "dense", 
      "bias": [], 
      "weights": []
    }, 
    {
      "activation": "linear", 
      "architecture": "dense", 
      "bias": [
        -0.6505290094868785, 
        -0.16982556452968398, 
        -0.6304246890234769
      ], 
      "weights": [
        -1.0200925653488346, 
        0.41810145134685156, 
        -0.8348267396464216, 
        -1.417289550528487, 
        0.5548772972978981, 
        -0.33254211472431533, 
        0.45421996091770794, 
        0.18699050743768666, 
        0.662983850818628, 
        0.5612627268468019, 
        0.8390321664929393, 
        -0.4069637880203511, 
        -0.2976397072123655, 
        0.4989888040378038, 
        0.2793954936259523, 
        -0.7075841277598968, 
        -0.7312251533373247, 
        -0.7972749465405781, 
        0.4805041066645689, 
        -0.9844846955761526, 
        -0.04926618306481034, 
        0.07955014177666925, 
        0.99970151862194, 
        0.5213618031030487, 
        -0.41062382830051336, 
        0.2461718152552422, 
        -0.7357204476169183, 
        0.02876382456300214, 
        -0.6520084466078685, 
        1.0283579622145018
      ]
    }, 
    {
      "activation": "softmax", 
      "architecture": "dense", 
      "bias": [], 
      "weights": []
    }
  ], 
  "miscellaneous": {
    "scikit-learn": "0.18.1"
  }, 
  "outputs": [
    "Wjets", 
    "ttbar", 
    "Tprime"
  ]
}