{
  "defaults": {}, 
  "inputs": [
    {
      "name": "corr_met_MultiLepCalc", 
      "offset": -168.24375440006713, 
      "scale": 0.007805547351767138
    }, 
    {
      "name": "AK4HTpMETpLepPt", 
      "offset": -1625.9758640928924, 
      "scale": 0.001768301858152124
    }, 
    {
      "name": "AK4HT", 
      "offset": -1306.6742305279633, 
      "scale": 0.0021049881417727024
    }, 
    {
      "name": "NJets_JetSubCalc", 
      "offset": -5.794585021301519, 
      "scale": 0.573889053049955
    }, 
    {
      "name": "NJetsAK8_JetSubCalc", 
      "offset": -3.111716184273831, 
      "scale": 2.87424916933143
    }, 
    {
      "name": "minDR_leadAK8otherAK8", 
      "offset": -2.0914621479601014, 
      "scale": 1.566240544811206
    }, 
    {
      "name": "nH_DeepAK8", 
      "offset": -0.6780995279499641, 
      "scale": 1.4027132372896105
    }, 
    {
      "name": "nT_DeepAK8", 
      "offset": -0.2832927756123751, 
      "scale": 1.9645181658744468
    }, 
    {
      "name": "jetPt_1", 
      "offset": -546.7196658575924, 
      "scale": 0.00428381774710147
    }, 
    {
      "name": "jetPt_2", 
      "offset": -387.5184571234728, 
      "scale": 0.006388007574051866
    }, 
    {
      "name": "jetPt_3", 
      "offset": -282.1304496168742, 
      "scale": 0.01150637003647983
    }, 
    {
      "name": "sdMass_1", 
      "offset": -83.77487245610958, 
      "scale": 0.013236030351810738
    }, 
    {
      "name": "sdMass_2", 
      "offset": -74.21325208533331, 
      "scale": 0.015818286398951643
    }, 
    {
      "name": "sdMass_3", 
      "offset": -57.46974978673705, 
      "scale": 0.02011891186111996
    }, 
    {
      "name": "dnnLargest_2", 
      "offset": -1.7923956016371838, 
      "scale": 0.5939653013745417
    }, 
    {
      "name": "dnnLargest_3", 
      "offset": -1.7629360536059184, 
      "scale": 0.5772791198876065
    }, 
    {
      "name": "dnnJ_1", 
      "offset": -0.31943508177617075, 
      "scale": 2.7453338705327233
    }, 
    {
      "name": "dnnJ_2", 
      "offset": -0.2901894106198423, 
      "scale": 2.784480254610285
    }, 
    {
      "name": "dnnJ_3", 
      "offset": -0.3173145691584644, 
      "scale": 2.728744688229986
    }
  ], 
  "layers": [
    {
      "activation": "linear", 
      "architecture": "dense", 
      "bias": [
        -0.5546560418553912, 
        1.060616496962978, 
        0.43567130984139807, 
        0.09706341254366717, 
        0.5019717514792603, 
        0.7650327202417623, 
        0.44335518171413046, 
        0.36442357100463185, 
        0.7972886068703336, 
        0.8691972384948748
      ], 
      "weights": [
        -0.01169183932235502, 
        -0.17423327627828414, 
        -0.0666868475922187, 
        -0.019585245860241757, 
        0.49750963388620784, 
        -0.07766719586110363, 
        0.02608305093127044, 
        0.07122311077950282, 
        0.289802590695532, 
        -0.07896157727501608, 
        -0.02232525114282508, 
        0.15173164078898838, 
        -0.013362641389551719, 
        0.06244111918517392, 
        -0.002966182442524183, 
        0.02945136983692451, 
        -1.4547193404631753, 
        -0.046160947534519714, 
        0.13151240247607943, 
        -0.1515431223755226, 
        0.5826784180472122, 
        -0.6376367437566811, 
        0.026209156525110574, 
        0.23283368339107874, 
        -0.15035128573994835, 
        -0.09720998339000891, 
        -0.3308899254971176, 
        0.21634566383014617, 
        -0.15896981614093278, 
        -0.0874929362345538, 
        -0.22518680634753394, 
        -0.2930982373936067, 
        -0.6660179063562508, 
        -0.004156944368703347, 
        -0.0823252994027251, 
        0.1921880083551149, 
        0.8317092059492368, 
        0.02677689017346211, 
        -0.1374196304173989, 
        -1.2457884372984673, 
        0.09434035928624729, 
        -0.2216592754412566, 
        -0.032650674002839226, 
        -0.4672243965376957, 
        0.07333832543009203, 
        0.07039428814343389, 
        -0.12044073153156035, 
        -0.5071535643729563, 
        -0.0915498713287834, 
        0.25577625718579783, 
        0.08744056061532862, 
        0.16220571018661104, 
        -0.056504548166499156, 
        0.18165774242737429, 
        -0.0972024407062744, 
        -0.21204642192567139, 
        0.28684362758086995, 
        0.07992033988012459, 
        -0.2451327693053305, 
        0.4127451829951771, 
        0.3181285987708751, 
        0.5184285284868894, 
        -0.09412219893156043, 
        -0.11670873437512568, 
        -0.2639368018655413, 
        -0.11664455635056058, 
        -0.16873254461791062, 
        -0.1077309812104809, 
        -0.2247622368316151, 
        -0.3968458361996168, 
        -0.7251672120148922, 
        -0.1716935379053626, 
        0.09321569108897775, 
        -0.05855676114193058, 
        -0.3874045403746566, 
        0.39615494227618775, 
        0.07649783139222678, 
        0.03830634926497498, 
        -0.3959966017388667, 
        -0.7728988416327568, 
        -0.397534138447673, 
        -0.008907018297607944, 
        -0.13467046729237703, 
        -0.43396865056147826, 
        0.24406544399388533, 
        0.1785762050140346, 
        0.02198765509868639, 
        0.20858527321952075, 
        0.1722721144893206, 
        0.19838749520420706, 
        0.06298013509053013, 
        0.07456911640401417, 
        0.2231689942611751, 
        0.3904414396812038, 
        0.6763920549998693, 
        0.017673362857699222, 
        -1.3175529113215556, 
        0.22914468454212467, 
        0.3190646579721496, 
        0.05391928931075917, 
        0.2525363195908233, 
        -0.08789703203998017, 
        -0.12168362764939841, 
        -0.18219488865295522, 
        0.09177681630259082, 
        -0.10322702614282188, 
        0.08520130298804424, 
        0.14580284506428928, 
        0.043739474888549616, 
        0.0570865128181975, 
        -0.09302176324961249, 
        0.29297941678204925, 
        0.49835497864271255, 
        0.04788452918070314, 
        -0.07554461675571995, 
        -0.3387377025575822, 
        -0.08289935939482047, 
        0.34702762820798, 
        0.3156775631168892, 
        0.21934757441120284, 
        -0.014239422148484823, 
        -0.06347726390300512, 
        0.1364956737470889, 
        0.026007013287469665, 
        -0.02703538188861267, 
        -0.1654653098259148, 
        0.08641772634202685, 
        -0.08389134802056143, 
        0.01626237402457688, 
        -0.1149507690536952, 
        0.5514586726698383, 
        -0.8835935009056392, 
        -0.3329079596538538, 
        0.16767327993169723, 
        0.34656512919965793, 
        -0.17833682852203986, 
        0.09563283780265304, 
        0.10559504978869051, 
        -0.2737450921897468, 
        0.1316047078847159, 
        0.09997369221442028, 
        -0.20461332481569422, 
        0.11712844066305611, 
        0.30873684435751914, 
        -0.7446461004389201, 
        -0.05113982992519746, 
        0.005842127379357662, 
        0.19355992103052366, 
        0.515987839699004, 
        -0.4982040726873985, 
        -0.122521830493231, 
        -0.03873312722235639, 
        -0.06935337801941358, 
        0.856778396616654, 
        -0.5100849033276117, 
        -0.027267281057951696, 
        0.10809809772445363, 
        -0.0064046984326973505, 
        -0.13838162460511486, 
        -0.15846047266019272, 
        -0.3354154572484407, 
        0.15754430636049505, 
        0.02557131021873579, 
        0.06991144324613022, 
        -0.06048486298035035, 
        -0.045225336861927014, 
        -0.018458589469439693, 
        -0.11451636325664964, 
        -0.2996756192701159, 
        -0.43654296869104897, 
        -0.3775290988344213, 
        0.1930907751159277, 
        -0.23795826945213594, 
        0.5551260710494805, 
        0.27946136893819873, 
        0.4171655381343764, 
        -0.21888762438429418, 
        0.07562868484115318, 
        0.06604722380899487, 
        -0.3428800542345039, 
        -0.041085298725361125, 
        0.00899860815508057, 
        -0.18034418647989317, 
        -0.15389618872901614, 
        -0.027076607080169166, 
        0.07242713694355528, 
        -0.014623213446764174, 
        -0.08071645751463216, 
        0.980458447814747, 
        -0.4503791501294802
      ]
    }, 
    {
      "activation": "rectified", 
      "architecture": "dense", 
      "bias": [], 
      "weights": []
    }, 
    {
      "activation": "linear", 
      "architecture": "dense", 
      "bias": [
        0.3634693911637887, 
        -0.4474496435619802, 
        0.1330695972718693, 
        -0.2693599396558974, 
        -0.06224499191772396, 
        0.36601407345980463, 
        0.24919743593726706, 
        -0.28312072297077695, 
        -0.018684074216264467, 
        0.8627292664060705
      ], 
      "weights": [
        0.1368831390889988, 
        0.5236022018404126, 
        -0.3077132141436347, 
        0.29385395829874467, 
        -0.08779501871177318, 
        -0.2560738460880359, 
        0.039297171743850334, 
        0.3540294107077277, 
        1.096615759587534, 
        0.07395802528973612, 
        -0.07771920278053375, 
        -0.7754911739646932, 
        0.23216235473669414, 
        0.45525964578644795, 
        0.35719978658999496, 
        -0.3989111927204791, 
        0.5893981423210931, 
        0.19442126460754514, 
        0.22056157471287136, 
        -0.31542900347384306, 
        0.8590813722170584, 
        0.6183826010400434, 
        0.0430218606397226, 
        -0.1396784733413569, 
        -0.4655131672523105, 
        -0.3073680885288448, 
        0.24658298445713647, 
        0.31229175732563363, 
        0.799350957185606, 
        0.3840993373992765, 
        -0.38108885696441586, 
        -0.15125434019400585, 
        0.2389898720336624, 
        -0.19090236872820524, 
        0.5333567967300199, 
        -0.1874094934107859, 
        0.06294445091577233, 
        0.45588876946955453, 
        -0.3589852584893025, 
        0.21539887245440004, 
        0.2782589035894711, 
        0.11104143412169694, 
        0.6730748136495819, 
        0.19945082272301412, 
        -0.12734555916280008, 
        0.5343135188263066, 
        0.39165815787219466, 
        -0.03408414935951926, 
        -0.1186426245539467, 
        0.719759032439899, 
        -1.344431915451161, 
        0.4091165320602009, 
        0.667124706251135, 
        -0.6492689089180779, 
        0.3809092182467028, 
        0.5283665389552913, 
        -0.12845790186295394, 
        0.2885226958125097, 
        0.09529148904142767, 
        -0.10626012341974334, 
        0.23432982263047344, 
        0.48863462839112204, 
        -0.10123873140861094, 
        -0.18802887344939218, 
        0.1262641472882117, 
        -0.28826072183043555, 
        0.21586658072453968, 
        0.32419219416668205, 
        0.7193767212528939, 
        0.4156586651980799, 
        -0.5429788885093294, 
        0.012008895500581016, 
        0.28663288129515846, 
        -0.173812017796489, 
        -0.22415953704700475, 
        -0.41493610298983336, 
        0.41584140542976195, 
        -0.07535532408292112, 
        0.25851957241735335, 
        -0.37542942246743743, 
        0.7201623121992974, 
        -0.3414282504305419, 
        -0.13845621407529898, 
        0.15102133022601227, 
        -0.36588828693930153, 
        -0.24893961749960225, 
        -0.13014136403148424, 
        0.1217541857891565, 
        0.37525445202762225, 
        -0.5786073640679711, 
        0.3583568277754997, 
        0.14740613744833048, 
        -0.17565612967026492, 
        -0.31039054951885414, 
        -0.08565883637116475, 
        -0.25087242939121873, 
        0.0911037619588497, 
        -0.01939355058977465, 
        -0.6195436369225005, 
        -0.30174888130480193
      ]
    }, 
    {
      "activation": "rectified", 
      "architecture": "dense", 
      "bias": [], 
      "weights": []
    }, 
    {
      "activation": "linear", 
      "architecture": "dense", 
      "bias": [
        0.2186999453508002, 
        0.4434222240054241, 
        -0.5179060520191525
      ], 
      "weights": [
        -0.8098078897223286, 
        -0.8890329378533954, 
        -0.30117664559275215, 
        0.6655737829519143, 
        -0.1619482380692402, 
        0.8241438268553772, 
        -0.3527380340299174, 
        -0.21045604318452765, 
        -1.0535112741114279, 
        0.17318044257003126, 
        -0.8345541276897909, 
        0.6503861557509576, 
        0.21396745403815523, 
        -0.5184566508852341, 
        0.7241109543741051, 
        -0.6000317043165415, 
        -0.11581044073070115, 
        0.6255717556499402, 
        -0.4475559228780258, 
        0.7742632248590173, 
        -0.2164854384562139, 
        0.5486288359888715, 
        0.42793839864733474, 
        -0.3045718208469823, 
        -0.759778136365006, 
        -0.8223590183664022, 
        0.9904568366864729, 
        0.04231055771543948, 
        0.13773335946051274, 
        -0.7946458468248329
      ]
    }, 
    {
      "activation": "softmax", 
      "architecture": "dense", 
      "bias": [], 
      "weights": []
    }
  ], 
  "miscellaneous": {
    "scikit-learn": "0.18.1"
  }, 
  "outputs": [
    "WjetsBB", 
    "ttbarBB", 
    "Bprime"
  ]
}
