{
  "defaults": {}, 
  "inputs": [
    {
      "name": "corr_met_singleLepCalc", 
      "offset": -167.55017973449802, 
      "scale": 0.007887306343440275
    }, 
    {
      "name": "AK4HTpMETpLepPt", 
      "offset": -1637.6537310467888, 
      "scale": 0.0018706392696512704
    }, 
    {
      "name": "AK4HT", 
      "offset": -1320.0145802797804, 
      "scale": 0.002234360217361365
    }, 
    {
      "name": "NJets_JetSubCalc", 
      "offset": -5.610019607843137, 
      "scale": 0.5866657868558717
    }, 
    {
      "name": "NJetsAK8_JetSubCalc", 
      "offset": -3.084156862745098, 
      "scale": 3.2892703467310476
    }, 
    {
      "name": "nH_DeepAK8", 
      "offset": -0.5831176470588235, 
      "scale": 1.491080275525837
    }, 
    {
      "name": "nT_DeepAK8", 
      "offset": -0.24663725490196078, 
      "scale": 2.099768745739805
    }, 
    {
      "name": "jetPt_1", 
      "offset": -541.4325443200504, 
      "scale": 0.004490054835100975
    }, 
    {
      "name": "jetPt_2", 
      "offset": -379.5567561862422, 
      "scale": 0.00682164092339599
    }, 
    {
      "name": "jetPt_3", 
      "offset": -275.64873886512305, 
      "scale": 0.012469544553592204
    }, 
    {
      "name": "sdMass_2", 
      "offset": -75.02356708637005, 
      "scale": 0.01570025450461506
    }, 
    {
      "name": "sdMass_3", 
      "offset": -58.229750521389384, 
      "scale": 0.01981721725757216
    }, 
    {
      "name": "dnnJ_1", 
      "offset": -0.3042517446848721, 
      "scale": 2.740460592518045
    }, 
    {
      "name": "dnnJ_2", 
      "offset": -0.2678585575490742, 
      "scale": 2.8133782891103807
    }, 
    {
      "name": "dnnJ_3", 
      "offset": -0.30984410682368213, 
      "scale": 2.7011104524235474
    }
  ], 
  "layers": [
    {
      "activation": "linear", 
      "architecture": "dense", 
      "bias": [
        -0.07716612791392945, 
        0.2516485758918537, 
        0.8764061821836489, 
        0.01791325557658304, 
        0.7236302700284785, 
        -0.16798035349338214, 
        0.7061579863081533, 
        0.9554605895270557, 
        0.2619761111186037, 
        0.772489629235473
      ], 
      "weights": [
        -0.4935333560977952, 
        -0.18051857311029237, 
        0.2967508801411301, 
        -0.8742837960553468, 
        -0.282534279348269, 
        0.38007334117587854, 
        0.26128755089496974, 
        -0.36003388092843425, 
        0.08889368896661819, 
        0.2699332357783699, 
        -0.024058970420047746, 
        -0.16445534584169075, 
        0.40884625291645776, 
        0.07393072408830502, 
        0.5913393625676928, 
        0.01796095118766947, 
        0.03466027571104622, 
        -0.04905347591284057, 
        0.12286896284620427, 
        0.8334173057722285, 
        -0.02959858286339746, 
        0.05772473065501025, 
        -0.23914026163577962, 
        0.15134598946012984, 
        0.0661880466668432, 
        -0.34982218330385606, 
        -0.10423467898352196, 
        0.7340424264577255, 
        -0.2935972707030561, 
        -0.05574730306266299, 
        -0.21169783912190157, 
        -0.9809362275583033, 
        0.2544219146349944, 
        -0.023099303040866322, 
        0.08209207759924389, 
        -0.06997031145499424, 
        -0.001206211157747606, 
        0.3701221134513032, 
        -0.2979119400493998, 
        -0.15032805708365068, 
        0.07233896118760827, 
        0.11242315545701406, 
        0.30692885960474464, 
        -0.3101792287181444, 
        0.23901312288522, 
        0.1208256118670246, 
        0.3382294819227379, 
        0.031225307934318144, 
        -0.6307669320734951, 
        0.014842560957872172, 
        -0.2221276639946411, 
        -0.4733770403144623, 
        -0.013387851733240521, 
        -0.011530928023831386, 
        -0.03767756491025223, 
        -0.22970009856185283, 
        0.08616573318036419, 
        0.2032984859114433, 
        0.1316740269892243, 
        0.1344932273257238, 
        -0.06594757067940901, 
        0.8446493243659431, 
        0.010680125158983126, 
        -0.21459629586525106, 
        0.10687027212162895, 
        -0.19173655516226887, 
        -0.022666004187232865, 
        -0.5606400101984088, 
        0.003321827628835602, 
        -0.022731353691428514, 
        -0.022902594895053745, 
        -0.0309825407839618, 
        -0.7709759820198888, 
        -0.5348711440722927, 
        -0.5467742311722432, 
        -0.18551525717158232, 
        0.19911985573364815, 
        0.06825441802690771, 
        0.019293574227690482, 
        0.5672700809450067, 
        -0.008463552166133904, 
        -0.5394448366527723, 
        -0.2144678172946847, 
        -0.18842437053581446, 
        -0.02326145538336921, 
        0.048544185693385915, 
        -0.3326036758752017, 
        0.6331429060558668, 
        0.07173772322229216, 
        -0.36336930904550463, 
        -0.0025446063187640204, 
        -0.15169526001772501, 
        0.46826315875619184, 
        0.11736186519227097, 
        0.024397213832053097, 
        0.289933168910494, 
        0.534605145965001, 
        0.31206731920901365, 
        -0.11253052132097349, 
        -0.09875388644569412, 
        0.06958495740799042, 
        0.042555287133701845, 
        0.24655826349083446, 
        0.49017155873660384, 
        -0.12519910029960316, 
        0.13062379341325342, 
        -0.3930553387020114, 
        0.2674863883199339, 
        -0.2740892039278024, 
        -0.9803988333268374, 
        -0.16934665099800483, 
        -0.15570375624412153, 
        0.06476841092554603, 
        0.03749202860251197, 
        -0.006371075411093174, 
        -0.05527466096961444, 
        -0.04463500193134535, 
        0.3713197169764893, 
        0.5985364791418146, 
        -0.0149926478515921, 
        -0.050387238882942414, 
        -0.14151900616505453, 
        -0.14785946236465608, 
        0.34698279408476174, 
        -0.2631788019693765, 
        0.09086895952189412, 
        0.006960781689166749, 
        0.029417791724553128, 
        -0.30367237920458034, 
        -0.013517334964640257, 
        -0.6861487930386603, 
        -0.4163939836848149, 
        -0.4333401109241962, 
        0.43671809138954226, 
        0.1848207245408991, 
        -0.03370132531343186, 
        -1.1029943840915155, 
        0.21180394156956212, 
        0.1546012350412523, 
        0.1900574329464659, 
        -0.03158930810993837, 
        0.020809750744291103, 
        -0.40314967055517426, 
        -0.031354451719362006, 
        -0.14219950556966923, 
        0.022692095648045432, 
        0.05203809811438576, 
        0.11830376439621662, 
        0.259482833155152, 
        0.010259480984308537
      ]
    }, 
    {
      "activation": "rectified", 
      "architecture": "dense", 
      "bias": [], 
      "weights": []
    }, 
    {
      "activation": "linear", 
      "architecture": "dense", 
      "bias": [
        -0.11078272180035907, 
        0.7183101263576245, 
        0.428820831314258, 
        0.18648599512745095, 
        -0.37346031527457096, 
        0.8135278722695672, 
        0.48369677250726845, 
        -0.10361935635067081, 
        0.2071591634116254, 
        0.31286550027261006
      ], 
      "weights": [
        0.5230563106898595, 
        -0.23662499576228224, 
        0.44143634356369543, 
        0.3319032388347307, 
        -0.10104115026860751, 
        -0.5601798847483633, 
        -0.20008480908119952, 
        0.619713710808319, 
        -0.282621656970543, 
        0.12316058023045653, 
        0.07293234425311773, 
        0.6433437041352544, 
        0.09522079930648135, 
        0.3101471096451432, 
        0.6058343938182469, 
        0.23541004578372438, 
        0.6786625834214611, 
        0.4845741919837027, 
        0.9657739774093246, 
        -0.13119681215222959, 
        -0.21598724768633792, 
        -0.6502289528040579, 
        0.6146424587311352, 
        0.24348702750448922, 
        -0.1645796571426973, 
        0.01667672658348355, 
        -0.02147974018115529, 
        0.4674014045156239, 
        0.18336732318274063, 
        0.5526129996790953, 
        0.29257540667283205, 
        0.2664415040158436, 
        0.5530937443549385, 
        -0.17909624633117985, 
        0.23252259004856654, 
        0.2199100159806207, 
        0.05579268154103224, 
        -0.6766109156953913, 
        -0.1498202755693484, 
        -0.29086953160746915, 
        0.12350946166234587, 
        0.040079758871720814, 
        -0.0726502259653777, 
        0.19010775324208593, 
        0.17592987769459828, 
        0.210188064145417, 
        -0.3066986769789247, 
        0.34415683432128613, 
        0.4908866770926952, 
        -0.3495913851026078, 
        0.36810546600568955, 
        0.44800815892460266, 
        -0.022598962072513693, 
        0.283317559510879, 
        -0.31269152016997087, 
        0.41409145921925655, 
        0.19705520097649673, 
        0.3201047756426723, 
        -0.21018696263807826, 
        0.10530546770205956, 
        0.2744970645641121, 
        -0.17377776502410752, 
        0.07450076071394303, 
        0.39616095271021695, 
        0.8772178314024, 
        0.5472359100150114, 
        -0.33262682009491085, 
        0.08635172209425686, 
        0.17825961114391867, 
        -0.603600474881131, 
        0.4639024682741909, 
        -0.22797001606868472, 
        0.6649986768961359, 
        -0.2901405684728043, 
        0.05877001080186486, 
        0.35627296496173994, 
        0.39111718380522054, 
        -0.06464255115378416, 
        0.41082186510081037, 
        0.46509058070320236, 
        0.41502314046828703, 
        -0.5260737868581922, 
        -0.09304616290721573, 
        0.03970755331969371, 
        -0.09485836177832581, 
        -0.05607042110339946, 
        -0.023021336287603254, 
        0.29631810486418425, 
        -0.25510129382865515, 
        0.09367154276097515, 
        0.41164153400083053, 
        0.3223052326248534, 
        0.14438594962537185, 
        -0.6071938208138191, 
        -0.20278660243155755, 
        0.0006661253619752111, 
        -0.16972552009816877, 
        -0.6984702993252393, 
        -0.07674476836790935, 
        0.16254817294165314
      ]
    }, 
    {
      "activation": "rectified", 
      "architecture": "dense", 
      "bias": [], 
      "weights": []
    }, 
    {
      "activation": "linear", 
      "architecture": "dense", 
      "bias": [
        0.39262599465965786, 
        -0.15108783947706353, 
        -0.5917653326008718, 
        -0.48412458284269577, 
        0.11423020358090814, 
        -0.3504805860246633, 
        0.14373353304766076, 
        0.25840663788821483, 
        -0.4159973042687441, 
        -0.11771131878038726
      ], 
      "weights": [
        -0.5631507178062181, 
        0.381819375380197, 
        -0.12715281480027582, 
        0.748167017249688, 
        -0.4483031527278981, 
        0.45973920004610863, 
        -0.4594679824641848, 
        0.651332203210348, 
        -0.7520332730914435, 
        0.09665429204829389, 
        0.13339335666031557, 
        0.7246174549339696, 
        -0.29257552139404946, 
        0.21774157958667748, 
        0.0636125629069817, 
        -0.01574555316253007, 
        0.9344579109629259, 
        -0.36256188913759907, 
        -0.6341354155265578, 
        0.2825529359962488, 
        0.22941535147720574, 
        -0.13933620349232345, 
        -0.14056106465193693, 
        -0.09468123865960996, 
        8.324068080959243e-53, 
        -0.5386598310827031, 
        0.22178789952582156, 
        0.17573647256925728, 
        -0.14462501060519584, 
        -0.13668959487592688, 
        -9.176867380384417e-68, 
        3.849672269528358e-68, 
        -7.834220276054622e-52, 
        8.000018863430926e-93, 
        -2.1229745743558815e-45, 
        -2.931402458539757e-116, 
        3.289514862093882e-45, 
        3.8088712340358863e-131, 
        -9.399661278769622e-72, 
        -1.5683278548512034e-89, 
        0.7125239756333954, 
        0.12855099476459683, 
        0.7472158930249647, 
        -0.6836590853204835, 
        -0.4526793164019299, 
        -0.22756894729324434, 
        -0.0973939420443865, 
        0.6680192391746756, 
        -0.14117235976915937, 
        0.7730689458028492, 
        -0.05609644408187216, 
        -0.3241792001161785, 
        -0.11379947658559601, 
        0.060032505507920275, 
        0.06803289903764198, 
        0.322790119200493, 
        0.06370724719358602, 
        -0.07015933854962084, 
        -0.03086121475313245, 
        -0.050204709309088554, 
        0.2714581896500284, 
        -0.29508899087082363, 
        -0.33561220319156554, 
        -0.24885809337266016, 
        5.867445723990669e-69, 
        -0.40265473349264785, 
        -0.22722929391313726, 
        0.21891760971691526, 
        -0.2660850023942051, 
        0.4153454509091629, 
        0.08780114365714858, 
        0.1173757152832279, 
        -0.33296597781626464, 
        0.23883394552649118, 
        0.4598128475361552, 
        -0.42758081408586823, 
        0.11817620500050767, 
        0.17371842791247644, 
        -0.5840420502751499, 
        -0.6682140132459516, 
        -0.07103133969472583, 
        -0.296147117789496, 
        -0.05680015946171611, 
        -0.022336587475527785, 
        -0.03065085107329757, 
        0.2860267476983784, 
        -0.09100660241323395, 
        0.07227319131399376, 
        -0.016388042942362704, 
        -0.1259981671072152, 
        0.6798535062263932, 
        -0.006930353223888361, 
        0.4308878863430702, 
        -0.42936101036209934, 
        -0.4639150517833827, 
        0.5790687608902643, 
        0.04508685641576806, 
        -0.16117069077056465, 
        0.5175528806673275, 
        -0.46912214245732087
      ]
    }, 
    {
      "activation": "rectified", 
      "architecture": "dense", 
      "bias": [], 
      "weights": []
    }, 
    {
      "activation": "linear", 
      "architecture": "dense", 
      "bias": [
        -0.4168520131657832, 
        -0.03303641857327071, 
        0.3958801971547411
      ], 
      "weights": [
        -0.8320861899048326, 
        0.05563411352138346, 
        0.30265045694031634, 
        1.2234683916970122e-104, 
        0.13946117671201158, 
        0.14480953316354273, 
        -0.38613852224544565, 
        -0.038197982897915754, 
        0.09452914286927173, 
        0.2822291029415802, 
        0.054917109292180646, 
        0.33088638331304826, 
        -0.5455643418309691, 
        1.9226927001962376e-134, 
        0.010693653849773088, 
        -0.1561415085825046, 
        0.3198830602048632, 
        -0.41857011782301534, 
        0.04303604842407458, 
        -0.6667971600520619, 
        -0.5657242511272642, 
        1.0218694277583302, 
        -0.13688280487311225, 
        -5.434030662449654e-43, 
        -0.7031074813740924, 
        -0.012850436673601862, 
        -0.34057071403170147, 
        0.6862803201395506, 
        0.10010444460113534, 
        -0.6102763368793946
      ]
    }, 
    {
      "activation": "softmax", 
      "architecture": "dense", 
      "bias": [], 
      "weights": []
    }
  ], 
  "miscellaneous": {
    "scikit-learn": "0.18.1"
  }, 
  "outputs": [
    "Wjets", 
    "ttbar", 
    "Bprime"
  ]
}
