{
  "defaults": {}, 
  "inputs": [
    {
      "name": "corr_met_MultiLepCalc", 
      "offset": -165.98545735887106, 
      "scale": 0.007936182112792846
    }, 
    {
      "name": "AK4HTpMETpLepPt", 
      "offset": -1622.856936356211, 
      "scale": 0.001824156709926841
    }, 
    {
      "name": "AK4HT", 
      "offset": -1306.7754537852218, 
      "scale": 0.0021735399303350516
    }, 
    {
      "name": "NJets_JetSubCalc", 
      "offset": -5.635894308943089, 
      "scale": 0.5814438254214064
    }, 
    {
      "name": "NJetsAK8_JetSubCalc", 
      "offset": -3.1051382113821138, 
      "scale": 2.963609897487582
    }, 
    {
      "name": "jetPt_1", 
      "offset": -540.9046284973641, 
      "scale": 0.004421006295172422
    }, 
    {
      "name": "jetPt_2", 
      "offset": -382.07137177841065, 
      "scale": 0.006588567160796053
    }, 
    {
      "name": "jetPt_3", 
      "offset": -277.40696201380285, 
      "scale": 0.01211522500011295
    }, 
    {
      "name": "dnnJ_1", 
      "offset": -0.3261824486865419, 
      "scale": 2.7093284396775457
    }, 
    {
      "name": "dnnJ_2", 
      "offset": -0.294620313675056, 
      "scale": 2.752730773753455
    }, 
    {
      "name": "dnnJ_3", 
      "offset": -0.3375807732317027, 
      "scale": 2.6713900138524127
    }
  ], 
  "layers": [
    {
      "activation": "linear", 
      "architecture": "dense", 
      "bias": [
        0.22536184021859085, 
        -0.11755465203684612, 
        -0.191264773361711, 
        0.27854375976440976, 
        0.7013554112726758, 
        0.16518779492356475, 
        0.0904178746814573, 
        -0.0051915347198914375, 
        0.22083604438315274, 
        -0.31540147659027357
      ], 
      "weights": [
        -0.03646354802632263, 
        -0.3961293672064818, 
        -0.426078151692226, 
        -0.17487609998264386, 
        -0.672969968092725, 
        -0.3202971758258478, 
        0.022386868224175478, 
        -0.11297455318916591, 
        -0.012305647593059401, 
        -0.036248869220168935, 
        -0.16023121470547344, 
        0.045919337965837005, 
        -0.4069017489916403, 
        0.3712350345471373, 
        0.2620373437280767, 
        0.5732572802939087, 
        0.08464842870062579, 
        -0.004613504341028601, 
        -0.023404072123142515, 
        0.1351316171777163, 
        -1.1954077323396701, 
        0.07935139658247693, 
        -0.04898185402281431, 
        0.5919667477320019, 
        -0.4063617048565135, 
        0.09731997161361099, 
        0.5236526886793355, 
        0.021594216025049, 
        -0.06934467769184886, 
        -0.01652529387654528, 
        -1.0659458028051907, 
        0.05990007452165785, 
        0.013349061206069029, 
        0.07252558202250893, 
        -0.15118283721527234, 
        0.31190964469430804, 
        0.40244187316366875, 
        0.5622926007557117, 
        -0.1954265969063432, 
        -0.04073557168018315, 
        0.010031201307480841, 
        0.19903266794919, 
        0.2675966413944539, 
        0.1104027625527781, 
        -0.026937743147128032, 
        -1.0412433965721395, 
        0.19695268851255587, 
        0.12319138614405024, 
        -0.04033337464745338, 
        0.5755249576936365, 
        0.000399589718046991, 
        -0.03304929823264877, 
        0.1927542475963743, 
        0.2385408275347261, 
        0.11895956803991312, 
        -0.16849623164633695, 
        -0.9674439281774252, 
        0.01625455618270783, 
        0.3433526252752552, 
        0.22009896549869595, 
        -0.40722187831871726, 
        -0.20967429877577443, 
        0.0581663094903094, 
        -0.08841508869178617, 
        -0.13930853152811173, 
        0.04338320396107135, 
        -0.05587524226941331, 
        0.42296409808673113, 
        0.35885976851492113, 
        -0.03270120810533182, 
        0.29402031652998845, 
        -0.4226691788071932, 
        -0.15541696999716295, 
        -0.1095274272924719, 
        0.0745183466082767, 
        -0.025588824459410284, 
        -0.6694985943743831, 
        0.2257608891725887, 
        0.2447806960636905, 
        -0.06223770675072938, 
        0.06991941683152328, 
        0.2561159151118231, 
        -0.46393356496293797, 
        0.18882198007700796, 
        0.03962244024719849, 
        -0.1736794510969624, 
        -0.8883131372643552, 
        0.13212811484083664, 
        -0.27966232664605795, 
        -0.19006327493198596, 
        0.4396667106821252, 
        -0.3725238194100049, 
        -0.3769309266924926, 
        -0.12549189884992065, 
        -0.20454159684596496, 
        0.007496994120392523, 
        -0.5258497489651003, 
        -0.5617998149849114, 
        -0.708813441579841, 
        -0.559150979317245, 
        0.1836040028404964, 
        -0.6189564674885781, 
        -0.718206583995606, 
        -0.40575055724284625, 
        0.09671553006045121, 
        -0.03665116194939966, 
        0.2285340910221894, 
        0.23443580391210284, 
        0.12073483259641205, 
        0.26147566744127854
      ]
    }, 
    {
      "activation": "rectified", 
      "architecture": "dense", 
      "bias": [], 
      "weights": []
    }, 
    {
      "activation": "linear", 
      "architecture": "dense", 
      "bias": [
        0.7390644619949891, 
        0.3246110149147824, 
        0.12128831008722961, 
        -0.27362696760840605, 
        0.19185002694902925, 
        0.7345005430420132, 
        0.28589991283061367, 
        -0.263881768998311, 
        -0.28168404715302103, 
        0.05718414062442725
      ], 
      "weights": [
        0.40113977909814924, 
        -0.05043547573438983, 
        -0.06803723438234675, 
        -0.32677997039683754, 
        -0.1850738161994681, 
        -0.1479976676701908, 
        -0.4495811085761002, 
        0.1658301188251406, 
        -0.25601275009689006, 
        0.23116714397717003, 
        0.18956584563426251, 
        -0.06305257917001182, 
        -0.023881517024562728, 
        0.1367902114621903, 
        0.38142127197649156, 
        0.48606212588458303, 
        0.19470791092175757, 
        -0.25587734611754137, 
        -0.09122992199159166, 
        0.6106701663069115, 
        -0.029697223089491832, 
        0.028659235237166684, 
        0.27985705685446227, 
        -0.016626112946840254, 
        -0.4484654256293492, 
        0.11993006343169588, 
        0.42737090094313324, 
        0.38267209046854583, 
        0.7770616728180502, 
        0.06814472040073892, 
        0.11023598562890992, 
        0.4005788162119006, 
        0.23113435758424694, 
        0.5290390840535408, 
        0.6034449545810067, 
        0.5627350322550174, 
        0.0006338115933470463, 
        0.21989037499411423, 
        0.46631951362861007, 
        0.07477889913509991, 
        0.08241918328184608, 
        0.8126889871360584, 
        0.970555805109786, 
        0.16969141012212025, 
        0.30912385068359516, 
        -0.02794108706882919, 
        0.688224102057322, 
        0.21145603005239566, 
        0.24713761784184043, 
        0.06526418757429249, 
        0.28400920682524083, 
        -0.19678782656894328, 
        -0.904209935193809, 
        -0.21226023591871507, 
        0.5097208117069973, 
        -0.09939218854202297, 
        -0.29473901123534557, 
        0.026868962398110374, 
        0.18185232081800676, 
        0.34991205127024, 
        -0.21160565986850227, 
        0.32217419917606954, 
        -0.4752907048415954, 
        -0.4506158000722312, 
        0.2797682915364786, 
        0.23984694366077608, 
        -0.5390372950663818, 
        -0.13672265663081443, 
        0.16292812352860994, 
        -0.5160709446058053, 
        -0.4284575467398532, 
        0.05343183631535002, 
        0.10363447590734791, 
        -0.2967734097994084, 
        0.036907232821071084, 
        0.5448119334025696, 
        0.48449131443321075, 
        0.2898068032185816, 
        0.29548092643798035, 
        -0.4811349212494374, 
        -0.041472510666996275, 
        0.35111159531060837, 
        0.3560416619720457, 
        -0.12071786259709295, 
        0.024382599283882908, 
        -0.3508310314188219, 
        -0.8630031539219128, 
        -0.2195159403429884, 
        -0.21047646970319678, 
        -0.25804396162145, 
        0.3573421135223187, 
        0.45732308423401885, 
        -0.261504218873936, 
        0.036467783396771467, 
        0.44198519770040934, 
        0.6302375136440249, 
        -0.27708090593563733, 
        -0.07811899227795774, 
        0.23878358919279224, 
        -0.29263540097964613
      ]
    }, 
    {
      "activation": "rectified", 
      "architecture": "dense", 
      "bias": [], 
      "weights": []
    }, 
    {
      "activation": "linear", 
      "architecture": "dense", 
      "bias": [
        -0.12328133449499985, 
        -0.48972616575408207, 
        -0.2960570158171082, 
        -0.3720707851891867, 
        0.14178762192285246, 
        0.0005664607940054934, 
        -0.48137661246443547, 
        0.2137462277698971, 
        -0.02756288685386768, 
        0.16246222825906098
      ], 
      "weights": [
        -0.1799960097254439, 
        0.04753242264687658, 
        -0.004047114534708655, 
        -0.03332224369337409, 
        0.23875782010576396, 
        0.03720298290558994, 
        -0.5254981783373918, 
        0.26092547883585154, 
        0.24367578127834036, 
        -0.44175515304953367, 
        3.017431639001085e-86, 
        7.947799789442656e-66, 
        2.0869420304968373e-103, 
        -5.901502439135361e-84, 
        -3.317548952689669e-75, 
        -4.876553507150916e-82, 
        -4.0065250943196474e-78, 
        1.0842785679247165e-111, 
        6.030968709064305e-51, 
        -4.680425480494158e-123, 
        -0.033223694737247025, 
        0.4745932598782627, 
        -0.3469706160524173, 
        0.3232561169223082, 
        0.10422705535029837, 
        0.4461607343705781, 
        0.024179864244880642, 
        0.5406469135849443, 
        -0.26535178774771817, 
        0.2695946818285244, 
        -0.19245878749042575, 
        -0.0037193151254655407, 
        -0.3151171112750803, 
        0.6349091010583984, 
        0.439161479789991, 
        0.3057764683937171, 
        0.04153696975467843, 
        -0.4201327399638224, 
        -0.5188888240761886, 
        -0.5784475951358438, 
        -0.1507407250607104, 
        -0.07191128700167818, 
        0.03806500922077996, 
        0.22345182533972932, 
        -0.314235426057298, 
        0.2907301634335123, 
        0.46912605019976356, 
        -0.6294970517777139, 
        0.04189424115300905, 
        0.3286626220391549, 
        0.2259080477547301, 
        -0.33478167002235487, 
        0.7808620422103596, 
        0.1268727583213137, 
        0.7270619091074568, 
        -0.1445294271294837, 
        0.21437777514893794, 
        0.1836883493569298, 
        0.21528219337948407, 
        -0.35866632296729933, 
        0.4418581709685021, 
        0.5455096166404934, 
        -0.13017126830828943, 
        0.3386738448165352, 
        -0.03335371139222447, 
        0.09389025081020483, 
        0.046750823431839394, 
        -0.051787153406439794, 
        0.3298139515747942, 
        0.5859334618550047, 
        0.2993428545557951, 
        0.17303996212370823, 
        0.32046053092493654, 
        -0.2988982537062888, 
        -0.32033889787056713, 
        0.47587750260033723, 
        0.13526705335519043, 
        0.5499506218767296, 
        -0.16457510220142565, 
        -0.35671410067725867, 
        -0.18595195934167638, 
        -0.026347788852291144, 
        -0.1914372594881444, 
        0.6341190243194708, 
        0.8139608715129637, 
        -0.44188849591588897, 
        0.3342069909548077, 
        0.31912086820797764, 
        -0.3871967552167854, 
        -0.10384644486436632, 
        0.5063179247516286, 
        0.25170843115752634, 
        -0.22797187209338374, 
        -0.09280932639748075, 
        -0.49285358324385226, 
        0.637184277345717, 
        0.5424901112726251, 
        0.3175108573311944, 
        -0.4359973211625016, 
        -0.39534113952151784
      ]
    }, 
    {
      "activation": "rectified", 
      "architecture": "dense", 
      "bias": [], 
      "weights": []
    }, 
    {
      "activation": "linear", 
      "architecture": "dense", 
      "bias": [
        -0.19133342505814782, 
        0.06133803545114219, 
        -0.24031903653550027
      ], 
      "weights": [
        -0.4408355971713163, 
        1.0601144800006073e-40, 
        0.013982307345324544, 
        -0.6822411731707645, 
        0.2797481889282316, 
        -0.6695201534484997, 
        0.6536879978532505, 
        0.27135839789103827, 
        -0.47198111617779914, 
        0.9040171698192921, 
        0.23724285300269593, 
        4.480814287864335e-29, 
        0.10217515643093301, 
        0.6253655810081731, 
        -0.46385175908483783, 
        -0.49804072834488344, 
        0.5650193612620118, 
        -0.9280922193362726, 
        0.12781826343766092, 
        -0.9126631919391804, 
        -0.14855041627592322, 
        1.6592118354692222e-124, 
        -0.8141082068302127, 
        -0.28454379153850173, 
        -0.2757058430254111, 
        0.45092157057734955, 
        -0.3450342982751443, 
        0.5984489513320013, 
        0.29162358182723225, 
        0.05320184988578456
      ]
    }, 
    {
      "activation": "softmax", 
      "architecture": "dense", 
      "bias": [], 
      "weights": []
    }
  ], 
  "miscellaneous": {
    "scikit-learn": "0.18.1"
  }, 
  "outputs": [
    "WjetsBB", 
    "ttbarBB", 
    "Bprime"
  ]
}
