{
  "defaults": {}, 
  "inputs": [
    {
      "name": "corr_met_MultiLepCalc", 
      "offset": -165.18091574728015, 
      "scale": 0.008033655286986716
    }, 
    {
      "name": "AK4HTpMETpLepPt", 
      "offset": -1628.249889697193, 
      "scale": 0.0018445239906597797
    }, 
    {
      "name": "AK4HT", 
      "offset": -1315.4642074881392, 
      "scale": 0.0021754081998440265
    }, 
    {
      "name": "NJets_JetSubCalc", 
      "offset": -5.7690360879404405, 
      "scale": 0.5598766326555363
    }, 
    {
      "name": "NJetsAK8_JetSubCalc", 
      "offset": -3.104798242065791, 
      "scale": 2.9513317447051257
    }, 
    {
      "name": "minDR_leadAK8otherAK8", 
      "offset": -2.122608733005352, 
      "scale": 1.5450887515539058
    }, 
    {
      "name": "nH_DeepAK8", 
      "offset": -0.6581375517923713, 
      "scale": 1.3808643370905753
    }, 
    {
      "name": "nT_DeepAK8", 
      "offset": -0.27822479255720395, 
      "scale": 1.9870058501197496
    }, 
    {
      "name": "jetPt_1", 
      "offset": -545.0565593074865, 
      "scale": 0.004444553765107506
    }, 
    {
      "name": "jetPt_2", 
      "offset": -382.42480087734845, 
      "scale": 0.006664355452592499
    }, 
    {
      "name": "jetPt_3", 
      "offset": -276.80980422249155, 
      "scale": 0.012269154628498266
    }, 
    {
      "name": "sdMass_1", 
      "offset": -84.86424444053529, 
      "scale": 0.013099936915297185
    }, 
    {
      "name": "sdMass_2", 
      "offset": -77.16775908343537, 
      "scale": 0.015345693190317923
    }, 
    {
      "name": "sdMass_3", 
      "offset": -58.73109308641135, 
      "scale": 0.019384988364786006
    }, 
    {
      "name": "dnnLargest_2", 
      "offset": -1.8469132293295143, 
      "scale": 0.6013716888767243
    }, 
    {
      "name": "dnnLargest_3", 
      "offset": -1.7932678116561533, 
      "scale": 0.573110953244529
    }, 
    {
      "name": "dnnJ_1", 
      "offset": -0.3127771568598302, 
      "scale": 2.722540979779758
    }, 
    {
      "name": "dnnJ_2", 
      "offset": -0.27634744313160864, 
      "scale": 2.7880690985804493
    }, 
    {
      "name": "dnnJ_3", 
      "offset": -0.3202349334801919, 
      "scale": 2.686540304672439
    }
  ], 
  "layers": [
    {
      "activation": "linear", 
      "architecture": "dense", 
      "bias": [
        0.24388369271241567, 
        0.8412170604992908, 
        0.5849067717665816, 
        0.7897979887830014, 
        -0.008586205052831277, 
        -0.04959063775209364, 
        -0.46497700193488994, 
        0.7932607210466934, 
        0.1607798868030178, 
        -0.8833690427753237
      ], 
      "weights": [
        -0.031020165583756153, 
        -0.2859908029270594, 
        0.00014170688600837587, 
        -0.4281985255888161, 
        0.3771178968061094, 
        0.1889191831054151, 
        0.3077536947464899, 
        0.525424994557134, 
        0.2687481040535543, 
        0.21226286932353705, 
        0.16104938407458097, 
        0.0973160933266762, 
        0.055591044047567637, 
        0.026055078790209265, 
        0.11976700816986116, 
        -0.018701998819432776, 
        0.0005188691909547805, 
        0.5951875336643759, 
        0.30600755089887577, 
        -0.01094447926989085, 
        -0.8415263464043543, 
        0.22605548188922792, 
        0.11749291107405352, 
        -0.10348765914994779, 
        0.377312319982787, 
        0.11284048825150762, 
        0.038699548484351635, 
        0.35094562551029146, 
        -0.033784510902766775, 
        0.047290644900513656, 
        -0.13964596807800245, 
        0.08136317471614665, 
        0.03354723482628885, 
        0.0439654052495492, 
        0.1174654489710987, 
        0.5895877467097724, 
        0.16216277858435912, 
        0.23290002450538527, 
        -0.07236367184984412, 
        -1.5359906390226266, 
        0.18938193101835338, 
        -0.018364169997076345, 
        0.06940870633698516, 
        -0.27380893339109763, 
        -0.033316889324747606, 
        0.01955331304444241, 
        -0.3456818226929485, 
        -0.08234057480551553, 
        -0.1515961184023367, 
        0.2071720478937277, 
        0.021707369595207363, 
        0.09905030945651636, 
        0.0656855682322922, 
        0.06585151481999225, 
        -0.03012398854232086, 
        0.1507556468420033, 
        0.22099994767281397, 
        0.10224146413153724, 
        0.5354404970514688, 
        -0.27758519565238415, 
        -0.1365747700345759, 
        -0.00046232512033539446, 
        -0.08858601539141264, 
        0.22381793743918818, 
        0.06602042965571332, 
        -0.23402885611122792, 
        0.3266261545717003, 
        0.2807577862350196, 
        -0.075650998333415, 
        0.040534390766176785, 
        0.0856596459516912, 
        0.1650348914419127, 
        0.3169273720751069, 
        -0.4691106271883445, 
        -0.452845637350123, 
        -0.1537834485003425, 
        0.06354212445381754, 
        0.053875916014278234, 
        -0.26487472575304216, 
        -0.19360325191236222, 
        -0.23265121211447443, 
        -0.7048880432843754, 
        0.08258081446017504, 
        0.08949759380657214, 
        0.5744547095653454, 
        -0.18088341666109264, 
        -0.16869419652546772, 
        -0.007030673005820641, 
        0.11595232793968921, 
        0.19091671371796795, 
        0.0914001211476859, 
        0.19622222766003872, 
        -0.10720747138234513, 
        -0.03608876729377364, 
        0.11558710432789512, 
        0.014309445562210157, 
        0.19805259414286164, 
        -0.3342355919923575, 
        0.057536607055591556, 
        1.2271057034851747, 
        0.004239334817590267, 
        0.017695490680344986, 
        0.013744191019901902, 
        0.029223982801141583, 
        0.2096737668284038, 
        0.014790354948673456, 
        -0.031444558609284565, 
        0.04561921325321899, 
        0.027042498181028368, 
        -0.140436094893386, 
        0.08105531181149775, 
        -0.062068190129809506, 
        -1.7083742161481923, 
        0.06592702678548217, 
        -0.00277314119191374, 
        -0.045534084869561016, 
        0.16803103399042107, 
        -0.01800103087867504, 
        0.480415711515841, 
        -0.023169321211745853, 
        -0.03911849602929499, 
        -0.022231637633233194, 
        -0.039790157470750445, 
        -0.02353183728700117, 
        0.03950569648392525, 
        0.015988492454686195, 
        -0.0007453510901375167, 
        0.016152500430950564, 
        0.026694145598446226, 
        -0.20457476463041624, 
        -0.07042815169774272, 
        -0.03901614354614553, 
        -1.6710518695831533, 
        0.019663885048594756, 
        0.04048354879242767, 
        -0.37903175756634633, 
        -0.6140944251303443, 
        -0.3905694917240808, 
        -0.05645024609360779, 
        -0.11456733553716346, 
        -0.08326549588696609, 
        0.11492848955430673, 
        0.2088466572924038, 
        0.02160131509548626, 
        0.14859217947920447, 
        0.12620209708239588, 
        0.16195318144163276, 
        0.033163705256276696, 
        0.03424752632664185, 
        0.017173525373919207, 
        0.12151445677026443, 
        0.24860124372253095, 
        0.016701246956520505, 
        0.6863136926914194, 
        0.025315256133562742, 
        0.15226324435697008, 
        0.038164619288063126, 
        -0.04005100770975918, 
        -0.07233870377721784, 
        -0.19698635140476134, 
        -0.3180882540376577, 
        -0.23274272893731252, 
        -0.21454014496064125, 
        -0.33618271458271387, 
        -0.6368236870808854, 
        -0.6381039080081632, 
        0.12506326185091962, 
        0.03333189419883532, 
        0.05770331028328683, 
        0.019449347567437977, 
        -0.06605169943574775, 
        -0.03872762368317834, 
        0.24874332486787784, 
        -0.41610659039990666, 
        0.03714310276053012, 
        0.04969948805891708, 
        -0.07207198345652101, 
        0.02676154660007935, 
        0.056824962027631196, 
        0.16832002626467332, 
        0.03801201363210641, 
        0.004941801883215236, 
        0.05052966344435297, 
        -0.01617630749924815, 
        0.0014356216324864061, 
        -0.0029486957549031173, 
        0.021752091338052396, 
        -1.481907476998939, 
        -0.0006039581315002442, 
        0.01767541381206938
      ]
    }, 
    {
      "activation": "rectified", 
      "architecture": "dense", 
      "bias": [], 
      "weights": []
    }, 
    {
      "activation": "linear", 
      "architecture": "dense", 
      "bias": [
        0.13679020556035143, 
        0.4280513850305728, 
        0.032755007634161365, 
        0.3252737816828003, 
        0.34443327169231025, 
        0.5384074846326183, 
        0.05995417201708353, 
        -0.24518591064261047, 
        0.09694120486114711, 
        -0.4574061199544565
      ], 
      "weights": [
        0.14522651229186326, 
        0.7185076825293806, 
        0.6609681726862261, 
        -0.2699247698519112, 
        0.2912761106607774, 
        0.5051122743342809, 
        0.13026941494903385, 
        -0.08303590079453015, 
        -0.06369959239090428, 
        -0.348859512436579, 
        0.4595587094236925, 
        0.10821661726857137, 
        0.4690134577717633, 
        0.3541741469112828, 
        -0.19115746561805724, 
        -0.6380211091846048, 
        -0.19378275892788596, 
        0.30132459847393306, 
        -0.12586170604433705, 
        -0.567367681119598, 
        0.3614544924540805, 
        0.3095309765198842, 
        -0.007478320265937281, 
        0.6483964168619514, 
        -0.01226665908526569, 
        0.3018894898300826, 
        -0.7656615205003847, 
        0.39988016554196987, 
        0.4373319904010567, 
        0.23053120414324668, 
        0.298710636987714, 
        -0.08887842424296662, 
        -0.1112854257951091, 
        0.22699503076218347, 
        -0.22563981638957842, 
        0.5229367771980887, 
        0.6290275540548346, 
        -0.06779271628300965, 
        -0.009839050855801194, 
        0.8878712030472403, 
        0.12056165790461684, 
        -0.15676909161081037, 
        0.16260450077587207, 
        0.1443005398431991, 
        -0.42747933086224577, 
        -0.6180955250467486, 
        -0.627227023520801, 
        -0.1033177056438569, 
        0.4159457301728143, 
        1.4433384421878501, 
        0.7734471676453535, 
        0.641684945310562, 
        0.5562685492312406, 
        -0.08340868619732766, 
        0.07127553592357948, 
        -0.028148939951684333, 
        0.7019693358292322, 
        -0.033020336616647654, 
        0.36359643674728437, 
        0.4013203220501849, 
        0.31549345619282615, 
        0.36783011945840444, 
        0.05324374186636114, 
        0.04529200325071509, 
        0.5172988624071679, 
        -0.11745396927802967, 
        -0.5476743857135655, 
        0.19670377570976022, 
        -0.5143858763869464, 
        0.2512766364661363, 
        0.11087572083574125, 
        0.22677685127230449, 
        0.01621894411817816, 
        -0.07506157685986801, 
        0.235275694819224, 
        -0.8739749672035758, 
        -0.8421181791310515, 
        0.6641095242411796, 
        -0.2375732328583999, 
        -1.130742054150928, 
        -0.3566147230169612, 
        0.2634317440311235, 
        -0.053744343451477564, 
        0.4221203786808832, 
        0.18051472063328436, 
        -0.11456106897571733, 
        0.16128948671469, 
        0.6302722178438709, 
        0.6813811383699002, 
        0.3658348846913971, 
        -0.3079797299370972, 
        0.16142981445723467, 
        -0.12169622896350082, 
        0.31569360130773094, 
        0.22461058065751915, 
        -0.9929403463704957, 
        -0.25908422179219115, 
        0.4000346627648929, 
        -0.714241501969824, 
        -0.19965760406604444
      ]
    }, 
    {
      "activation": "rectified", 
      "architecture": "dense", 
      "bias": [], 
      "weights": []
    }, 
    {
      "activation": "linear", 
      "architecture": "dense", 
      "bias": [
        0.35826119409376406, 
        -0.5696122746213739, 
        0.38088789210860524, 
        0.14546901732184148, 
        0.42843403228480575, 
        0.2731834118706201, 
        0.3357234017822166, 
        -0.06262984600047541, 
        0.2746819198128713, 
        -0.717164112756496
      ], 
      "weights": [
        0.6258235303497771, 
        0.6777734413633211, 
        0.6554264936113233, 
        0.10530487492668647, 
        -0.45102770087230803, 
        0.3229791151239943, 
        -0.13603195715774608, 
        0.33008331155565107, 
        0.45901668010817265, 
        -0.1085885528962848, 
        1.1856403451500842e-05, 
        -0.12806962203730826, 
        0.2266930817281154, 
        -0.08294824049756881, 
        -6.497102971115552e-05, 
        -0.10456826518660041, 
        0.008716260812984303, 
        0.04679848930658658, 
        -0.14503265134663346, 
        0.14543905797184284, 
        -0.1342591609276097, 
        -0.1545607340932932, 
        0.16484290548250294, 
        0.37485842081548737, 
        0.31108866050298345, 
        -0.04876705884313236, 
        -0.36202744303333545, 
        0.31844619780859046, 
        0.60602583375989, 
        0.30621214638082095, 
        -0.09482637019514117, 
        -0.34046732072693975, 
        0.16653382334741035, 
        0.6483999016961094, 
        0.9755576399168638, 
        0.2493422886953217, 
        0.6398929641943869, 
        -0.9023120603016271, 
        0.17528165577393914, 
        -0.05318016195034705, 
        0.44356110236809726, 
        0.3444018192425352, 
        -0.3918700079061793, 
        -0.24569094610842074, 
        0.017775078303844796, 
        0.23720639778965225, 
        -0.12080692483900048, 
        -0.6963845187455111, 
        0.09896498555562488, 
        0.03595558212327535, 
        -0.26885223435040945, 
        -0.43557797498678336, 
        0.22760162964697284, 
        0.5824085997984837, 
        -0.3516627829183828, 
        0.35624139915577097, 
        -0.27608798291835046, 
        0.2802437543262023, 
        -0.0006961961427584802, 
        0.8465551600527629, 
        0.45797249905590887, 
        0.09358785681825409, 
        0.2865162873239912, 
        -0.4224050075861395, 
        -0.13525755742511553, 
        0.49870989398160853, 
        0.5943316547652371, 
        -0.47406582151494614, 
        -0.32171715022787023, 
        -0.012751267837364655, 
        -0.3738408178528676, 
        0.5856883187504401, 
        0.47664948387310213, 
        -0.7274483709710802, 
        -0.24938630867287076, 
        0.14380507015779836, 
        0.334838604004408, 
        0.536306789985899, 
        0.30401618644689393, 
        -0.18983297813189268, 
        0.53757528395723, 
        -0.308907256502692, 
        -0.18485637724359957, 
        0.7794245778854366, 
        0.18224099317905756, 
        0.33127850984646207, 
        0.07573290226297204, 
        -0.32242904823408325, 
        -0.41109619874654557, 
        0.3414040344630254, 
        0.5530890367353719, 
        -0.1945876600199548, 
        -0.06794236192143636, 
        0.04357279682271497, 
        -0.06471061135707783, 
        0.05196266346702485, 
        -0.4204440471745173, 
        -0.20851542546928137, 
        0.270682761826805, 
        0.21937044558025035
      ]
    }, 
    {
      "activation": "rectified", 
      "architecture": "dense", 
      "bias": [], 
      "weights": []
    }, 
    {
      "activation": "linear", 
      "architecture": "dense", 
      "bias": [
        -0.35285590094393054, 
        -0.31374726008695536, 
        -0.4330622559957729, 
        -0.5134592939057743, 
        0.03655608001071285, 
        0.11081962246276321, 
        -0.379714889850154, 
        -0.3056718081013795, 
        0.11136761891731972, 
        0.039549840076894896
      ], 
      "weights": [
        -0.24459987050504808, 
        -0.00681050099424272, 
        0.018002678895430467, 
        0.03264892939149797, 
        -2.062089978859033e-06, 
        -0.08132676918687781, 
        0.08649821211402131, 
        0.17934285388662577, 
        0.00880972380754547, 
        -3.7334082842473635e-34, 
        -0.5451814574482269, 
        -0.0038754617207168744, 
        0.17073631580524987, 
        0.22478599028722127, 
        0.3590925389662947, 
        -0.23988871566310038, 
        0.01279703197503517, 
        0.050052765448938476, 
        -0.15824408171823764, 
        -0.007383590443936652, 
        0.4296718496444946, 
        -0.15278769145634888, 
        0.5412112988520121, 
        0.23956857840902954, 
        -0.5932831666993154, 
        0.4656323849101846, 
        -0.30073467773160795, 
        -0.42643777289868723, 
        0.595049041710784, 
        -0.28257159520758107, 
        0.11582485032060132, 
        -9.262645740953511e-293, 
        0.10977359507139926, 
        -0.09441082083179031, 
        -0.012954267641322561, 
        -0.0615381326618668, 
        -0.11871948829694604, 
        -0.1347922450302919, 
        0.009889919896845373, 
        0.03388333652748324, 
        0.4316843839400539, 
        -0.031237596509305892, 
        0.38327188109411625, 
        -0.35063022601064503, 
        0.29318445394379816, 
        0.542852539504018, 
        -0.6675642245007536, 
        -0.056165906249140966, 
        -0.14046338868272387, 
        -0.5674250096152126, 
        -0.20380753668938253, 
        2.6217440386928087e-299, 
        -0.11855652579377443, 
        0.2012456302866503, 
        -0.051299890683507855, 
        -0.004862939047308841, 
        0.026305326524832997, 
        0.04162068063085795, 
        -0.1295606477299119, 
        -0.013321914524316521, 
        0.6923024884844381, 
        -0.027877207592484472, 
        -0.39963044134348774, 
        0.017474914263193333, 
        0.45354277442589547, 
        -0.4023552025019792, 
        0.2243069757128847, 
        -0.34843674251072276, 
        0.3058088598501112, 
        -0.08210320857902871, 
        0.04721762035567304, 
        0.011706686493394156, 
        0.32978901794564097, 
        0.7285093975624721, 
        0.6895741343975995, 
        0.43879676544578267, 
        -0.08234650298398499, 
        -0.4056680779150772, 
        0.8429779041551895, 
        1.231159131772166, 
        -0.3463457718496021, 
        0.016960312806355297, 
        -0.24440289057716733, 
        0.44162225663044974, 
        -0.34168008965709973, 
        -0.5403918853967631, 
        0.03693277787726639, 
        0.3758183799871507, 
        0.43674718319729067, 
        0.2517668214377569, 
        0.647311888015889, 
        -0.044126985726793126, 
        -0.09775992631424722, 
        -0.48168429898893295, 
        -0.055380213724377236, 
        0.19412526791849163, 
        0.14322358240901498, 
        0.3874728420766776, 
        -0.22111612808394965, 
        -0.5567938234203298
      ]
    }, 
    {
      "activation": "rectified", 
      "architecture": "dense", 
      "bias": [], 
      "weights": []
    }, 
    {
      "activation": "linear", 
      "architecture": "dense", 
      "bias": [
        0.17359037452052672, 
        0.09247343843535001, 
        0.034622416784344544
      ], 
      "weights": [
        -0.0062197713172489465, 
        -0.09978340706533828, 
        -0.7908527457178954, 
        -0.017504786770523757, 
        -0.24119252404052158, 
        -0.08961089131335699, 
        0.5725060708542338, 
        -0.49610230154412516, 
        -0.44536914697336727, 
        0.5506597165126496, 
        0.007295941260520012, 
        -0.02218606375878495, 
        -0.2961711149751813, 
        -0.020270924062088608, 
        -0.6671586747453037, 
        -0.0756482683405986, 
        0.46189159245300665, 
        0.19654773143987966, 
        0.2725425152253261, 
        -0.1852569238799312, 
        -0.00016425216934130081, 
        -0.09948980190491598, 
        0.4335652197401904, 
        -0.008295242484948607, 
        0.10801634233522651, 
        0.1012721073234332, 
        -0.35391641253837675, 
        -0.08143180708382641, 
        0.6914224475754659, 
        -0.3620347650657501
      ]
    }, 
    {
      "activation": "softmax", 
      "architecture": "dense", 
      "bias": [], 
      "weights": []
    }
  ], 
  "miscellaneous": {
    "scikit-learn": "0.18.1"
  }, 
  "outputs": [
    "Wjets", 
    "ttbar", 
    "Tprime"
  ]
}
