{
  "defaults": {}, 
  "inputs": [
    {
      "name": "corr_met_MultiLepCalc", 
      "offset": -164.41107655672616, 
      "scale": 0.008008141854661689
    }, 
    {
      "name": "AK4HTpMETpLepPt", 
      "offset": -1609.0035028984173, 
      "scale": 0.001798408249197722
    }, 
    {
      "name": "AK4HT", 
      "offset": -1295.27029253836, 
      "scale": 0.002140864681653748
    }, 
    {
      "name": "NJets_JetSubCalc", 
      "offset": -5.69498462019707, 
      "scale": 0.5814136018691552
    }, 
    {
      "name": "NJetsAK8_JetSubCalc", 
      "offset": -3.106550753349669, 
      "scale": 2.9412339754632457
    }, 
    {
      "name": "minDR_leadAK8otherAK8", 
      "offset": -2.1119118838543676, 
      "scale": 1.5380349978214203
    }, 
    {
      "name": "nH_DeepAK8", 
      "offset": -0.591034096241072, 
      "scale": 1.4894318829724398
    }, 
    {
      "name": "nT_DeepAK8", 
      "offset": -0.3159311297638288, 
      "scale": 1.885187325643092
    }, 
    {
      "name": "nW_DeepAK8", 
      "offset": -0.45206845315676975, 
      "scale": 1.6043306073076327
    }, 
    {
      "name": "jetPt_1", 
      "offset": -533.943737806055, 
      "scale": 0.004354723986607854
    }, 
    {
      "name": "jetPt_2", 
      "offset": -377.27851455509085, 
      "scale": 0.006596292234254743
    }, 
    {
      "name": "jetPt_3", 
      "offset": -275.6240367737262, 
      "scale": 0.012133510560113537
    }, 
    {
      "name": "sdMass_1", 
      "offset": -80.69503867117686, 
      "scale": 0.013240456446412346
    }, 
    {
      "name": "sdMass_2", 
      "offset": -72.72613905169287, 
      "scale": 0.015650106690391876
    }, 
    {
      "name": "sdMass_3", 
      "offset": -55.198489342731676, 
      "scale": 0.019988449217188238
    }, 
    {
      "name": "tau21_3", 
      "offset": -0.5172337348325862, 
      "scale": 4.222750990637939
    }, 
    {
      "name": "dnnLargest_1", 
      "offset": -1.5767947447995412, 
      "scale": 0.589507278131285
    }, 
    {
      "name": "dnnLargest_2", 
      "offset": -1.7674326156091966, 
      "scale": 0.5823667661761358
    }, 
    {
      "name": "dnnLargest_3", 
      "offset": -1.714593868932798, 
      "scale": 0.5671333355114224
    }, 
    {
      "name": "dnnJ_1", 
      "offset": -0.3432353904834752, 
      "scale": 2.6211685761890897
    }, 
    {
      "name": "dnnJ_2", 
      "offset": -0.30564861250691144, 
      "scale": 2.682021647242378
    }, 
    {
      "name": "dnnJ_3", 
      "offset": -0.3420855134987008, 
      "scale": 2.6248981261464452
    }, 
    {
      "name": "dnnH_1", 
      "offset": -0.11486740411924873, 
      "scale": 4.758917714566627
    }, 
    {
      "name": "dnnH_2", 
      "offset": -0.14071089500101086, 
      "scale": 4.529431192770883
    }, 
    {
      "name": "dnnH_3", 
      "offset": -0.14253345454380303, 
      "scale": 4.8252306222879735
    }, 
    {
      "name": "dnnT_1", 
      "offset": -0.12373497994506706, 
      "scale": 3.6211680414046437
    }, 
    {
      "name": "dnnT_2", 
      "offset": -0.0797100196403078, 
      "scale": 4.7326649863080865
    }
  ], 
  "layers": [
    {
      "activation": "linear", 
      "architecture": "dense", 
      "bias": [
        0.22293958659260354, 
        0.06397694755046017, 
        0.22560506348711254, 
        0.29184110103054267, 
        0.6543287405375482, 
        -0.2763779562569984, 
        0.38873085810959784, 
        0.8649953119263357, 
        0.11816520186766691, 
        -0.06152800295528312
      ], 
      "weights": [
        0.08063807000059937, 
        0.6676236024896154, 
        -0.18908459661757873, 
        -0.13381713025224765, 
        -0.12385386059293478, 
        -0.16312799886310395, 
        -0.06557545700784091, 
        -0.020413076217211557, 
        0.3564538177608051, 
        -0.3020428466539942, 
        0.30506858767532363, 
        0.0579858665345736, 
        0.42014126223534726, 
        0.06584413038592289, 
        0.26197646654966794, 
        -0.13024607012717354, 
        -0.1636823781796821, 
        0.02833782986488315, 
        0.043418974324199965, 
        -0.6626511220805824, 
        -0.8719400838253929, 
        -0.39057504656295233, 
        0.5576254081447719, 
        -0.03504400154433601, 
        -0.07139675973350151, 
        -0.022162589333287096, 
        -0.004996701272775285, 
        0.002526253183279503, 
        0.13559512179391425, 
        0.47963025375849583, 
        -0.33233607293731515, 
        -0.09048586608776402, 
        -0.288633289564988, 
        0.1945335228655533, 
        0.13042270933293487, 
        0.148973397390102, 
        0.5995201808224595, 
        0.045279621102830604, 
        0.13773026050596612, 
        -0.1898811945305219, 
        -0.12238657590814628, 
        -0.3111324316698248, 
        -0.23045550256892872, 
        -0.11714896125783834, 
        -0.04318112134544971, 
        -0.347389254338681, 
        0.24906960680076054, 
        -0.027373713053220405, 
        -0.005155919721733263, 
        -0.10101343221475621, 
        0.14302846613321035, 
        -0.030885786142980605, 
        0.5149257371581153, 
        0.18137408379524386, 
        -0.06064788620435368, 
        -1.673447529642017, 
        0.255045871287343, 
        -0.0850230032566223, 
        -0.027888369169805853, 
        -0.5828112937990165, 
        -0.10452084885686656, 
        -0.12382027796384286, 
        0.04040802792362166, 
        -0.18683972319193962, 
        -0.35569520374526536, 
        -0.20241010822605174, 
        0.23488576760168509, 
        0.12092354916006454, 
        0.11654100548030506, 
        -0.018058883284487928, 
        0.012162891426415627, 
        0.08700260949106647, 
        0.05486751103031417, 
        -0.06761909283793682, 
        -0.047439332582343015, 
        0.013451338867172178, 
        -0.030378219401625814, 
        0.09514951729549521, 
        0.0907499326492431, 
        0.0186731550094201, 
        0.035500854554272904, 
        0.054435124750115305, 
        -0.4786824782003814, 
        0.48928926009370555, 
        0.5450275551438937, 
        -0.026513501630726327, 
        -0.005571866651228889, 
        0.08397777018706964, 
        0.08689817218585777, 
        -0.15701235102333938, 
        0.14744412568194884, 
        -0.1035796113078034, 
        -0.14394309043991396, 
        -0.042479353134574946, 
        -0.041843404109199005, 
        -0.10339991867503255, 
        0.08756539977616881, 
        0.13181648496887086, 
        0.05949396823360282, 
        0.02546459054842688, 
        0.792259959457524, 
        -0.12930044908310784, 
        -0.27943959548332725, 
        -0.08386390544326544, 
        -0.21158916303934874, 
        -0.1589851043634121, 
        -0.2956561427116031, 
        0.12401105885321456, 
        -0.0062528882673046704, 
        -1.3129563175871721, 
        0.6223612430177459, 
        0.05211241491325123, 
        0.013371104213335115, 
        0.296408290119816, 
        0.1280738279652465, 
        0.02971891724146879, 
        0.016803273543514664, 
        -0.07939453405119083, 
        -0.04177714673880462, 
        -0.019390511804891708, 
        -0.040979820639200276, 
        0.11205791117030403, 
        0.07393812321142106, 
        0.05887877687355869, 
        -0.17239728137497462, 
        0.030471342422830176, 
        0.0018722786208431722, 
        0.03445412005995128, 
        0.30368505746560764, 
        0.2068328605773838, 
        -0.06647209385021055, 
        -0.08158763244598052, 
        -0.07645020448317423, 
        -0.03966347519741874, 
        -0.03473014408163454, 
        0.019912326969593202, 
        0.35358069578328216, 
        -0.09361323735203281, 
        -0.09279538488001572, 
        0.2329236744990338, 
        0.15486174638535588, 
        0.052826444893166194, 
        0.016677020429538246, 
        -0.022398080151293607, 
        -0.366622325030515, 
        0.21060034239956893, 
        0.07341961906161419, 
        -0.09678255306021416, 
        0.12418875933855053, 
        -0.14622282627290523, 
        -0.2371061322100449, 
        -0.16469399443825902, 
        0.03973544265786598, 
        -0.0391209788815454, 
        -0.22375642905945353, 
        -1.4042210386994258, 
        0.043744671328751886, 
        -0.4845560523549846, 
        0.16838713146834663, 
        0.00830893583522741, 
        0.04642943749721934, 
        0.22105345644441404, 
        -0.02558332221035281, 
        -0.08013389807728337, 
        -0.31329759186319783, 
        -0.6989306304536369, 
        -0.6054556153284363, 
        0.021433667298346608, 
        -0.2412915968918438, 
        -0.21551152588899572, 
        0.043188562220236294, 
        0.19562610035537928, 
        0.05928968997428225, 
        0.01817660086236138, 
        0.17970507991667137, 
        0.353799080369586, 
        0.06838431709537822, 
        -0.05373519483589231, 
        0.016340585001393803, 
        0.1291441528318588, 
        0.024638387816905083, 
        0.4312697513370717, 
        0.29378003971991073, 
        0.2791545965768705, 
        0.17635261494233706, 
        0.4162908246805051, 
        0.21574017858072966, 
        0.1009955925062314, 
        0.40163317612865596, 
        -0.0503737149854029, 
        0.8490213943693333, 
        -0.28383045622660097, 
        -0.037248419343120086, 
        -0.0661921474675026, 
        -0.02785589846947879, 
        0.01992794637298065, 
        -0.14374679497732942, 
        -0.18935803501873488, 
        -0.21642336244065072, 
        0.017176054584936772, 
        0.10449297613916347, 
        -0.34720169582212734, 
        -0.2542080018703758, 
        -0.3738064233874595, 
        0.2645190842545042, 
        0.04565721455518061, 
        0.1565338230931876, 
        0.0029104723416058494, 
        -0.3113848795705193, 
        -0.13614837277519778, 
        -0.5406408859648651, 
        -0.32462642196074265, 
        -0.16819102948805884, 
        -0.09206995365106749, 
        -0.18081538474510872, 
        0.043135586206636205, 
        0.15350292359985154, 
        -0.4241513437753715, 
        -0.4390161084974453, 
        -0.5848033933089083, 
        -0.5587828108491005, 
        -0.05342251796384917, 
        -0.1522173339666815, 
        -0.17800158000423494, 
        0.25324681687960915, 
        0.24729549061159617, 
        0.2908421052533097, 
        -0.03704477283579523, 
        0.20369100718669267, 
        0.118148454351049, 
        0.2655881927064075, 
        -0.15400564907340974, 
        -0.13432045928846273, 
        -0.1871205109124733, 
        -0.14933647682295625, 
        0.7097247094142086, 
        0.43357195266284726, 
        0.5082544361549712, 
        0.03835389134761496, 
        -0.14027053418196986, 
        -0.45911444211735625, 
        -0.07829358846985704, 
        -0.06796150825895902, 
        -0.0414814799088877, 
        -0.12015888712021866, 
        0.047464660606518806, 
        0.12955014468303236, 
        1.3652137048376531, 
        -0.13146101886813943, 
        0.05211213915774106, 
        0.006449947556612507, 
        -0.022184047039307157, 
        0.29003169631106096, 
        -0.09972795165524327, 
        0.0012697920023482289, 
        0.0447898994990828, 
        -0.06075145973838042, 
        -0.10817591209431458, 
        -0.06629206232767569, 
        -0.05794669036440267, 
        -0.03234369896616981, 
        -0.03022190643726364, 
        -1.4147794041226889, 
        -0.01632127342779735, 
        -0.051598210544684615, 
        -0.043890254260269934, 
        -0.0270316239695703, 
        0.018264978433037572, 
        0.1433298193980888, 
        0.021631623111691756
      ]
    }, 
    {
      "activation": "rectified", 
      "architecture": "dense", 
      "bias": [], 
      "weights": []
    }, 
    {
      "activation": "linear", 
      "architecture": "dense", 
      "bias": [
        0.03808935663020542, 
        -0.3154500775998039, 
        -0.08986365999899819, 
        -0.24817326179704352, 
        0.22788082764492404, 
        0.7232237025470406, 
        0.2960986542581997, 
        -0.2644826325131338, 
        -0.24160557635737906, 
        0.7137027403910244
      ], 
      "weights": [
        0.2069744068197255, 
        0.04472931025260443, 
        0.25235696951484554, 
        -0.19752161597189247, 
        0.36524948371952404, 
        -0.4812873374657834, 
        0.6794785554527542, 
        -0.3182933213051595, 
        0.4340235481859584, 
        -0.5927255593722884, 
        -0.3039787569808309, 
        0.055144857674342206, 
        -0.033994186992392, 
        0.12970234571889797, 
        0.029965819973259783, 
        0.12288723106447415, 
        -0.6451556023260462, 
        0.373458980184461, 
        0.5159804302191443, 
        0.7782120583661117, 
        -0.20634048036066469, 
        0.10780269123557028, 
        -0.1264462669757594, 
        -0.27121243558141894, 
        -0.07320834067109834, 
        -0.597687038410577, 
        0.2259793845018653, 
        0.041797819588493955, 
        0.49644298898835676, 
        0.18716135671078257, 
        0.2592029548541624, 
        -0.01887383437787915, 
        -0.05716680769628524, 
        -1.167738920228119, 
        -0.34591835503095303, 
        0.004484701383253822, 
        0.1526911338659969, 
        0.3142345541909553, 
        -0.25327750144644856, 
        -0.043267798593261776, 
        0.10650912974179494, 
        0.5665173153709464, 
        0.15973090736651432, 
        -0.3193221676603459, 
        -0.293059111299006, 
        -0.31118564958192657, 
        0.07557488218540823, 
        0.42625522292689105, 
        -0.01969335639868802, 
        -0.583368487188906, 
        0.8733453269755188, 
        -0.3135000187616172, 
        0.14826160480327263, 
        0.2923715169273755, 
        -0.5676226976286766, 
        0.651362122503153, 
        0.1444993537117427, 
        0.6930352639357789, 
        0.17485623209682047, 
        0.44257893102051726, 
        -0.029378553606634196, 
        -0.1121402172634003, 
        0.8464205674020955, 
        0.5066440793747691, 
        0.7615152325793699, 
        0.0449557347572073, 
        -0.0008646062000459744, 
        -0.18794229106877797, 
        0.2943747689814105, 
        0.08915957566521508, 
        -0.20345718571021726, 
        0.3495465644060982, 
        -0.03169833963649137, 
        0.1267780645361385, 
        0.07871754656562528, 
        -0.18771716700476945, 
        0.5337116359858495, 
        -0.5763382577831107, 
        -0.4862748380858708, 
        0.020063599282885647, 
        0.21314096113107295, 
        0.010066693867960686, 
        -0.029103769282030883, 
        0.07888450008093173, 
        -0.3519335288663493, 
        0.21786273676549636, 
        -0.14868314701378527, 
        0.5597965599954273, 
        0.14589652402090003, 
        0.499344376000045, 
        0.16359122576079174, 
        0.5073653093814094, 
        0.17536347970317892, 
        0.43412489918772035, 
        0.1415378476658119, 
        0.12218086714073921, 
        0.09356984935426234, 
        -0.37439889074370675, 
        -0.3227495002598046, 
        0.5983706668977508
      ]
    }, 
    {
      "activation": "rectified", 
      "architecture": "dense", 
      "bias": [], 
      "weights": []
    }, 
    {
      "activation": "linear", 
      "architecture": "dense", 
      "bias": [
        -0.5847753367141739, 
        -0.21205848868503102, 
        0.007788048462453799
      ], 
      "weights": [
        0.9517976997330759, 
        -1.319042182884233, 
        0.31352016739538474, 
        0.5997153650143577, 
        0.8885404076631783, 
        -0.1143764191864917, 
        0.6537612201430323, 
        -0.6795502396298504, 
        -0.01969652042415218, 
        -0.5545689688384177, 
        -0.20241567854848153, 
        0.4770898835095237, 
        -0.2702247437881296, 
        0.18874966587748424, 
        -0.1476157580478309, 
        0.3327972879165128, 
        0.5230754273141903, 
        0.16042867653388979, 
        -0.40553893331523166, 
        0.36576636179654, 
        -0.12944558424675928, 
        0.158830408466618, 
        0.33536584891396076, 
        0.654812790669664, 
        -0.22201928827858003, 
        0.8499919363304475, 
        -0.9437301757421934, 
        -0.34651521929010637, 
        0.627731184442729, 
        -0.2567971351916235
      ]
    }, 
    {
      "activation": "softmax", 
      "architecture": "dense", 
      "bias": [], 
      "weights": []
    }
  ], 
  "miscellaneous": {
    "scikit-learn": "0.18.1"
  }, 
  "outputs": [
    "WjetsBB", 
    "ttbarBB", 
    "Bprime"
  ]
}