{
  "defaults": {}, 
  "inputs": [
    {
      "name": "corr_met_MultiLepCalc", 
      "offset": -165.1792169693355, 
      "scale": 0.008022085288328812
    }, 
    {
      "name": "AK4HTpMETpLepPt", 
      "offset": -1652.8113497992342, 
      "scale": 0.0018769699743973742
    }, 
    {
      "name": "AK4HT", 
      "offset": -1338.7734156652023, 
      "scale": 0.0022157651619916226
    }, 
    {
      "name": "NJets_JetSubCalc", 
      "offset": -5.738319125118402, 
      "scale": 0.5652109657167471
    }, 
    {
      "name": "NJetsAK8_JetSubCalc", 
      "offset": -3.1026306725221735, 
      "scale": 2.974751863627543
    }, 
    {
      "name": "minDR_leadAK8otherAK8", 
      "offset": -2.1356691130639294, 
      "scale": 1.5346286505869804
    }, 
    {
      "name": "nH_DeepAK8", 
      "offset": -0.6395591147851546, 
      "scale": 1.4006660311219963
    }, 
    {
      "name": "nT_DeepAK8", 
      "offset": -0.32546284336519415, 
      "scale": 1.8431286538623763
    }, 
    {
      "name": "jetPt_1", 
      "offset": -559.7478980826231, 
      "scale": 0.004411735140099985
    }, 
    {
      "name": "jetPt_2", 
      "offset": -389.9781486601892, 
      "scale": 0.00665386665378762
    }, 
    {
      "name": "jetPt_3", 
      "offset": -278.96472923839207, 
      "scale": 0.012209490674051525
    }, 
    {
      "name": "sdMass_1", 
      "offset": -84.20009338675928, 
      "scale": 0.012992821318097612
    }, 
    {
      "name": "sdMass_2", 
      "offset": -77.87098960763423, 
      "scale": 0.015088076968580702
    }, 
    {
      "name": "sdMass_3", 
      "offset": -57.81082560584442, 
      "scale": 0.019420156946377352
    }, 
    {
      "name": "dnnLargest_2", 
      "offset": -1.7025187290105916, 
      "scale": 0.601931365710176
    }, 
    {
      "name": "dnnLargest_3", 
      "offset": -1.650938603289417, 
      "scale": 0.5819624280656545
    }, 
    {
      "name": "dnnJ_1", 
      "offset": -0.354856223488604, 
      "scale": 2.608685446943053
    }, 
    {
      "name": "dnnJ_2", 
      "offset": -0.3070443287571492, 
      "scale": 2.6823289356725395
    }, 
    {
      "name": "dnnJ_3", 
      "offset": -0.3472959166902996, 
      "scale": 2.613120052273936
    }
  ], 
  "layers": [
    {
      "activation": "linear", 
      "architecture": "dense", 
      "bias": [
        0.4657379074501417, 
        -0.8445054468984666, 
        0.2303428010670008, 
        0.5055034853424912, 
        0.2337159040858399, 
        -0.5969391319418135, 
        0.1856790653156087, 
        0.46257516438937174, 
        0.09275115388468518, 
        -0.4563618331382435
      ], 
      "weights": [
        0.13344656512136419, 
        0.3002652188989603, 
        -0.27945458638710163, 
        -0.7034364095824739, 
        -0.14026805100627976, 
        -0.16897820848451522, 
        -0.18399327654680506, 
        -0.4320569515655057, 
        -0.06507258632863473, 
        0.06263269205488366, 
        -0.008295991536421963, 
        0.04858229870661141, 
        -0.03264664899179839, 
        -0.03477615367545262, 
        0.09557225716994211, 
        -0.017433524845117742, 
        0.5289705519816997, 
        0.409987815463191, 
        0.15829680790498935, 
        -0.06518659337322377, 
        0.13826464637477578, 
        -0.11511372819836316, 
        -0.002231592556990024, 
        0.23481226879835843, 
        0.02171241082302617, 
        -0.021269051447203237, 
        -0.002622246388268802, 
        0.023798254901622726, 
        -0.0032131200423783242, 
        0.06000454148050668, 
        -0.012396784933016115, 
        -0.0051011482481016, 
        0.026857055298123923, 
        -0.02624041189420282, 
        -0.16103644248000137, 
        -0.05740315379436646, 
        -0.05897577323341278, 
        -1.6716225929443431, 
        0.1115960872070483, 
        0.06950296944533274, 
        0.03701635139301899, 
        0.5487663410292775, 
        0.3225217801282823, 
        -0.023853214940162216, 
        -0.10985038103399383, 
        -0.1406579975938825, 
        -0.10993004455394838, 
        -0.08054957920299216, 
        -0.0846935790164604, 
        -0.15360084886586328, 
        -0.1901148897005008, 
        -0.21975206388501006, 
        0.10604143348127387, 
        -0.06279019034829189, 
        0.4894401799590454, 
        0.2936868602933715, 
        -0.14744514267385703, 
        -0.025987534693717878, 
        -1.6145946486364784, 
        0.6354285046335413, 
        0.012616338043710412, 
        0.0808123485132417, 
        -0.19094274122772034, 
        -0.029939708581875005, 
        -0.04097368446721626, 
        -0.2617822526804332, 
        -0.17266385282904587, 
        -0.17470513524541642, 
        0.101972118064229, 
        0.01890833502302985, 
        0.061387640503527546, 
        0.01539476452848733, 
        0.06143834035600032, 
        0.03229031268670511, 
        0.028157397909087382, 
        0.1656303821911071, 
        0.03158046463515712, 
        -0.3047313197355105, 
        -0.15398330406118102, 
        -0.27914445381558145, 
        -0.2558477189315197, 
        -0.7480975530915682, 
        0.2676880150332509, 
        0.21729844729840617, 
        0.5527699629214823, 
        -0.08278795235758345, 
        -0.026306502722864927, 
        0.05842425077071479, 
        0.08119047660798948, 
        0.09523761795938147, 
        0.015295894412996454, 
        0.06916267722482948, 
        0.23037282794823344, 
        -0.13257647549794732, 
        0.14697099560271853, 
        0.022882283859694964, 
        -0.04084635494145751, 
        0.028563189392673535, 
        0.08344068684470154, 
        0.48710008026702517, 
        -0.054875954017915195, 
        0.03582728727491066, 
        0.12929966742436227, 
        0.0998757617364477, 
        -0.07731332703668387, 
        -0.017964984279566706, 
        0.04960121981695237, 
        -0.04446940352552339, 
        -0.030054153519215632, 
        -0.00013925582145917726, 
        0.014374239619923389, 
        -1.47715490403339, 
        0.09504905637332663, 
        0.04424393995427574, 
        0.18120986896782337, 
        0.35536354187053687, 
        0.046195774824853916, 
        -0.16841704006344368, 
        0.09460243307688374, 
        -0.43109402236614786, 
        0.12157423099540708, 
        -0.06466604814833567, 
        -0.37602974539629913, 
        0.2517186945006171, 
        0.09215068338248503, 
        0.01935272069541858, 
        0.036159939082904456, 
        0.0656693718693511, 
        0.060742531929645134, 
        0.2312784762039666, 
        -0.9395123809050435, 
        -1.0986234051694466, 
        -0.2998042463681135, 
        -0.1050411431322184, 
        -0.4289049303405045, 
        0.09318053750295867, 
        -0.13932079571478345, 
        -0.16296485342967257, 
        0.5068770976752532, 
        0.166571519161637, 
        0.24952779038746523, 
        0.2863730533435703, 
        -0.05217730916377973, 
        -0.006234361711593906, 
        -0.01779555022908022, 
        0.10956815873079019, 
        0.06004013669655046, 
        0.0765010128927496, 
        0.04018296626219725, 
        0.5061630858335023, 
        0.4915473284537445, 
        0.30458577304323253, 
        -0.12406447303058682, 
        0.8839155475578883, 
        -0.5640339466015548, 
        0.19125535923316825, 
        0.12162202967414838, 
        0.029687384757037458, 
        -0.013753623205848553, 
        -0.1927369232406855, 
        -0.18591347760748986, 
        -0.09881295370498473, 
        -0.05590845604453997, 
        -0.2204616518140928, 
        -0.5643173843601027, 
        -0.5831218690322807, 
        -0.011341312179177774, 
        -0.008107292966600196, 
        -0.058130521419693285, 
        -0.13469383918914227, 
        -0.1489598779013645, 
        0.034416941090834326, 
        -0.016566541651192517, 
        0.024835495669786534, 
        0.10757390167861552, 
        0.41885068341471715, 
        0.04685419648442864, 
        -0.024771210429118756, 
        -0.02305979424662515, 
        0.0047623193541004175, 
        0.016973635568865136, 
        -0.028708739412010607, 
        -0.05303050468152061, 
        0.04224042051120569, 
        -0.02312391316618305, 
        -0.12702165557884484, 
        -0.00833599218802764, 
        0.21823380841521792, 
        -1.8308466258112035, 
        0.02959088712678544
      ]
    }, 
    {
      "activation": "rectified", 
      "architecture": "dense", 
      "bias": [], 
      "weights": []
    }, 
    {
      "activation": "linear", 
      "architecture": "dense", 
      "bias": [
        0.567131702661932, 
        -0.10679260082719715, 
        0.36245238662387563, 
        0.7330423433241468, 
        0.13196613163658732, 
        -0.08218231420022853, 
        -0.18680627696532573, 
        -0.3148245688080758, 
        0.22195829081525636, 
        0.2764146026272319
      ], 
      "weights": [
        0.18351312681179813, 
        -0.08378387739468901, 
        0.540684518048871, 
        -0.06510838539225336, 
        -0.23144735993312873, 
        1.1009215795245348, 
        -0.014528635722057261, 
        -0.028857574917389602, 
        -0.1116643012078648, 
        -1.213703998980311, 
        -0.08255392136165686, 
        -0.014727543577533442, 
        0.1401885189356014, 
        0.7692301181556525, 
        -0.4615842881481085, 
        -0.41316177295661766, 
        0.17909761842031535, 
        0.669555121243119, 
        -0.01994551566299288, 
        -0.2910340367151269, 
        -0.2968230204821039, 
        0.8289774028729268, 
        0.4388873199836267, 
        0.373071510577969, 
        0.0303009247088248, 
        0.20562314573116375, 
        0.02012594664064304, 
        0.4270950392026865, 
        -0.12741868181398738, 
        0.5376601254854864, 
        0.2690580229720412, 
        -0.6482161458597947, 
        0.0618410259223975, 
        0.25237374911635874, 
        -0.15330920989726357, 
        0.010215716994241694, 
        -0.047562781738131575, 
        0.7529511210471316, 
        -0.11981943091367535, 
        0.09839505889909748, 
        0.21368002497857905, 
        -0.6467035625053477, 
        0.29764749186248807, 
        0.5668248724569532, 
        0.7922560735770546, 
        -0.30186025715195736, 
        -0.02611313627483024, 
        0.12247660086290628, 
        -0.7209896808704161, 
        -0.34341816262659974, 
        0.28016084483682663, 
        0.03152747098053034, 
        0.5003286646003932, 
        0.5715445170043527, 
        0.33606631435085416, 
        0.04825514445589707, 
        0.4198317719058613, 
        0.08469312825881066, 
        -0.05816939907384852, 
        -0.15505100420936094, 
        -0.037238782978831084, 
        0.14578763747692347, 
        -0.4762276791197155, 
        -0.04370479841033376, 
        -0.12455036849676161, 
        1.1947722252740256, 
        0.007831419927387482, 
        -0.16890904984768035, 
        0.03640318454745147, 
        1.027728906998176, 
        -0.04553108330482377, 
        1.0338987296669262, 
        0.329298817246048, 
        0.19667575047111027, 
        0.08968249885002942, 
        0.4700572979992458, 
        -0.1328821901984087, 
        0.04788347163460804, 
        0.17922785215546808, 
        0.7792429250574674, 
        0.3987918779627993, 
        0.7121479476331601, 
        0.1472615962153536, 
        -0.6262656912223217, 
        -0.36540597051784374, 
        0.26953355833213954, 
        0.8494339393141117, 
        -0.26455264787499316, 
        0.6551611331619198, 
        0.1489358214738652, 
        0.3982645541126656, 
        -1.4399220526330558, 
        -0.3316270851471392, 
        0.1284156336296853, 
        0.04500114468702696, 
        -0.6938343800148097, 
        -0.10748203445524662, 
        0.276952635661962, 
        -0.5698005076740629, 
        -0.4595118886081279
      ]
    }, 
    {
      "activation": "rectified", 
      "architecture": "dense", 
      "bias": [], 
      "weights": []
    }, 
    {
      "activation": "linear", 
      "architecture": "dense", 
      "bias": [
        0.8830218901147893, 
        -0.5320262406852753, 
        -0.11568255282810365
      ], 
      "weights": [
        -0.9684416143034762, 
        0.14050360866120334, 
        -0.705018631899275, 
        0.8364058781344578, 
        0.5609441767085729, 
        -0.16318961639024165, 
        -1.3031344913367666, 
        -1.110328687789064, 
        -0.04481328622094376, 
        0.6619998647045634, 
        -0.056666517771282676, 
        -0.11449596919281103, 
        0.23498739654191964, 
        0.2394537239371917, 
        -0.32139532950053906, 
        0.5338136847239563, 
        0.6547426100275662, 
        0.08624622285555812, 
        -0.39269574231209414, 
        -0.9319029100981434, 
        -0.1306584439848442, 
        -1.062150880315966, 
        -0.3618792864540615, 
        -0.2515904989215352, 
        -0.9937672381051268, 
        0.05567049813321892, 
        0.6268051574368236, 
        -0.25189212864933597, 
        0.9868093566468624, 
        0.4109347883756668
      ]
    }, 
    {
      "activation": "softmax", 
      "architecture": "dense", 
      "bias": [], 
      "weights": []
    }
  ], 
  "miscellaneous": {
    "scikit-learn": "0.18.1"
  }, 
  "outputs": [
    "Wjets", 
    "ttbar", 
    "Tprime"
  ]
}