{
  "defaults": {}, 
  "inputs": [
    {
      "name": "corr_met_MultiLepCalc", 
      "offset": -164.75353360824136, 
      "scale": 0.008029415502111895
    }, 
    {
      "name": "AK4HTpMETpLepPt", 
      "offset": -1627.7892581173908, 
      "scale": 0.0018505319562220812
    }, 
    {
      "name": "AK4HT", 
      "offset": -1315.1594128922904, 
      "scale": 0.0021861636829790337
    }, 
    {
      "name": "NJets_JetSubCalc", 
      "offset": -5.789092186647682, 
      "scale": 0.5602204412183295
    }, 
    {
      "name": "NJetsAK8_JetSubCalc", 
      "offset": -3.106299867789684, 
      "scale": 2.935909076113045
    }, 
    {
      "name": "minDR_leadAK8otherAK8", 
      "offset": -2.121177189506258, 
      "scale": 1.5490464515745108
    }, 
    {
      "name": "nH_DeepAK8", 
      "offset": -0.6590822939876665, 
      "scale": 1.3825011397666118
    }, 
    {
      "name": "nT_DeepAK8", 
      "offset": -0.2762178604117935, 
      "scale": 1.9886526935748554
    }, 
    {
      "name": "nW_DeepAK8", 
      "offset": -0.3821941365187082, 
      "scale": 1.752027880295271
    }, 
    {
      "name": "jetPt_1", 
      "offset": -543.6823793733735, 
      "scale": 0.004446973883964616
    }, 
    {
      "name": "jetPt_2", 
      "offset": -381.09261493356803, 
      "scale": 0.006731805986075892
    }, 
    {
      "name": "jetPt_3", 
      "offset": -276.5996684753157, 
      "scale": 0.012265826515951978
    }, 
    {
      "name": "sdMass_1", 
      "offset": -83.61788735744375, 
      "scale": 0.013160625998960949
    }, 
    {
      "name": "sdMass_2", 
      "offset": -75.74606158674655, 
      "scale": 0.015497550331237309
    }, 
    {
      "name": "sdMass_3", 
      "offset": -57.527156189561104, 
      "scale": 0.019672347572273235
    }, 
    {
      "name": "tau21_3", 
      "offset": -0.5079621513988826, 
      "scale": 4.191187356848459
    }, 
    {
      "name": "dnnLargest_1", 
      "offset": -1.5545668031915385, 
      "scale": 0.6112578043980486
    }, 
    {
      "name": "dnnLargest_2", 
      "offset": -1.7757324728876398, 
      "scale": 0.5984040585194141
    }, 
    {
      "name": "dnnLargest_3", 
      "offset": -1.7381773467331108, 
      "scale": 0.5729419736972409
    }, 
    {
      "name": "dnnJ_1", 
      "offset": -0.34149876938960994, 
      "scale": 2.6017953590191776
    }, 
    {
      "name": "dnnJ_2", 
      "offset": -0.3035439979394223, 
      "scale": 2.6561805355286867
    }, 
    {
      "name": "dnnJ_3", 
      "offset": -0.34306080106452563, 
      "scale": 2.584162462213299
    }, 
    {
      "name": "dnnH_1", 
      "offset": -0.15124361552263693, 
      "scale": 3.8985067993418365
    }, 
    {
      "name": "dnnH_2", 
      "offset": -0.1787821889056424, 
      "scale": 3.7851659640459863
    }, 
    {
      "name": "dnnH_3", 
      "offset": -0.16494967362256766, 
      "scale": 4.1927820127918745
    }, 
    {
      "name": "dnnT_1", 
      "offset": -0.11634159431259211, 
      "scale": 3.711118552294649
    }, 
    {
      "name": "dnnT_2", 
      "offset": -0.07119873430070099, 
      "scale": 4.979894572318905
    }
  ], 
  "layers": [
    {
      "activation": "linear", 
      "architecture": "dense", 
      "bias": [
        0.8182624877874455, 
        -0.3417431975097398, 
        -1.0820866033665104, 
        -0.7695699205799825, 
        0.2579168411844918, 
        0.913649540863065, 
        0.9728543060873373, 
        0.6603981102321255, 
        -0.03156218568304027, 
        0.43286792072670127
      ], 
      "weights": [
        0.05986785896798902, 
        0.9543297789216709, 
        -0.06821666601638628, 
        -0.03622285182310447, 
        -0.0013041109736860955, 
        0.09035672733178511, 
        -0.0831987922299018, 
        -0.17097290066855972, 
        -0.15116621648145837, 
        -0.250542233380642, 
        0.001483018453950878, 
        0.06502700662791673, 
        -0.3851720458906225, 
        -0.2045674326002782, 
        -0.18140428313097196, 
        0.25350182501539126, 
        0.1382615523490729, 
        0.11221439901854058, 
        0.26700676965893533, 
        -0.40814427006966514, 
        -0.15349870354663936, 
        -0.6014315584552944, 
        0.10175379562967256, 
        -0.016891078051711566, 
        -0.1767432626765455, 
        -0.08933225398581658, 
        -0.007513765203284981, 
        -0.025932209954370792, 
        0.2913385512656442, 
        -0.2749361602483176, 
        -0.11335307144962078, 
        0.08288961076276342, 
        0.11426581294738467, 
        0.08883929742466368, 
        0.11178877052860565, 
        -0.06371431496261055, 
        -0.12117157625416296, 
        0.2625513506649217, 
        -0.04552384057718388, 
        -0.021374332775568456, 
        -0.03406495356688198, 
        0.03735324628424223, 
        -0.15318243414636326, 
        0.017042601380103925, 
        0.2146071193217854, 
        -0.01609656527121079, 
        0.031904485030837114, 
        -1.6341901757694113, 
        0.13864049224140487, 
        -0.03268572787780526, 
        -0.05066040210765094, 
        0.04651659619227798, 
        0.12682591624610945, 
        0.03522086056631333, 
        -0.027720179261267002, 
        0.15190891345745408, 
        -0.23480603899814584, 
        0.01557982964810102, 
        0.04335981787304845, 
        -0.01574936655646965, 
        0.006058359447545592, 
        -0.012427144433479026, 
        0.030267308575852688, 
        0.12073651546333998, 
        0.038209178516875095, 
        0.022876278660166848, 
        0.08446917169095322, 
        -0.015243984167756503, 
        0.0008789845252821411, 
        -0.02778118903240247, 
        -0.14264441800849517, 
        -0.024516764059477402, 
        -0.00914055358061878, 
        -1.7934762111316127, 
        -0.0017078857847059308, 
        0.044602138821549564, 
        -0.031596838981942044, 
        0.026799241531672676, 
        0.04290380827852708, 
        -0.022147806765099802, 
        0.04056517253013484, 
        -0.031793155210952655, 
        -0.08586585082301015, 
        0.15625383186021574, 
        -0.030875501741797356, 
        0.15854142134016946, 
        0.04431036459066602, 
        -0.03757679563817789, 
        0.014263219053994426, 
        0.03048418398994261, 
        0.0008727660585396428, 
        0.0542188719916607, 
        0.06851560980336562, 
        0.040569405078848854, 
        0.04131036720659009, 
        0.09021297861107085, 
        -0.019858060129925748, 
        -0.02244112096049892, 
        -0.03355323749182695, 
        -0.2506510035466978, 
        -0.04296269595680435, 
        -0.0356629168400195, 
        -1.834009650774906, 
        0.012883295980817722, 
        0.03488748593606427, 
        0.1534740055764355, 
        0.10913317879914908, 
        -0.0024393248373482503, 
        -0.052617786442403315, 
        0.021173966779673772, 
        0.028880035567541377, 
        -0.07828966514181018, 
        -0.057879009531798406, 
        0.11200854771611625, 
        0.08189312473147509, 
        -0.031890908562611286, 
        -0.0008668241161031869, 
        0.6629746319649888, 
        -0.1797881669519293, 
        -0.022799486751373835, 
        -0.20468777735709162, 
        0.0423388299984222, 
        0.000638772470411662, 
        -0.03627792748075694, 
        0.1226293344608707, 
        -0.12570029719022302, 
        -0.05084254461698003, 
        0.6179328891608513, 
        -0.3298388897655585, 
        0.06725707166854673, 
        0.05558582799944919, 
        -0.03224125912767874, 
        -0.015858983565387143, 
        0.41240361803803693, 
        0.05764003864658678, 
        0.029923051295484226, 
        0.0986001101354794, 
        0.3181075440048543, 
        0.43576625227307436, 
        0.5154096539680847, 
        0.0711776512946218, 
        0.16103412216207647, 
        0.022727524417702056, 
        -0.15298406446224083, 
        -0.3666096463603195, 
        -0.0130561359553149, 
        -0.17979392307414122, 
        -0.2710887227661735, 
        -0.3818778362301263, 
        -0.13303176960671312, 
        0.07202930925316108, 
        0.0805933260412495, 
        0.39938816045536224, 
        -0.009646790016007383, 
        -0.01932463276967775, 
        0.9073939620118084, 
        -0.17566140215008297, 
        -0.19265373445590914, 
        -0.21451252870900178, 
        -0.2512298384008419, 
        0.20829935784266038, 
        -0.3559062969214937, 
        -0.010853889456196912, 
        0.06257008342965933, 
        -0.24146276035179565, 
        -0.33858305698252383, 
        -0.805882386679462, 
        0.018301572762973776, 
        0.07652602476223963, 
        0.13090827222404544, 
        -0.004481040023352853, 
        0.08938354062489651, 
        0.19280497765954988, 
        -0.04616814426579591, 
        0.017753440660500143, 
        -0.02555222427277212, 
        0.14005887985463986, 
        -0.09477009040842625, 
        0.041515023965651425, 
        0.300905829558199, 
        -0.034084333755904174, 
        0.18573155030865912, 
        0.8014525108037133, 
        0.18693020280879277, 
        0.01703507651279764, 
        0.008585286397080392, 
        0.13126126405860272, 
        0.07455828238215591, 
        0.038277603647079265, 
        0.11411751266421001, 
        -1.3960029039873163, 
        0.711860026898382, 
        0.2884344522747357, 
        0.12002156976196404, 
        0.0163994154944035, 
        -0.03863676184348596, 
        0.05023934280061422, 
        -0.08099275000635064, 
        0.07199686764149074, 
        -0.004563615376860155, 
        -0.27606056268696355, 
        -0.022225563216264344, 
        0.05351339304337412, 
        0.06089850511358366, 
        -0.022278623192634586, 
        0.10205698921047454, 
        0.1689162930634696, 
        0.09952172314184055, 
        0.37651272240508127, 
        0.4434716796722281, 
        -0.08961211763065237, 
        -0.015781496345055497, 
        -0.05757005465249024, 
        -0.031226509815374736, 
        -0.02691260214543957, 
        -0.012090223305625588, 
        -0.23471192027863144, 
        -0.38371043585068076, 
        0.33280009772192537, 
        0.0356747821498498, 
        0.1658059753530518, 
        1.1944792080448288, 
        0.14711694507797687, 
        0.06839907970204766, 
        0.07276144705925149, 
        -0.4688679321626413, 
        0.10826865515099052, 
        0.17955578749426054, 
        -0.05213522174617069, 
        -0.06583797578946245, 
        0.09182458608370318, 
        0.16927455991781473, 
        -0.15118822163184678, 
        0.06222302906638711, 
        0.040719593406345476, 
        -0.11817845743119092, 
        0.324788084784009, 
        0.18948007598659766, 
        0.004425475092581951, 
        -0.057693863389652385, 
        0.049159249709939276, 
        -0.13187989043634504, 
        0.07125140523639159, 
        -0.12903723589775193, 
        -1.451698573600608, 
        0.5433797614465784, 
        -0.3178739190157803, 
        -0.08926926818976552, 
        -0.2548614344446329, 
        0.16002569105665473, 
        -0.02161395778299422, 
        0.028227778036320338, 
        -0.18421526206597386, 
        -0.36072733657353295, 
        -0.02293736135443004, 
        0.16100846455054293, 
        0.09797383847817703, 
        0.13750168475764019, 
        0.049564956090497846, 
        -0.21434666989684045, 
        -0.08828316538663793, 
        0.06501116488548254, 
        -0.3193654817875371, 
        -0.13504619197896972, 
        0.36461463307391, 
        -0.13516029392995524, 
        0.028534074217777223, 
        -0.009381758853859935, 
        0.02976999823547407, 
        0.011583750328875054
      ]
    }, 
    {
      "activation": "rectified", 
      "architecture": "dense", 
      "bias": [], 
      "weights": []
    }, 
    {
      "activation": "linear", 
      "architecture": "dense", 
      "bias": [
        0.2221671760572025, 
        0.334726043227314, 
        -0.14114461834731265, 
        -0.14938871605208096, 
        0.009436390537523345, 
        0.32699976662544894, 
        0.2947927508539902, 
        -0.10823210828703908, 
        0.476202434663814, 
        0.16554835673426083
      ], 
      "weights": [
        -0.09008393903259185, 
        1.1651458948423223, 
        -0.3275274489343311, 
        -0.030239949027348834, 
        0.19968067374248766, 
        -0.3724687129750796, 
        -1.1119411406626378, 
        0.04532115548032991, 
        0.00038710564927879533, 
        0.05288825593473371, 
        0.49774379497473875, 
        0.49910261617577956, 
        0.8598156704806746, 
        0.3666864350381628, 
        -0.2966449398694059, 
        -0.06324028869157873, 
        -0.2949502608459591, 
        -0.2270823589108843, 
        -0.32264429459434646, 
        -0.2181866426361202, 
        0.2397157870513803, 
        -0.03574429209130654, 
        -0.4205043266786507, 
        -0.4772677661905155, 
        0.6513925917501889, 
        -0.30707169717941996, 
        0.2452440102693629, 
        0.5145851906796487, 
        0.9294214126544971, 
        0.3598497268255655, 
        0.5606122661369402, 
        0.5459625868083527, 
        1.183937248922126, 
        0.09968926199702592, 
        0.12225641731567159, 
        0.3140355666607734, 
        -0.4568457314216507, 
        0.2278356730469514, 
        -0.15425104744316348, 
        0.1829931632843016, 
        0.277857561834958, 
        -0.04925140558123703, 
        -1.27548083120857, 
        -0.7279758271782049, 
        -0.23112589971088673, 
        -0.24627163184368198, 
        0.7229976422311685, 
        0.0644476150114034, 
        -0.08932481084841257, 
        0.06084088877220315, 
        -0.18176145135094857, 
        -0.03778173563114587, 
        -0.7998997258790459, 
        -0.32068852237154205, 
        -0.28273517218518135, 
        -0.13077105361032895, 
        0.025908782646603137, 
        0.6835003156565772, 
        0.14815757248422773, 
        0.6293011001930049, 
        -0.13016050693167222, 
        -0.20140259034404998, 
        0.876702200339643, 
        0.8871595374525929, 
        0.37081844223524335, 
        0.4253195612508098, 
        -0.2235336432277517, 
        0.3728666121988391, 
        -0.012271602437925447, 
        0.47552855948436734, 
        -0.0019292278541150592, 
        -0.11655911087379299, 
        0.5766050298015152, 
        0.7369551019965133, 
        0.037958052810644016, 
        -0.2036562350876902, 
        -0.3145600029831035, 
        0.1366792654785947, 
        0.20410808080469428, 
        -0.005409674817008048, 
        -0.0798105499583937, 
        0.07032376131624218, 
        -0.42009147905930183, 
        -0.23035507688032703, 
        0.151661221427476, 
        -0.12629259532923337, 
        -0.06778457528325298, 
        0.8666115901258828, 
        -0.5986004643224738, 
        0.5533069811077445, 
        0.004475297195170637, 
        -0.551753344879799, 
        -1.7715353710655655, 
        -0.9151166991478062, 
        0.22878262056358828, 
        -0.47043488311811793, 
        0.7888981511906981, 
        -0.16569735696174892, 
        -0.022471265769992355, 
        0.20959012700242233
      ]
    }, 
    {
      "activation": "rectified", 
      "architecture": "dense", 
      "bias": [], 
      "weights": []
    }, 
    {
      "activation": "linear", 
      "architecture": "dense", 
      "bias": [
        -0.24291799457488775, 
        -0.3832503647707917, 
        0.3385634307910102
      ], 
      "weights": [
        -1.3838903715980584, 
        -0.14176958233051448, 
        0.8035721523135972, 
        -1.1293920363413452, 
        0.40649471580490776, 
        0.7126216559809487, 
        -0.6702412241380633, 
        -0.25875836030823884, 
        0.2949262086595597, 
        0.7278518465596027, 
        1.0520589654119001, 
        -0.7438532437676659, 
        0.5264794461338116, 
        -0.11868598238520182, 
        -0.3317717455193414, 
        -0.12200711831360456, 
        0.6653401833815106, 
        -0.4767799495855427, 
        0.10948476704364919, 
        -0.8891161936606475, 
        0.6306714177663146, 
        0.2547065302884188, 
        -0.3401612433284847, 
        0.5635326959749103, 
        0.3341046868179158, 
        -0.6583769364239496, 
        -0.1790572645209583, 
        0.6573666977046252, 
        -0.9582243949208694, 
        -0.12371328519971267
      ]
    }, 
    {
      "activation": "softmax", 
      "architecture": "dense", 
      "bias": [], 
      "weights": []
    }
  ], 
  "miscellaneous": {
    "scikit-learn": "0.18.1"
  }, 
  "outputs": [
    "Wjets", 
    "ttbar", 
    "Tprime"
  ]
}