{
  "defaults": {}, 
  "inputs": [
    {
      "name": "corr_met_MultiLepCalc", 
      "offset": -166.861725997306, 
      "scale": 0.007852430403356198
    }, 
    {
      "name": "AK4HTpMETpLepPt", 
      "offset": -1604.8442217221002, 
      "scale": 0.001769727697040529
    }, 
    {
      "name": "AK4HT", 
      "offset": -1287.8448272893465, 
      "scale": 0.0021093394389692984
    }, 
    {
      "name": "NJets_JetSubCalc", 
      "offset": -5.577991955075869, 
      "scale": 0.580726323325336
    }, 
    {
      "name": "NJetsAK8_JetSubCalc", 
      "offset": -3.094826556214903, 
      "scale": 3.0783860201181312
    }, 
    {
      "name": "jetPt_1", 
      "offset": -544.150714399865, 
      "scale": 0.004284302792741328
    }, 
    {
      "name": "jetPt_2", 
      "offset": -385.9146600884839, 
      "scale": 0.006388070664041997
    }, 
    {
      "name": "jetPt_3", 
      "offset": -280.61997991345623, 
      "scale": 0.011625881019193466
    }, 
    {
      "name": "dnnJ_1", 
      "offset": -0.3427125864388286, 
      "scale": 2.716981448897191
    }, 
    {
      "name": "dnnJ_2", 
      "offset": -0.30762309773057006, 
      "scale": 2.7541014212772086
    }, 
    {
      "name": "dnnJ_3", 
      "offset": -0.3380519278021994, 
      "scale": 2.6977231274597355
    }
  ], 
  "layers": [
    {
      "activation": "linear", 
      "architecture": "dense", 
      "bias": [
        0.41850648084513203, 
        0.40916443774098543, 
        -0.5004310925641757, 
        -0.5029060571579848, 
        -0.6803266312045011, 
        0.25717950127275696, 
        0.17540886229553523, 
        0.506347757750456, 
        -0.24403847482301783, 
        0.5745248317288788
      ], 
      "weights": [
        -0.01623590502884823, 
        -1.05449040944464, 
        -0.11158062987623767, 
        0.15985625165721234, 
        0.043877338658368514, 
        0.2897363011163124, 
        -0.10056145432187862, 
        -0.14173424775549018, 
        0.15260347751371825, 
        -0.07405938009087937, 
        -0.026286976756280077, 
        -0.002245506532567463, 
        0.5122320698998178, 
        0.1919770544526791, 
        0.2340487848932819, 
        0.34094412074910446, 
        -0.46023384189391964, 
        -0.17588028452011165, 
        -0.25526842866330773, 
        -0.0931766244100494, 
        -0.14649336630186174, 
        0.4467882034318853, 
        -0.02120913289129262, 
        -0.08588721786542908, 
        0.26686510255909973, 
        0.08340637323875111, 
        0.3301137086058547, 
        -0.028547518167933765, 
        -0.07330028968407866, 
        -0.03998683703284979, 
        0.046445860269199765, 
        0.08917212511985133, 
        -1.2291657206322646, 
        -0.026985213787835905, 
        -0.21939054639885253, 
        0.05870230773745839, 
        -0.014180531391078098, 
        0.03611446489301836, 
        0.1347597171880097, 
        0.03407418308960706, 
        0.06923946795113095, 
        0.027736570506265167, 
        -1.1587379030078813, 
        -0.08493648683858605, 
        0.09962198991149018, 
        -0.32717470590693837, 
        0.05273253302007216, 
        0.007630179172658629, 
        0.14175772397216796, 
        0.22445715135656222, 
        0.002858964957786351, 
        0.06617124597232608, 
        -1.218832725395556, 
        0.09606044559943483, 
        0.029861117939509883, 
        0.05262159120482005, 
        -0.19026986242403157, 
        -0.527021510590285, 
        -0.4783404783088342, 
        -0.2723557169845456, 
        0.5090819882821161, 
        0.12210076914624275, 
        0.21900582559308, 
        0.10662648971694132, 
        0.2573107117107384, 
        0.32383998887110615, 
        0.13007995536461428, 
        -0.2198273418853454, 
        0.4408338157094022, 
        -0.7093399355850973, 
        0.09317038966026228, 
        -0.41673908609645033, 
        -0.15892318221151006, 
        0.20059097644115437, 
        0.22415526275216616, 
        0.03442647677673926, 
        -0.13557940284737582, 
        -0.021662774747012854, 
        -1.1386432387721295, 
        0.17839662569162856, 
        0.12904315045388637, 
        0.0994520536291871, 
        -0.37220916585102287, 
        0.1879080883430969, 
        0.09202075630762403, 
        0.0026678607731345175, 
        0.17973760364900063, 
        0.1283982879321682, 
        0.26083326665269335, 
        -0.16693275096182827, 
        0.23929323873405547, 
        0.5492515711527907, 
        0.4397911449069328, 
        0.014378880799253715, 
        -0.08404200074974266, 
        0.315892548087224, 
        0.6870390694655394, 
        0.4563158585621163, 
        0.45306977798443604, 
        0.005007934425269695, 
        0.8949845221817564, 
        -0.2885185277717491, 
        -0.14886037096039378, 
        0.1697083923294745, 
        -0.4063498991693866, 
        0.037445465265742835, 
        0.03429587215017467, 
        -0.3658252963583288, 
        -0.22546140729502726, 
        -0.23462635246541572
      ]
    }, 
    {
      "activation": "rectified", 
      "architecture": "dense", 
      "bias": [], 
      "weights": []
    }, 
    {
      "activation": "linear", 
      "architecture": "dense", 
      "bias": [
        0.5453821244663686, 
        -0.15198574775470816, 
        0.0010121341555198995, 
        -0.3179164940878157, 
        0.22892467846834752, 
        0.7964764268051763, 
        0.7935978315190672, 
        0.48237945267740817, 
        -0.1267563683205547, 
        0.0074046917566331335
      ], 
      "weights": [
        -0.28803235365511093, 
        0.22118321660354961, 
        0.5481069399013129, 
        0.4773602093862477, 
        0.4794263844430344, 
        -0.2522279134031714, 
        0.20631014656348873, 
        -0.3404119316774714, 
        -0.352912001424625, 
        0.2289419183890459, 
        0.47384640865323785, 
        0.6334703022806734, 
        0.4864257845183994, 
        0.12149967997337965, 
        0.8019749190954777, 
        0.492497163943981, 
        0.10782650141157547, 
        -0.1394796743713791, 
        0.7052523998547503, 
        -0.2947581068006346, 
        0.25160083347006024, 
        -0.053094711124594934, 
        -0.04720519496487242, 
        -0.11459607961284915, 
        -0.07838838493480982, 
        0.4332120785745854, 
        0.509235947716545, 
        0.07930611956116689, 
        -0.22350924738614092, 
        -0.051361380795723055, 
        0.0004336377064381446, 
        -0.31002428086937417, 
        -0.5898798894015022, 
        0.06939941496920148, 
        -0.1684658066774674, 
        0.423715580924541, 
        0.041995006097667015, 
        0.47573639365122783, 
        -0.5671647849915337, 
        0.1375470382531145, 
        -0.626840849885471, 
        0.28535147972848846, 
        0.9929275101883126, 
        0.9927031074568438, 
        0.9709685314271451, 
        -0.2524283583978415, 
        0.09024990635681197, 
        0.30519404849566084, 
        0.44343677986371327, 
        0.21199224441557138, 
        -0.0136467196619683, 
        -0.021332430146413513, 
        -0.4022689622953542, 
        -0.8302396415486138, 
        -1.029633134117442, 
        0.40696025567621197, 
        0.023805677064730437, 
        0.026353541936067246, 
        0.22351242310262803, 
        -0.2401540657847161, 
        0.46646289712348443, 
        -0.05465077634316257, 
        0.19023356073798883, 
        0.1996132629948511, 
        0.005456650537773603, 
        0.14372891187441542, 
        -0.1962302488729928, 
        0.8780340342506114, 
        0.03090724629729088, 
        -0.5686811945965816, 
        -0.35522689340808106, 
        0.15178929554156115, 
        -0.027579000947464977, 
        0.6178341839002153, 
        -0.2900452967182404, 
        0.01611798059793615, 
        -0.10054556198463929, 
        -0.3201708388194247, 
        -0.018947756507650383, 
        -0.49983811834177244, 
        0.2637106129628593, 
        -1.3930047293371357, 
        0.642532307512076, 
        0.09156628175870477, 
        -0.008778436280060782, 
        0.21712515808603794, 
        0.32604711403126413, 
        -0.24914958251797906, 
        -0.24078189546095716, 
        -0.17177789195574591, 
        -0.49862704573655875, 
        0.09010389087666026, 
        -0.22101653357727774, 
        0.49782783024599714, 
        -0.17903318224433648, 
        0.41473787535200834, 
        0.2809722995396128, 
        0.061596790796913437, 
        0.20030329676145708, 
        0.6019050603043815
      ]
    }, 
    {
      "activation": "rectified", 
      "architecture": "dense", 
      "bias": [], 
      "weights": []
    }, 
    {
      "activation": "linear", 
      "architecture": "dense", 
      "bias": [
        0.4120559357566024, 
        0.32126489783611273, 
        0.43191985938542227
      ], 
      "weights": [
        -0.7165144865285414, 
        -0.6203817558703106, 
        0.34374970640467695, 
        0.5936902619571945, 
        -1.0050605978503848, 
        1.1328271126939633, 
        0.2693880038340655, 
        0.46196803962636007, 
        -0.24780405911452208, 
        -0.30282267062625884, 
        -0.32595041574576133, 
        0.34794796918274723, 
        -0.29575644015993635, 
        -0.34720559588728467, 
        0.1100768389242484, 
        -1.5094300159364342, 
        0.5178575486268905, 
        1.0527627924148533, 
        0.2348566531443526, 
        -0.6582667591043916, 
        0.8917406184458595, 
        -0.17451328495754687, 
        -0.7500296351444177, 
        -0.44624588422986916, 
        0.20602999825251392, 
        -0.4380891478456373, 
        -1.076597774264493, 
        -0.4423237743239034, 
        -0.5503955515958392, 
        0.5158635512733097
      ]
    }, 
    {
      "activation": "softmax", 
      "architecture": "dense", 
      "bias": [], 
      "weights": []
    }
  ], 
  "miscellaneous": {
    "scikit-learn": "0.18.1"
  }, 
  "outputs": [
    "Wjets", 
    "ttbar", 
    "Bprime"
  ]
}