{
  "defaults": {}, 
  "inputs": [
    {
      "name": "corr_met_MultiLepCalc", 
      "offset": -159.91346043570985, 
      "scale": 0.00829066975035843
    }, 
    {
      "name": "AK4HTpMETpLepPt", 
      "offset": -1561.3242659201999, 
      "scale": 0.0018907446157827594
    }, 
    {
      "name": "AK4HT", 
      "offset": -1254.8283574003462, 
      "scale": 0.0022674882638636603
    }, 
    {
      "name": "NJets_JetSubCalc", 
      "offset": -5.575550904991467, 
      "scale": 0.585184274899861
    }, 
    {
      "name": "NJetsAK8_JetSubCalc", 
      "offset": -3.0891164343460766, 
      "scale": 3.194115880773395
    }, 
    {
      "name": "minDR_leadAK8otherAK8", 
      "offset": -2.1263609648791078, 
      "scale": 1.5298393444158636
    }, 
    {
      "name": "nH_DeepAK8", 
      "offset": -0.5740809945563486, 
      "scale": 1.499894408998383
    }, 
    {
      "name": "nT_DeepAK8", 
      "offset": -0.24528196120931275, 
      "scale": 2.099747735948823
    }, 
    {
      "name": "jetPt_1", 
      "offset": -518.3137445292422, 
      "scale": 0.004654074657397971
    }, 
    {
      "name": "jetPt_2", 
      "offset": -366.3074963414717, 
      "scale": 0.00704950767578721
    }, 
    {
      "name": "jetPt_3", 
      "offset": -270.8396633975075, 
      "scale": 0.012772676479614739
    }, 
    {
      "name": "sdMass_1", 
      "offset": -77.80636847900337, 
      "scale": 0.013635556186252519
    }, 
    {
      "name": "sdMass_2", 
      "offset": -70.97678299542724, 
      "scale": 0.01607605531286448
    }, 
    {
      "name": "sdMass_3", 
      "offset": -54.5668292811947, 
      "scale": 0.02018999278665958
    }, 
    {
      "name": "dnnLargest_1", 
      "offset": -1.5659902587291503, 
      "scale": 0.5874860494756712
    }, 
    {
      "name": "dnnLargest_2", 
      "offset": -1.7828020479091147, 
      "scale": 0.578727728013338
    }, 
    {
      "name": "dnnLargest_3", 
      "offset": -1.7199322346375674, 
      "scale": 0.5608442452121456
    }, 
    {
      "name": "dnnJ_1", 
      "offset": -0.36319910407645745, 
      "scale": 2.5815674377087148
    }, 
    {
      "name": "dnnJ_2", 
      "offset": -0.32237733778101507, 
      "scale": 2.621418076656162
    }, 
    {
      "name": "dnnJ_3", 
      "offset": -0.36150130082842613, 
      "scale": 2.566198414481851
    }, 
    {
      "name": "dnnH_2", 
      "offset": -0.1551159655618802, 
      "scale": 4.176598712510386
    }, 
    {
      "name": "dnnH_3", 
      "offset": -0.1496348801171781, 
      "scale": 4.494293938542634
    }, 
    {
      "name": "dnnT_1", 
      "offset": -0.1029359053228132, 
      "scale": 3.911700689781381
    }
  ], 
  "layers": [
    {
      "activation": "linear", 
      "architecture": "dense", 
      "bias": [
        0.8230521183369783, 
        -0.1329368785134619, 
        0.540289256598112, 
        -0.02913936386421801, 
        -0.07953823974567305, 
        0.1933894047654084, 
        0.6266927215918431, 
        0.25426945835378634, 
        0.41771201078578885, 
        0.24637527764340877
      ], 
      "weights": [
        -0.14804272999388768, 
        1.3598683971284393, 
        -0.490296473807798, 
        -0.01623367611579641, 
        0.06658306695273217, 
        -0.033150033250545836, 
        -0.015892558002849486, 
        -0.06618158604798083, 
        0.13599758886377317, 
        0.31163062490152954, 
        0.02672218589507033, 
        0.03484268362522661, 
        -0.10284659662669185, 
        -0.2362183881865416, 
        -0.012688663966598852, 
        0.045536819698683326, 
        0.14764950981261254, 
        -0.5260661710511826, 
        -0.3087533783916532, 
        -0.19643857555366526, 
        -0.1585001681095632, 
        -0.2425613554599764, 
        0.0832959637580073, 
        -0.048370304399078724, 
        -0.1605169986348441, 
        -0.03528731454580304, 
        0.20191764948206609, 
        0.016617666535626963, 
        -0.07709358057925492, 
        -0.057020561188629595, 
        0.004703613109111059, 
        -0.14596217671163927, 
        -0.03608231055303325, 
        -0.006001954815575198, 
        -0.12683439297199967, 
        -0.10385539647444479, 
        -0.11931947462604922, 
        -0.16517329269854922, 
        0.14642275578888095, 
        -0.12337919803295637, 
        -0.4759814805519988, 
        1.0217268446896963, 
        -0.3310560749129959, 
        -0.23422427969413986, 
        0.014153164839296581, 
        -0.03191359170170482, 
        -0.1932648285826918, 
        -0.8500433415494486, 
        -0.03386685336059155, 
        0.0032822317032369978, 
        0.14861654414615613, 
        -0.14798241390449463, 
        0.018476240385521692, 
        -0.07677251159843627, 
        0.2736633520916676, 
        -0.1610291962173252, 
        -0.2353839755446056, 
        -0.00021004018487332361, 
        0.10381792657675357, 
        0.11022423956793681, 
        -0.10650815432905583, 
        -0.08026294503626386, 
        0.07603564214183155, 
        -0.42859209330847586, 
        -0.6704299178947055, 
        -0.6360007171580918, 
        -0.03461994756516639, 
        -0.06670444547449214, 
        0.18130770421747028, 
        -0.07267666106075436, 
        0.007674067040257067, 
        -0.19271761065927742, 
        0.2416356974948086, 
        0.13960954434528233, 
        -0.11240418654172378, 
        -0.06873851952263421, 
        -0.127461312842575, 
        -0.1096102111754066, 
        -0.02224115647081602, 
        -0.036352426014174405, 
        -0.15604847620470386, 
        -0.11117602390806651, 
        -0.031062495945719876, 
        -0.12809926650698714, 
        -0.15965544400722467, 
        0.08668072597523353, 
        -0.49853194988259414, 
        -0.5648157318576263, 
        1.0364042639619717, 
        -0.022745006457766778, 
        -0.1478600002669993, 
        0.06223068367414088, 
        -0.09430830678780475, 
        0.4299060662009035, 
        -0.07157163624480507, 
        -0.17806666103089558, 
        0.1421610484650106, 
        -0.03565042076194079, 
        -0.010021258175854782, 
        -0.029207340873296895, 
        -0.01383548241474524, 
        0.32619915244953473, 
        0.33449078838205293, 
        0.07510055010901406, 
        0.20030491889790786, 
        0.3526268665816756, 
        -0.031414090332717116, 
        -0.002724914858763725, 
        -0.24368808313134704, 
        -0.946411157445755, 
        -0.8612115992486798, 
        -1.1596070331073163, 
        0.16280557328904063, 
        0.2846231502757668, 
        0.13228985854675274, 
        -0.08242986405053218, 
        0.33692752420287836, 
        0.8860037813856215, 
        -0.025949500280316985, 
        -0.013131422158446596, 
        -0.01162733764884707, 
        0.028508888816228924, 
        0.07058630047914553, 
        0.8302132149154926, 
        0.371258190739399, 
        0.09733234356052889, 
        -0.1630109056105291, 
        0.07288928505370837, 
        0.01703164225229641, 
        0.02748170780927026, 
        -0.08973896083830715, 
        -0.04110672525481659, 
        0.21725330786464375, 
        0.051493006703057204, 
        0.07075351720329257, 
        0.061385118056199256, 
        0.040399530503457605, 
        0.34266716874597625, 
        -0.12194785854516978, 
        -0.6784179558802718, 
        -0.4267402230277576, 
        -0.3539535969923317, 
        -0.9629555410252989, 
        -0.39525745074943525, 
        -0.06160769533910539, 
        -0.17314759516460165, 
        0.2923858767992309, 
        -0.011641078777928306, 
        -0.1359323169447169, 
        -0.00798065720821499, 
        0.27797816642806317, 
        0.30259048395582855, 
        -0.031050046901611183, 
        0.11198383431922286, 
        0.2104493043279112, 
        0.5226933894499997, 
        0.494858867828211, 
        0.4904930120894041, 
        -0.01698737802984606, 
        -0.013601143336708432, 
        -0.09335981339528603, 
        0.017675119521266127, 
        -0.1635361278853612, 
        0.10273875332501692, 
        0.20251350187179298, 
        0.3679365948875024, 
        0.0328016966461966, 
        0.02529123279677098, 
        -0.0530273399039216, 
        -0.19293415640163636, 
        0.08988037096385591, 
        0.014870073866460049, 
        -0.1253391492226665, 
        -0.03631315852954415, 
        -0.08602101727305954, 
        0.12686706349628232, 
        -0.042193104191782425, 
        -0.036389054087367374, 
        1.086418718341892, 
        -0.2782751241938456, 
        -0.2994290209239994, 
        -0.0963120436040857, 
        -0.07914295844065192, 
        -0.14962934832634642, 
        0.049350475277115544, 
        1.0454018362415503, 
        -0.562875502396017, 
        -0.30251030182412414, 
        0.05747704267572444, 
        -0.019499740890317575, 
        -0.0737797810481726, 
        -0.09207671372598196, 
        -0.3459410943628925, 
        0.1480801479287002, 
        0.13668780631787486, 
        -0.7321014919414426, 
        -0.26506386536561416, 
        -0.15656939234512426, 
        -0.09758547536633672, 
        0.03780722790056207, 
        0.029333180682850835, 
        -0.5520062475084169, 
        -0.11471211227305472, 
        -0.26868178246117475, 
        0.05495291567722871, 
        0.03385398317457711, 
        -1.1763012952845793, 
        -0.14411056672141961, 
        -1.0891232462195604, 
        0.5616407271691193, 
        -0.016585272914859978, 
        0.005691988668064445, 
        0.457942168649692, 
        0.05379821284171542, 
        0.026867817975069565, 
        -0.5157057233812029, 
        0.24168040030525723, 
        0.14618364110566734, 
        0.07372907743757923, 
        0.07693695181957082, 
        0.03961729494983461, 
        -0.027539892932514475, 
        0.0334395699259936, 
        0.025727980609260417, 
        0.15144871197507875, 
        0.2642148677922953, 
        0.20085675568742214, 
        -0.03067495346551672, 
        0.06393677198706092, 
        0.056353818295039194
      ]
    }, 
    {
      "activation": "rectified", 
      "architecture": "dense", 
      "bias": [], 
      "weights": []
    }, 
    {
      "activation": "linear", 
      "architecture": "dense", 
      "bias": [
        0.21059990330775338, 
        0.5657259969464759, 
        -0.5104977491714053, 
        1.061917054628701, 
        -0.04438117208980053, 
        -0.17760208799937777, 
        0.029125824687535867, 
        -0.3057162023139861, 
        0.7159847818939326, 
        -0.1582103673602421
      ], 
      "weights": [
        0.7319442832611787, 
        0.021773617015758414, 
        -0.3614485920442158, 
        -0.04057126940687948, 
        0.32702231256511044, 
        0.6648441434615034, 
        0.12985430864126488, 
        0.08937959020503114, 
        -0.522100502739247, 
        -0.025683306410249462, 
        -0.21113508190964878, 
        -0.5935911122404561, 
        -0.29227060034798924, 
        -0.5427509293327749, 
        -0.45479165487991746, 
        0.16241039925868692, 
        0.419012170816511, 
        -0.6188615632917449, 
        0.5277290268123899, 
        0.2680104450341756, 
        -0.05737841366000532, 
        0.549368147489829, 
        0.5334373126529087, 
        0.6391783857753857, 
        0.06590036276725736, 
        -0.28095321402898626, 
        -0.05836419405561834, 
        0.3965031367100125, 
        -0.13090051973802874, 
        0.23757533827306793, 
        0.028947680721322436, 
        -0.49924965712234404, 
        -0.3763134860564167, 
        -0.20915441178570496, 
        -0.0203941510037676, 
        -0.7037391294367487, 
        0.8055720404517003, 
        -0.6122897202415639, 
        0.12034318603181192, 
        0.5830426476356335, 
        -0.32006847418470846, 
        0.07430451817485607, 
        -0.12225500023602089, 
        -0.005128590055290378, 
        -0.1919647424459287, 
        -0.18847735152176445, 
        -0.32786213787044344, 
        -0.1983236956883768, 
        -0.16397780439966048, 
        0.7007802816417847, 
        0.6689159157072997, 
        0.2141165589367879, 
        -0.4280733116033882, 
        0.06942470855496381, 
        -0.2271068910022908, 
        -0.20737701361072367, 
        -0.48627366809272604, 
        0.09429314376073034, 
        0.5648783907505917, 
        -1.0619702741490202, 
        0.8020650274039237, 
        -0.18117166782056768, 
        -0.10533320531741469, 
        -0.24033379431179258, 
        0.019607640545178762, 
        -0.3939632819026096, 
        0.567419963563841, 
        -0.1893687473926879, 
        -0.6536343818824186, 
        0.15537453855980748, 
        0.29318087030638335, 
        0.03064571308826104, 
        0.5142877324884374, 
        0.5588458433933337, 
        0.7603147488095244, 
        -0.24265911148295385, 
        -0.35293500694270824, 
        0.3353162839498377, 
        0.6265503207219797, 
        -0.044471784888176616, 
        -0.6444009232997965, 
        -0.21987494413674413, 
        0.6670230388122693, 
        0.05548450964239235, 
        -0.14092421517942683, 
        0.24882246938243577, 
        0.31441359991268825, 
        -0.19880293827902062, 
        -0.5738418593225689, 
        0.3970152098295243, 
        0.011166504233779516, 
        0.7079259066540476, 
        0.34864135344647706, 
        0.3908480945296039, 
        -0.20876102087090234, 
        0.7070728737361017, 
        -0.2763361910860882, 
        0.6071906734231768, 
        0.19627717316713134, 
        0.23826794761009393
      ]
    }, 
    {
      "activation": "rectified", 
      "architecture": "dense", 
      "bias": [], 
      "weights": []
    }, 
    {
      "activation": "linear", 
      "architecture": "dense", 
      "bias": [
        0.3498704428184385, 
        0.3427511397737222, 
        -0.811202984399963
      ], 
      "weights": [
        -0.9953572584935783, 
        0.23711229100982867, 
        -0.8257215787589408, 
        0.303100528438705, 
        0.6697745243717048, 
        -0.6807948434408669, 
        -0.004206544612700814, 
        -0.9642924474372878, 
        0.7431983400937222, 
        -1.0266584643952408, 
        0.0519194290886156, 
        -0.8018349162365558, 
        0.37269164258426385, 
        -0.76284173410398, 
        -0.290552419352772, 
        -0.37937477130162384, 
        -0.980773457612257, 
        -0.5848580429303938, 
        0.5311880993739715, 
        -0.2571944008426559, 
        0.18552412772477098, 
        0.34408814069989463, 
        -0.6318177017809332, 
        -1.1575885534727868, 
        -0.2664292495038945, 
        0.7004513585135852, 
        -0.04001115584012654, 
        0.18592290909818257, 
        -0.65872896614763, 
        -0.7402700460332425
      ]
    }, 
    {
      "activation": "softmax", 
      "architecture": "dense", 
      "bias": [], 
      "weights": []
    }
  ], 
  "miscellaneous": {
    "scikit-learn": "0.18.1"
  }, 
  "outputs": [
    "WjetsBB", 
    "ttbarBB", 
    "Bprime"
  ]
}