{
  "defaults": {}, 
  "inputs": [
    {
      "name": "dnnJ_1", 
      "offset": -0.3347277613598443, 
      "scale": 2.6949000429509096
    }, 
    {
      "name": "dnnJ_2", 
      "offset": -0.29566618599940314, 
      "scale": 2.758601201818941
    }, 
    {
      "name": "dnnJ_3", 
      "offset": -0.33264512451695893, 
      "scale": 2.6872348584730203
    }, 
    {
      "name": "jetPt_1", 
      "offset": -528.539782971676, 
      "scale": 0.004642138018077789
    }, 
    {
      "name": "tau21_3", 
      "offset": -0.5043127041675692, 
      "scale": 4.235337133372563
    }, 
    {
      "name": "AK4HT", 
      "offset": -1279.204539248942, 
      "scale": 0.0022835376737986427
    }, 
    {
      "name": "t_mass", 
      "offset": -66.11931093260837, 
      "scale": 0.002486936154377821
    }, 
    {
      "name": "t_dRWb", 
      "offset": -101.69114905372653, 
      "scale": 0.003322831767971896
    }, 
    {
      "name": "AK4HTpMETpLepPt", 
      "offset": -1588.3996157251831, 
      "scale": 0.001922102831227663
    }, 
    {
      "name": "NJets_JetSubCalc", 
      "offset": -5.760977234547877, 
      "scale": 0.5674053836616346
    }, 
    {
      "name": "NJetsDeepFlavwithSF_JetSubCalc", 
      "offset": -1.3708557801849814, 
      "scale": 0.8310307279628621
    }, 
    {
      "name": "minDR_leadAK8otherAK8", 
      "offset": -2.122035925134422, 
      "scale": 1.5326396721657174
    }
  ], 
  "layers": [
    {
      "activation": "linear", 
      "architecture": "dense", 
      "bias": [
        0.3570871577986705, 
        0.5216888889607103, 
        0.16410259967205848, 
        0.8431416306665335, 
        1.010794883580147, 
        -0.05927593163107141, 
        -0.47422150107785815, 
        1.0956295697270155, 
        -0.15154119599161228, 
        0.08198860880641322
      ], 
      "weights": [
        0.5595848715683465, 
        0.01116901306569518, 
        -0.0554243722413849, 
        -0.21091356843485692, 
        0.07828209287491439, 
        0.06206980862852124, 
        0.45840591055114527, 
        -0.7489421832278855, 
        -0.2549384803322814, 
        -0.38026795882653536, 
        -0.7869905039241555, 
        0.06550871800050291, 
        0.030064069695704018, 
        0.26244809691009846, 
        0.24022702328439421, 
        0.2865763160940147, 
        -0.07859069154055551, 
        -0.090418198487834, 
        -0.1616956593761549, 
        -0.7915312333059307, 
        -0.40163820174592374, 
        0.356302405312363, 
        0.006759997430805541, 
        0.17835134062089736, 
        0.1859789515331383, 
        0.0732698960738563, 
        0.14677472609144496, 
        -0.1358792267782909, 
        0.02061145945441229, 
        0.12598191512968895, 
        -0.052194937417279506, 
        1.390515286722726, 
        -0.12662616624193482, 
        -0.7926141807896697, 
        -0.09230832267016928, 
        -0.004487122160344264, 
        0.10627377704166979, 
        -0.35387142145379885, 
        -0.2365272318035993, 
        -0.3917538929848036, 
        -0.02413628257592591, 
        0.09703681320426964, 
        0.07240514830301668, 
        0.436219454494759, 
        0.6252473677830647, 
        0.18239751994325093, 
        0.26075368112981523, 
        0.23309692605742358, 
        0.7301706978165108, 
        0.10586999097752306, 
        0.2638808185005552, 
        0.3659976540169886, 
        -0.17935596801109235, 
        -0.09752504238624812, 
        0.05648411771653976, 
        -0.09308032364601769, 
        -0.14606499374336565, 
        0.22243026063539825, 
        -0.17296262415939437, 
        -0.02454031082357029, 
        0.09564757189818844, 
        0.1379517362693378, 
        -0.027544565019837746, 
        -0.3468803725479945, 
        0.07994546501333924, 
        0.5513074004960825, 
        0.15591616482487164, 
        0.10699685825384864, 
        -0.09392814512998762, 
        0.014871188925629135, 
        -0.056430795957669456, 
        0.9117083496710112, 
        0.27034222348162884, 
        -0.8259748656935844, 
        0.14637653957492994, 
        0.2794415723218706, 
        -0.05281776215335389, 
        -0.05356021115411066, 
        -0.8013163180092064, 
        -0.5845061265677836, 
        -0.20614808546537736, 
        -0.21266442568585622, 
        -0.07850343867100795, 
        0.06776889010384697, 
        0.5085629117015803, 
        -0.014550468088005355, 
        0.03571533074891246, 
        -0.027231574647604884, 
        -0.08730409123166817, 
        0.16350402805326236, 
        -0.2695998960660775, 
        -0.3970085682362613, 
        -1.644488201839986, 
        0.17733693483823607, 
        -0.07975523812806475, 
        -0.049218622123383626, 
        -0.3208463836889463, 
        0.08763104357454456, 
        0.16601756063229564, 
        0.23820686753313927, 
        -0.09822642803299876, 
        -0.2756870235622034, 
        0.4835565806208823, 
        -0.06286798694546086, 
        -0.6420492126554633, 
        -0.11414378351737531, 
        -0.757588212666289, 
        0.10318581972700439, 
        0.31145690404669274, 
        -0.05475067797969064, 
        0.2939168626914848, 
        0.4212989883514768, 
        -0.19410956866143494, 
        -0.06276645557624252, 
        -0.03909265791288223, 
        0.3112262368896488, 
        -0.18821001416005376, 
        -0.032458495823156276, 
        -1.3837018857121373, 
        -0.09329381378415207
      ]
    }, 
    {
      "activation": "rectified", 
      "architecture": "dense", 
      "bias": [], 
      "weights": []
    }, 
    {
      "activation": "linear", 
      "architecture": "dense", 
      "bias": [
        0.22399542232565853, 
        0.7606184405894391, 
        0.1946284140757187, 
        0.3326119675242407, 
        0.013304136894906306, 
        0.3684832212782117, 
        0.08751184279104643, 
        -0.11393914003339943, 
        0.762303594991319, 
        0.5259474244730353
      ], 
      "weights": [
        -0.08158504243648894, 
        0.1482777044960715, 
        0.3430312049556817, 
        -0.16161340019685158, 
        0.6598243471506582, 
        0.7428848432374496, 
        0.4877188183056011, 
        0.7462934051666845, 
        -0.02118238620841295, 
        0.6572892580602527, 
        -0.3679045825431488, 
        0.1189715881207301, 
        -0.08566784426063759, 
        0.03513520375513665, 
        -0.5354954834962804, 
        -0.20234793864132122, 
        -0.04277258308080142, 
        -0.3746003596916105, 
        0.5937928001072452, 
        0.12699184712884476, 
        0.3662347434425665, 
        -0.18367059886850176, 
        0.4655260927265794, 
        0.6865966559280797, 
        -0.46060918672190326, 
        -0.2703265022290259, 
        -0.14502261059188223, 
        -0.21492141616036667, 
        -0.27414719184042036, 
        -0.009167432105936705, 
        -0.026241476456194283, 
        -0.007843153564516663, 
        0.9361429731836917, 
        0.44469708563637506, 
        -0.011124026819914454, 
        -0.26309795461522073, 
        -0.5337316124646554, 
        -0.10356972638385979, 
        0.19375911691215736, 
        0.9099408100151118, 
        -0.07758224717237958, 
        0.5171747869611723, 
        -0.6325408740759932, 
        0.5925585491946919, 
        0.35214170335630296, 
        -0.512536369793735, 
        0.5036705303786142, 
        -0.4899106656958281, 
        -0.4101286361557483, 
        -0.2676396615389709, 
        -0.16060742812336418, 
        0.24679321640677687, 
        -0.08630271585088078, 
        0.7590611689143748, 
        -0.02741299364126838, 
        0.0917406928001504, 
        0.4627854540960934, 
        0.6260472029306909, 
        -0.5396161418041266, 
        -0.06376205814709493, 
        -0.2818111057690704, 
        0.16284674850632957, 
        -0.023555826819037666, 
        -0.9773317846644024, 
        0.20546739876197495, 
        0.3172306389987235, 
        -0.2199371047366879, 
        0.3173376934911659, 
        -0.49987669890803493, 
        -0.042947819704787615, 
        0.15330942994977564, 
        0.2808394696749616, 
        0.2644857179213074, 
        -0.47803151119266957, 
        -0.4730399979742852, 
        -0.07106428413576486, 
        -0.12942228820433377, 
        0.9715312558602567, 
        0.3409445578498642, 
        -0.16016535073985394, 
        -0.655370238533511, 
        0.32728233227775516, 
        0.1166781943495331, 
        -0.48245959248217474, 
        -0.6542428569755881, 
        -0.16894271791327697, 
        0.7911867041582222, 
        0.14853650142170827, 
        0.29600868636967104, 
        0.10441867037224019, 
        -0.035613681349274735, 
        0.2215652065832692, 
        -0.10231519611802022, 
        0.806694912847746, 
        0.1364762517678114, 
        -0.5246114593426949, 
        0.6042362565137591, 
        0.3684460532576296, 
        -0.21756060520042214, 
        -0.302881613846764
      ]
    }, 
    {
      "activation": "rectified", 
      "architecture": "dense", 
      "bias": [], 
      "weights": []
    }, 
    {
      "activation": "linear", 
      "architecture": "dense", 
      "bias": [
        0.12291879426981812, 
        -0.23647750169676526, 
        0.6229375515922793
      ], 
      "weights": [
        0.5780682366971599, 
        -2.0178290476619845, 
        0.016123508933001365, 
        0.08371545054554445, 
        -0.5339932882065177, 
        -0.30300874170622355, 
        -0.8808972218854351, 
        0.7030229300315983, 
        -0.672752989679035, 
        -0.8538399756579546, 
        0.2626134568373785, 
        0.3442047855345898, 
        -0.7466486262865646, 
        -0.8187402113985337, 
        0.5259568642354319, 
        0.6774408379053712, 
        0.22191560598020935, 
        0.19541778617498967, 
        0.9514588652485614, 
        0.08258618114826952, 
        -0.6740539479273999, 
        0.6834690143961191, 
        0.5664551453855051, 
        0.18693419692576232, 
        0.1980236560135321, 
        0.5450232037835164, 
        0.5066925759594789, 
        -0.684814178699437, 
        -0.30558162262695754, 
        0.03453910113468119
      ]
    }, 
    {
      "activation": "softmax", 
      "architecture": "dense", 
      "bias": [], 
      "weights": []
    }
  ], 
  "miscellaneous": {
    "scikit-learn": "0.18.1"
  }, 
  "outputs": [
    "Wjets", 
    "ttbar", 
    "Tprime"
  ]
}