{
  "defaults": {}, 
  "inputs": [
    {
      "name": "dnnJ_1", 
      "offset": -0.33578378686867444, 
      "scale": 2.69484837645522
    }, 
    {
      "name": "dnnJ_2", 
      "offset": -0.3013990113205633, 
      "scale": 2.7429819654090632
    }, 
    {
      "name": "jetPt_1", 
      "offset": -0.33925105532511013, 
      "scale": 2.6697501668674577
    }, 
    {
      "name": "sdMass_3", 
      "offset": -82.2925106055047, 
      "scale": 0.01355571499035782
    }, 
    {
      "name": "AK4HT", 
      "offset": -0.5113193239902499, 
      "scale": 4.246652740428883
    }, 
    {
      "name": "t_pt", 
      "offset": -1279.2492049549976, 
      "scale": 0.0022718136890598345
    }, 
    {
      "name": "t_dRWb", 
      "offset": -40.729188273382626, 
      "scale": 0.0023337465214725013
    }, 
    {
      "name": "AK4HTpMETpLepPt", 
      "offset": -123.18942829385426, 
      "scale": 0.00305399796382592
    }, 
    {
      "name": "corr_met_MultiLepCalc", 
      "offset": -1594.794052005201, 
      "scale": 0.0018945474231614368
    }, 
    {
      "name": "NJets_JetSubCalc", 
      "offset": -165.74745369982017, 
      "scale": 0.007939940727203013
    }, 
    {
      "name": "NJetsDeepFlavwithSF_JetSubCalc", 
      "offset": -5.718136039908386, 
      "scale": 0.5651936593074673
    }, 
    {
      "name": "NJetsAK8_JetSubCalc", 
      "offset": -1.3646424873717566, 
      "scale": 0.8316249510432026
    }, 
    {
      "name": "minDR_leadAK8otherAK8", 
      "offset": -3.096087597653186, 
      "scale": 3.089134371019187
    }
  ], 
  "layers": [
    {
      "activation": "linear", 
      "architecture": "dense", 
      "bias": [
        0.5482637602042029, 
        0.8470535590043274, 
        0.2684614240613499, 
        -0.18690752345572675, 
        0.4771449439066842, 
        0.4574279702754346, 
        0.6178809950611289, 
        0.4933729395825686, 
        0.7714745231441831, 
        0.5683342367470307
      ], 
      "weights": [
        -0.4327500998776848, 
        -0.1249347176117035, 
        -0.23976256955374117, 
        -0.6569228863824162, 
        0.14631052396535132, 
        0.20041536700978158, 
        0.022336160253705044, 
        0.42517096644404223, 
        0.26453885935684995, 
        0.2742196592862599, 
        0.09317359602961017, 
        0.1097358344692688, 
        0.11183666675595648, 
        -0.09598906969583561, 
        -0.17268369263459202, 
        0.13192082196313606, 
        0.14679140518838799, 
        -0.09267556451284249, 
        -0.08901122285761104, 
        0.12433010387828308, 
        -0.3157028850074823, 
        -0.9221968734844234, 
        -0.2790687813944556, 
        0.07095896031819422, 
        -0.12595771696299563, 
        0.48733314434975383, 
        -0.09161982342949239, 
        -0.33815268081792915, 
        -0.016470681802217505, 
        -0.4608753581393079, 
        -0.40491585596962565, 
        0.10444791735121799, 
        -0.011330913484434752, 
        -0.272234643899076, 
        0.056461795947022594, 
        0.7821391621807335, 
        0.6403175106613661, 
        -0.034416296760151455, 
        0.035003727595530075, 
        0.4730693733963709, 
        0.6745896170470403, 
        0.2288000538055096, 
        0.26179155517302766, 
        0.08238647346519014, 
        0.08085227200373639, 
        -0.12548722116404865, 
        -0.10470575604576082, 
        0.38004819021405056, 
        -0.5853854616037683, 
        -0.45642142431071686, 
        0.5240813973951165, 
        0.13844790231170867, 
        -0.018646847724681212, 
        0.03174504690960375, 
        -0.006143304106149793, 
        0.8407196000183508, 
        -1.0231337147301567, 
        -0.0012475707961564924, 
        0.015823105316638622, 
        0.42474877101987024, 
        -0.0820153380996153, 
        0.33635244365844646, 
        -0.6975845618888339, 
        1.1044282240113676, 
        -0.2532345426587821, 
        0.07678879126256284, 
        0.18361287310986957, 
        0.09060368887175985, 
        -0.11849696558513029, 
        -0.06369811534542281, 
        0.36108852531815355, 
        0.11889048951602782, 
        0.17928246223066302, 
        0.03819285201231493, 
        -0.0597532259314281, 
        0.1449533886266238, 
        0.3407038651230438, 
        0.02561174430504952, 
        -0.12524293781154874, 
        -0.07315680407793587, 
        -0.5099694478137423, 
        -0.7924853163532054, 
        0.26865421803498, 
        0.04869640856008745, 
        0.12232310292897491, 
        0.007782100855892996, 
        -0.039612035968399455, 
        -0.01070976830489235, 
        -0.016079568159938037, 
        -0.04141939029923926, 
        -0.24862875102045012, 
        -0.2304464655685012, 
        -1.1936032426823378, 
        -0.22647549346389353, 
        0.24270242784090487, 
        0.02444602249017893, 
        -0.031238462030166097, 
        0.16543474358103316, 
        0.17322867046111617, 
        -0.04676568169176818, 
        0.20489362346967363, 
        0.04900186288538942, 
        -0.34134942163518794, 
        -0.17973799719641195, 
        -0.20112936443306947, 
        1.3943207616381437, 
        0.24756022087279503, 
        0.04012728186008114, 
        0.09305261975163838, 
        -0.4437267708816958, 
        0.1307635928252585, 
        -0.5667003553616364, 
        0.6494144148206265, 
        -0.10841128722175411, 
        -0.06671790478701162, 
        -0.1381820518760669, 
        -0.008296280265548031, 
        -0.18189943468678532, 
        -0.48386260579449314, 
        -0.5279657126710224, 
        0.281539115176303, 
        -0.020279779949374348, 
        0.24428010583000642, 
        0.18980026852081017, 
        1.1386771692359208, 
        0.06218575323241717, 
        -0.4169343867034527, 
        -0.1722770892095683, 
        -0.1522733291023411, 
        -0.14564066685907542, 
        0.02005660522060455, 
        0.11234736642114654, 
        0.42694516392636556, 
        -0.9809544556336061, 
        0.4880146930688404, 
        -0.04104365379778206, 
        -0.037756438735261834, 
        0.2688772533507307, 
        -0.151177941552295, 
        0.11732896269558084
      ]
    }, 
    {
      "activation": "rectified", 
      "architecture": "dense", 
      "bias": [], 
      "weights": []
    }, 
    {
      "activation": "linear", 
      "architecture": "dense", 
      "bias": [
        -0.39629975925305183, 
        0.6252047188655259, 
        0.306274163910518, 
        0.12371539993923952, 
        0.2196070814023312, 
        0.36425368516140444, 
        0.3230787507056986, 
        0.6162662184148113, 
        -0.5173012136345752, 
        0.016851047155131246
      ], 
      "weights": [
        0.18830071657756428, 
        -0.47276178716896594, 
        0.28406052676409876, 
        0.5581710992454043, 
        -0.0982493069653256, 
        -0.11168817811117658, 
        0.41025029553406445, 
        -0.14007240533687149, 
        0.046576668760626466, 
        0.25486065993893275, 
        -0.5876654771950955, 
        0.34518524900944814, 
        -0.21090992416746568, 
        0.3779200670702191, 
        0.16482523941245072, 
        0.9723567284306737, 
        0.8539769535018779, 
        -0.05963160772109221, 
        -0.8844338212888284, 
        -0.6687738226883705, 
        -0.2949928684022507, 
        0.47615921841956266, 
        -0.4199057741788166, 
        0.05662587480629463, 
        0.5543159186405331, 
        -0.0384978577990352, 
        0.17274718543821946, 
        -0.7174340514879378, 
        0.6431438482080338, 
        0.30560793537936937, 
        0.43968996649499853, 
        -0.2321561568942516, 
        0.762275824487119, 
        -0.22455897723351848, 
        0.5709073798135222, 
        0.15490968509775316, 
        -0.4025169078653174, 
        -0.011785935472310764, 
        0.3255918271859403, 
        0.1848540126518025, 
        0.03974864440760163, 
        0.4845986638835313, 
        -0.2200388366686196, 
        0.11860884469108013, 
        0.25390772827195834, 
        -0.4433222166666943, 
        0.25840962702915443, 
        -0.030903873189849655, 
        0.26470240919258387, 
        -0.4528446280041233, 
        0.7188248753297197, 
        0.3384296804043296, 
        -0.3331998038961834, 
        -0.15825305302234705, 
        -0.3606543518126125, 
        0.7538767678905166, 
        -0.09811567799579733, 
        -0.2817926671434876, 
        -0.2033771335904555, 
        -0.6044586062671097, 
        0.25326535925049265, 
        -0.01118520496424061, 
        0.04925425820964288, 
        -0.8181456445915899, 
        -0.03349442532947584, 
        0.19054515380011308, 
        0.4464362817964367, 
        -0.0831445175962856, 
        0.3163518240669515, 
        -0.3837577500267279, 
        0.04102112641899685, 
        -0.8724418451811363, 
        0.04692806935714201, 
        0.08296773784425539, 
        0.3946214340880052, 
        0.2401242844648988, 
        0.022327528522445263, 
        0.6807224248634645, 
        -0.37418675429049686, 
        -0.21114616096536093, 
        0.17160025160295939, 
        0.34515590172850263, 
        -0.3669396352556484, 
        0.27159614115346375, 
        -0.812886947411471, 
        0.503350837571812, 
        -0.10854382047991525, 
        -0.3059127459506396, 
        -0.4062437793704804, 
        0.16402366277359656, 
        0.7046760706432904, 
        0.20281842442360412, 
        0.618031632779852, 
        -0.4903854785365502, 
        0.23058402745880396, 
        0.00027087103116491646, 
        -0.320002324144831, 
        -0.3843737559058985, 
        -0.06343740971725154, 
        0.24270993456848178
      ]
    }, 
    {
      "activation": "rectified", 
      "architecture": "dense", 
      "bias": [], 
      "weights": []
    }, 
    {
      "activation": "linear", 
      "architecture": "dense", 
      "bias": [
        -0.08447798965354512, 
        0.38681555946207136, 
        -0.4596102368629717
      ], 
      "weights": [
        0.2563260891081499, 
        0.4016294909206599, 
        -0.9190318753585095, 
        -0.6618215076325434, 
        -0.37676741668229535, 
        0.6106350186134677, 
        0.651550652876998, 
        0.590622284978668, 
        0.552371478998195, 
        -0.8063540252216002, 
        0.21342606796575964, 
        0.1867167727255893, 
        -0.05529385010880124, 
        0.09935523166522764, 
        0.6153493931522955, 
        -0.5745352844602946, 
        0.39868061868166743, 
        -1.1874774429368318, 
        -0.583590979969159, 
        -0.7657192770669929, 
        -0.5847720232262161, 
        -0.5846800515686367, 
        -0.240088129518473, 
        0.41739075141086934, 
        -0.45477546410742026, 
        -0.32388303396258167, 
        -0.20795032564889193, 
        -0.1489577552037438, 
        0.2704301915755219, 
        0.5324889285488844
      ]
    }, 
    {
      "activation": "softmax", 
      "architecture": "dense", 
      "bias": [], 
      "weights": []
    }
  ], 
  "miscellaneous": {
    "scikit-learn": "0.18.1"
  }, 
  "outputs": [
    "Wjets", 
    "ttbar", 
    "Tprime"
  ]
}