{
  "defaults": {}, 
  "inputs": [
    {
      "name": "dnnJ_1", 
      "offset": -0.33883384578116177, 
      "scale": 2.672044940727382
    }, 
    {
      "name": "dnnJ_2", 
      "offset": -0.3038078896774553, 
      "scale": 2.7198887877193125
    }, 
    {
      "name": "jetPt_3", 
      "offset": -271.85184514939135, 
      "scale": 0.012887372412209375
    }, 
    {
      "name": "sdMass_1", 
      "offset": -83.0452107182374, 
      "scale": 0.01350448316694149
    }, 
    {
      "name": "AK4HT", 
      "offset": -1275.4135636808803, 
      "scale": 0.002289751932864985
    }, 
    {
      "name": "t_mass", 
      "offset": -65.94063834657041, 
      "scale": 0.0024810699621975675
    }, 
    {
      "name": "t_dRWb", 
      "offset": -103.58570139855527, 
      "scale": 0.0032955815161263024
    }, 
    {
      "name": "AK4HTpMETpLepPt", 
      "offset": -1584.490205307259, 
      "scale": 0.0019274074328733046
    }, 
    {
      "name": "NJets_JetSubCalc", 
      "offset": -5.749731002995318, 
      "scale": 0.563895858398008
    }, 
    {
      "name": "NJetsDeepFlavwithSF_JetSubCalc", 
      "offset": -1.3617161524219423, 
      "scale": 0.82418334029551
    }, 
    {
      "name": "minDR_leadAK8otherAK8", 
      "offset": -2.122842879180243, 
      "scale": 1.537007304357912
    }
  ], 
  "layers": [
    {
      "activation": "linear", 
      "architecture": "dense", 
      "bias": [
        0.05425745169810616, 
        0.23726406206056827, 
        0.49180038375592183, 
        0.3754880269871322, 
        0.2821487659727394, 
        -0.2189339478922216, 
        0.6512462847167657, 
        0.42383645631465533, 
        0.028072395897603977, 
        0.6566931343232864
      ], 
      "weights": [
        0.21286860542419714, 
        0.04619614180938822, 
        -0.04343705842006102, 
        0.4705359486613077, 
        0.1399646497716257, 
        -0.020137930255043665, 
        0.6971141934353516, 
        -0.37040117122742006, 
        0.10897699332710248, 
        -0.525657766708143, 
        0.0899695285305985, 
        -0.5069494138086107, 
        -0.2865188418407064, 
        0.13680836379434053, 
        0.12294637868298675, 
        -0.1652472493822498, 
        0.3365970467063697, 
        -0.38856899668935985, 
        -0.08893841774402639, 
        0.0050823742233456004, 
        0.3944397619840865, 
        -0.24179673847365418, 
        -0.14650056690426655, 
        0.3771070420193478, 
        -0.16214821960266942, 
        -0.028959815488885918, 
        -0.1549951173478051, 
        -0.3170211569113388, 
        -0.25706075662288225, 
        -0.8099475439436779, 
        0.3045134491284963, 
        0.19684659586710473, 
        -0.21675736508653864, 
        0.14954215187653333, 
        -0.015426358286992809, 
        -0.1257566023057279, 
        0.03937586176738189, 
        0.12646681008505667, 
        -0.6240535819704032, 
        -0.6877514701385191, 
        -0.4295768044794791, 
        0.18529006564693712, 
        -0.07529225741788653, 
        0.3315225813871706, 
        -0.0048823500176385206, 
        -0.07214205046965486, 
        0.0042638123613881395, 
        0.11108338631316853, 
        0.1752031128274281, 
        0.2039937541047057, 
        0.04901825289523192, 
        -1.124615032634609, 
        -0.12965253411933633, 
        -0.10698901032112687, 
        -0.16040382030168338, 
        -0.8878409870464306, 
        0.27985182310751067, 
        -0.19055235198002027, 
        0.3239299002498946, 
        0.35606526029798846, 
        -0.6428756215253075, 
        -0.6872041582929894, 
        -0.010848730928343549, 
        -0.013863632881688724, 
        0.0490570607539838, 
        -0.04898999113336415, 
        -0.5091475006943957, 
        -0.21500351331392473, 
        0.13964360976637794, 
        -0.25048119583730344, 
        -0.4510724293985259, 
        0.22348587346531498, 
        0.745998886277018, 
        0.647580877891383, 
        0.0577932139366684, 
        0.31691071704626655, 
        0.10070310428453251, 
        -0.021332771849093227, 
        0.20873068397774022, 
        0.01954438488141534, 
        -0.2923176621907994, 
        0.12614782498286725, 
        0.09939704409462774, 
        0.6290284084639151, 
        0.036155757062338215, 
        -0.38433604650609987, 
        -0.7485385083063493, 
        -0.11279776214997321, 
        0.22457662104805934, 
        0.38483643065883977, 
        0.06707023893947771, 
        -0.05151895948340521, 
        0.3447648682291469, 
        -0.22198969261223836, 
        -0.2631155595245287, 
        0.11438603936399035, 
        -0.3118374992529042, 
        -0.05040033953031373, 
        1.0042001686884887, 
        0.5606667107369464, 
        -0.07662366991392747, 
        0.0769006172052147, 
        -0.10904158876028462, 
        0.31902481392094195, 
        -0.49389801789120247, 
        -0.6442786193209152, 
        -0.15280054249160224, 
        0.28466795008528833, 
        0.5632646494231465, 
        0.024320205844867514
      ]
    }, 
    {
      "activation": "rectified", 
      "architecture": "dense", 
      "bias": [], 
      "weights": []
    }, 
    {
      "activation": "linear", 
      "architecture": "dense", 
      "bias": [
        -0.3891626122830102, 
        -0.2792642789018424, 
        0.7040551881299392, 
        0.048189627395154866, 
        0.5630506319903984, 
        0.3070404114990189, 
        -0.02307722611841813, 
        -0.08424746122538843, 
        -0.1760129928196006, 
        0.4566184656187345
      ], 
      "weights": [
        0.5174329193126215, 
        0.35468256527513775, 
        0.1099223419857917, 
        -0.046167531889690985, 
        0.7214143910108916, 
        0.10890494642713996, 
        0.07906474012297389, 
        0.752006707497229, 
        0.7294727071432994, 
        0.16036838183704136, 
        0.0016542564520474544, 
        -0.10968125303888492, 
        -0.10185780533277189, 
        -0.32256900787195303, 
        -0.051998365640789704, 
        -0.3196254651876613, 
        0.13368259862540793, 
        -0.37711817526743646, 
        -0.4917644337988535, 
        -0.14139084819755532, 
        -0.2720827767099861, 
        0.13049719056317272, 
        -0.3133941482525278, 
        -0.5931870951878905, 
        -0.6210400008768473, 
        0.23067772673628262, 
        0.7444585728850794, 
        -0.21517961600251861, 
        -0.013833986794952558, 
        0.42983391233659296, 
        0.6606098676893656, 
        0.34545291052977073, 
        -0.14755647176553488, 
        -0.2404098913992702, 
        -0.2601541260621617, 
        0.11915927833818407, 
        0.5795278871770025, 
        0.7057453641844076, 
        -0.5046620807243589, 
        0.42321872767348, 
        0.18867361940109906, 
        -0.46240662024359014, 
        -0.3248289075902333, 
        0.1033152491494657, 
        0.5737392291904206, 
        -0.44652112181546777, 
        -0.7466580026205998, 
        0.5026375496715735, 
        0.011309692230610091, 
        -0.6251664069691283, 
        -0.10722337682076219, 
        -0.04073520702147699, 
        0.01692099520613482, 
        0.006732634962491281, 
        0.7370882282256999, 
        -0.019736738834795892, 
        -0.1864898419281015, 
        0.019243014483064213, 
        -0.41371094661009655, 
        0.08441994250098772, 
        -0.261025318179756, 
        0.22586542669759463, 
        0.5001489360509107, 
        -0.12556144901731198, 
        -0.11770072869815192, 
        0.2447241542034064, 
        -0.46010202456137733, 
        0.161178031561414, 
        0.046013190936288244, 
        -0.18915567018942966, 
        0.35082056999816597, 
        -0.2882452110077158, 
        0.24518090598363487, 
        0.6008712987549761, 
        0.8964985066663493, 
        -0.1872698211768147, 
        -0.1374822457047605, 
        0.06311318201018787, 
        -0.25222599711240556, 
        0.5421161330373273, 
        0.3679915757417033, 
        0.47261198191745385, 
        -0.06233542200264734, 
        -0.23812031878366874, 
        -0.10981861408613663, 
        0.5783095085493994, 
        0.4883054578643919, 
        0.007085252284629352, 
        -0.13746733902249397, 
        0.3910740616322645, 
        -0.5179619017541779, 
        0.5939053056185662, 
        -0.15201629990132898, 
        0.5245071337678056, 
        -0.12777654316624854, 
        0.6488406594104942, 
        0.1307753658618557, 
        -0.18833124895179368, 
        0.00659718092747338, 
        0.6086228596177586
      ]
    }, 
    {
      "activation": "rectified", 
      "architecture": "dense", 
      "bias": [], 
      "weights": []
    }, 
    {
      "activation": "linear", 
      "architecture": "dense", 
      "bias": [
        -0.26923219677906035, 
        -0.43108174626997464, 
        -0.5926461084386363
      ], 
      "weights": [
        0.32365642192025684, 
        0.2815463485055307, 
        -0.8449758825332255, 
        -0.18291695150890938, 
        0.8731751722918661, 
        0.24692057630082906, 
        -0.6509493141817775, 
        0.2872043565599998, 
        -0.7146579291463095, 
        -0.8776328178330645, 
        -0.39450989491105937, 
        0.3231155287535906, 
        -0.29922793096892364, 
        -0.8809525050109428, 
        -0.4538921350698277, 
        0.5893754956833117, 
        0.49189262862607136, 
        0.4671568013573708, 
        -0.527244888511568, 
        0.6268254851196429, 
        -0.6721636797847921, 
        0.0483771352628299, 
        0.1802557431125244, 
        0.488360623753645, 
        -0.4383786636892951, 
        -0.3306356267381257, 
        -0.5878819895567402, 
        -0.5909238064543362, 
        0.04696333101461542, 
        -0.1776905548352953
      ]
    }, 
    {
      "activation": "softmax", 
      "architecture": "dense", 
      "bias": [], 
      "weights": []
    }
  ], 
  "miscellaneous": {
    "scikit-learn": "0.18.1"
  }, 
  "outputs": [
    "Wjets", 
    "ttbar", 
    "Tprime"
  ]
}