{
  "defaults": {}, 
  "inputs": [
    {
      "name": "dnnJ_1", 
      "offset": -0.33310173014098854, 
      "scale": 2.7221068334808476
    }, 
    {
      "name": "dnnJ_2", 
      "offset": -0.30225862284641775, 
      "scale": 2.7549077206788906
    }, 
    {
      "name": "dnnJ_3", 
      "offset": -0.3288178484882076, 
      "scale": 2.7052210713537455
    }, 
    {
      "name": "sdMass_1", 
      "offset": -81.6150248750695, 
      "scale": 0.013579790802118732
    }, 
    {
      "name": "AK4HT", 
      "offset": -1252.5059533086417, 
      "scale": 0.002240004369988263
    }, 
    {
      "name": "t_mass", 
      "offset": -36.12610168787088, 
      "scale": 0.0023373484769363202
    }, 
    {
      "name": "t_dRWb", 
      "offset": -128.38193626781458, 
      "scale": 0.0029999415541409526
    }, 
    {
      "name": "AK4HTpMETpLepPt", 
      "offset": -1566.2653303911693, 
      "scale": 0.0018522861065567416
    }, 
    {
      "name": "NJets_JetSubCalc", 
      "offset": -5.630390965721148, 
      "scale": 0.5861375104547015
    }, 
    {
      "name": "NJetsDeepFlavwithSF_JetSubCalc", 
      "offset": -1.309570127325463, 
      "scale": 0.8883602617758445
    }, 
    {
      "name": "minDR_leadAK8otherAK8", 
      "offset": -2.1073696919457894, 
      "scale": 1.5486137323038116
    }
  ], 
  "layers": [
    {
      "activation": "linear", 
      "architecture": "dense", 
      "bias": [
        0.7830765326392379, 
        0.4782590191628401, 
        0.16736682438908235, 
        -0.41498127594736206, 
        0.08570587643289639, 
        0.11293043487678765, 
        0.3056781237555447, 
        -0.04896353748700188, 
        0.7769597210716824, 
        0.22396274075141023
      ], 
      "weights": [
        0.1934251365636329, 
        0.15341449885069616, 
        0.034785684415113295, 
        0.11826079301009079, 
        -0.022247002686206743, 
        -0.6758746361752125, 
        -0.7982763556155331, 
        -1.357483377051137, 
        0.2813307305918995, 
        0.13329056100237163, 
        -0.17269733925765865, 
        -0.825481154818617, 
        -0.00417742207704967, 
        0.07414779282644159, 
        0.30281129636179477, 
        -0.35368770116007947, 
        -0.33212350379525885, 
        -0.3270196219011082, 
        0.7483196513643124, 
        0.1227825509466425, 
        0.3013317829262279, 
        -0.007025747624932993, 
        -0.061254988031498835, 
        0.2450368473628526, 
        0.20791848699766374, 
        0.17143443749321302, 
        0.5899471976588416, 
        -0.06269429959796537, 
        0.08497289350269262, 
        -0.2467204000053877, 
        0.311989687203284, 
        0.06348948285198144, 
        0.731806522229756, 
        0.6174027374944854, 
        -0.4448064720332143, 
        -0.07691503742936599, 
        -0.23293944890163887, 
        0.32461475903517295, 
        -0.7820277593387215, 
        -0.7657958675884246, 
        0.023317567200062575, 
        0.06574898212231414, 
        0.10685468273178005, 
        0.2859572090502696, 
        -0.33335507958270777, 
        0.03869123803358935, 
        -0.0268952998050411, 
        -0.44958615992847784, 
        0.19624271475013283, 
        0.5239600384121663, 
        -0.4270455699875197, 
        0.02443867290869671, 
        0.044374161558211646, 
        -0.7468118523244291, 
        -0.15373900426150644, 
        -0.27865850331726516, 
        -0.47704106430060017, 
        -0.595263341199603, 
        -0.06950856835512895, 
        -0.03931077560619357, 
        -0.059034825086677845, 
        0.9372582330059236, 
        0.3613791570417197, 
        -0.0392909235453805, 
        0.011260863908879115, 
        -0.014553164337488947, 
        0.44536052760599154, 
        0.18070389144803467, 
        0.2003107778098625, 
        0.3160947356522904, 
        -0.48781203546701574, 
        0.19081367983420722, 
        0.3981767062557885, 
        -0.4275867529517212, 
        -0.2927206071638099, 
        -0.987660079336287, 
        -0.044257692073099666, 
        0.26505779283812597, 
        0.5144220030009808, 
        -0.10858103914787591, 
        0.08359003754856013, 
        0.5243391299780388, 
        0.18254034873183808, 
        0.12199772458107641, 
        0.16403033701869127, 
        -0.41828317190260744, 
        -0.7117905990104445, 
        -0.32562622096946425, 
        0.13792853853943016, 
        0.1399982379271538, 
        -0.11322245654787899, 
        -0.2360747146502169, 
        0.11257675068247239, 
        0.277516016026613, 
        0.01793110144632641, 
        0.24821105447694114, 
        0.31644805842117957, 
        0.7022837175826241, 
        -0.012978051750702747, 
        -0.3130873249722843, 
        -0.08172607751493023, 
        0.1539688801123948, 
        -0.31401186322137137, 
        0.3340206223761488, 
        -0.2784296810586324, 
        0.9342379481187041, 
        0.2065260057298577, 
        -0.46667674418110067, 
        0.48047734508334594, 
        -0.2645295331852273
      ]
    }, 
    {
      "activation": "rectified", 
      "architecture": "dense", 
      "bias": [], 
      "weights": []
    }, 
    {
      "activation": "linear", 
      "architecture": "dense", 
      "bias": [
        0.43831363857473915, 
        0.16377730714792976, 
        -0.09319755020229516, 
        0.507853614648984, 
        -0.16565557684592583, 
        -0.22345517495058934, 
        -0.25845839021887546, 
        0.29144261767476437, 
        -0.5326375401422567, 
        -0.4817285688809683
      ], 
      "weights": [
        0.605130409477248, 
        0.15272897663025134, 
        0.3706804390469009, 
        0.6777900775224206, 
        -0.47467406170541354, 
        -0.15849686688966758, 
        -0.07207062879742171, 
        0.21960645052678127, 
        0.02284666441078071, 
        -0.16381522911088908, 
        0.3281860326547957, 
        -0.41672531175955274, 
        0.5583684018611522, 
        -0.36952923703414814, 
        0.16110930896283665, 
        0.02913478225241972, 
        0.13091326550759852, 
        -0.2294088193921068, 
        0.07096580767761959, 
        -0.08174099233991304, 
        -0.3915368415281592, 
        -0.2849885674292463, 
        0.35912225998006797, 
        0.06097737152559101, 
        -0.26394257561405543, 
        0.4648275138535631, 
        0.7091920118103215, 
        0.5141232218066606, 
        -0.35623000334073274, 
        0.4229762684414749, 
        0.7771866784635869, 
        0.1817729752880401, 
        -0.5292622545452943, 
        0.11908325439564763, 
        -0.1793388352391612, 
        -0.32803959187895787, 
        0.5178885246441128, 
        -0.1180499849340724, 
        -0.5116097450399429, 
        0.14329023590084894, 
        -0.17676233177219647, 
        0.6335359629203544, 
        -0.24560711866449472, 
        -0.0008923803154414487, 
        0.12021562561150956, 
        0.5887413328699481, 
        0.1207846930137339, 
        -0.054362585176917645, 
        0.7403205228875037, 
        0.3080077047138804, 
        -0.05364360617310246, 
        -0.09445528622883849, 
        0.17293247964691932, 
        0.2569682040650307, 
        0.1954158603999968, 
        -0.21994580860496302, 
        -0.4961447350366736, 
        0.47670511030956775, 
        -0.08126236712831719, 
        0.39449109901371043, 
        0.26696472195120596, 
        -0.5033585502710026, 
        0.053846085902216186, 
        0.07209500427742765, 
        0.26268134250276914, 
        -0.36250616141257336, 
        0.741627362696953, 
        0.05373740365474973, 
        -0.08037363136179544, 
        0.21347294077219325, 
        0.8780776672403662, 
        0.299582069854441, 
        0.07403993033616262, 
        0.11115826377390219, 
        -0.6058494028202756, 
        0.1421566330306603, 
        -0.034964878981562794, 
        0.15948101296365594, 
        0.007553956652708088, 
        -0.38056447546169464, 
        -0.972803829292118, 
        -0.47898965492314133, 
        -0.1830904436686319, 
        0.012601197728810158, 
        0.15163202388372543, 
        0.010096985307694702, 
        -0.2093438587342674, 
        0.4423871817589753, 
        0.19865086923379602, 
        -0.11746165512142301, 
        0.06807884553034618, 
        0.4874231588933098, 
        0.2994300187936585, 
        -0.16619894293530604, 
        -0.05438101200688351, 
        0.6485817140424445, 
        -0.08110258027599274, 
        -0.03053358597563149, 
        -0.4277342271885041, 
        -1.0288015750067143
      ]
    }, 
    {
      "activation": "rectified", 
      "architecture": "dense", 
      "bias": [], 
      "weights": []
    }, 
    {
      "activation": "linear", 
      "architecture": "dense", 
      "bias": [
        0.045274296645337546, 
        -0.12131907532757798, 
        0.7294029988165666
      ], 
      "weights": [
        -0.6629460205225853, 
        0.814147529596379, 
        0.7466628012921988, 
        0.7009352338074755, 
        -0.7300005980770062, 
        0.5493069901089763, 
        0.15892274292316733, 
        -0.6369274282626427, 
        0.091158227962391, 
        -0.15872431781597424, 
        0.45606508822198605, 
        -0.1033912852013356, 
        -0.9003145414984047, 
        0.4258452705290493, 
        -0.04702693777784112, 
        -0.0795474499459949, 
        -0.24069288896715071, 
        -0.116271842198103, 
        -0.15008751616844507, 
        -0.5212846731458453, 
        -0.8919719230405858, 
        -0.707555199600871, 
        0.0929962564892543, 
        -0.530664996205997, 
        0.8588842701506365, 
        -0.38629166901585626, 
        -0.4174796924109313, 
        -0.6218645492404629, 
        0.23972308909169313, 
        0.7498915455979561
      ]
    }, 
    {
      "activation": "softmax", 
      "architecture": "dense", 
      "bias": [], 
      "weights": []
    }
  ], 
  "miscellaneous": {
    "scikit-learn": "0.18.1"
  }, 
  "outputs": [
    "Wjets", 
    "ttbar", 
    "Bprime"
  ]
}