{
  "defaults": {}, 
  "inputs": [
    {
      "name": "dnnJ_1", 
      "offset": -0.32745505729473406, 
      "scale": 2.72391765908944
    }, 
    {
      "name": "dnnJ_2", 
      "offset": -0.3005315370345896, 
      "scale": 2.7562150615104426
    }, 
    {
      "name": "dnnJ_3", 
      "offset": -0.3323194942927446, 
      "scale": 2.7012289852378104
    }, 
    {
      "name": "AK4HT", 
      "offset": -1267.514612225526, 
      "scale": 0.0021598737182191505
    }, 
    {
      "name": "t_mass", 
      "offset": -42.3963645839933, 
      "scale": 0.002401172582913203
    }, 
    {
      "name": "t_dRWb", 
      "offset": -121.16966437678094, 
      "scale": 0.003075973181152196
    }, 
    {
      "name": "AK4HTpMETpLepPt", 
      "offset": -1579.5819145902433, 
      "scale": 0.0018126100579306653
    }, 
    {
      "name": "NJets_JetSubCalc", 
      "offset": -5.8028965373528285, 
      "scale": 0.5493933364593597
    }, 
    {
      "name": "NJetsDeepFlavwithSF_JetSubCalc", 
      "offset": -1.4313826277220159, 
      "scale": 0.7921194247478525
    }, 
    {
      "name": "minDR_leadAK8otherAK8", 
      "offset": -2.0801967247882236, 
      "scale": 1.5425635940004963
    }
  ], 
  "layers": [
    {
      "activation": "linear", 
      "architecture": "dense", 
      "bias": [
        0.1844099533283278, 
        -0.27786721258569, 
        0.5274444597807307, 
        0.2191386618265669, 
        0.2883182889861572, 
        -0.2076920282336905, 
        0.4813378902897964, 
        0.015396184826273787, 
        0.6732739577995603, 
        0.16642637232050464
      ], 
      "weights": [
        -0.8179706712457683, 
        0.1628734937429116, 
        0.169824659812301, 
        -0.3467186720587598, 
        0.2506816308846462, 
        -0.08516529913814103, 
        0.3823251834456098, 
        -0.03702505010501513, 
        0.21985381773966597, 
        -0.24071429126633484, 
        0.5198740495561336, 
        -0.33875999608468615, 
        0.2847678408501146, 
        0.547368432207404, 
        -0.727117838697711, 
        0.01294675851783518, 
        -0.5374493991249577, 
        -0.18114589325933717, 
        -0.18763046509937753, 
        0.2621314995457445, 
        0.041109254902838586, 
        -0.11669469032889832, 
        0.11559122966141674, 
        -0.1514831323717963, 
        -0.14827172233764876, 
        -0.515038431695196, 
        -0.7249741086234361, 
        0.3155153541677661, 
        -0.06314042626956523, 
        0.07330774362326162, 
        0.25613697457339035, 
        0.4725970559437359, 
        -0.15711678367495846, 
        0.11768664889629392, 
        -0.40657446078665677, 
        -0.5077410510138604, 
        -0.16403464367336573, 
        0.1396857304789633, 
        0.09826339116234346, 
        0.10491963907006517, 
        -0.23582231323306227, 
        -0.2343054446168375, 
        -0.21229929123088384, 
        0.16213066786401473, 
        -0.08977566904303516, 
        1.1722499981342465, 
        0.0469838538748698, 
        -0.08570696546767899, 
        0.328552449015809, 
        -0.25392237329464656, 
        0.26715349518937914, 
        0.3628203300556635, 
        -0.05128201622762719, 
        -0.3788975318434547, 
        0.23583073022461926, 
        0.377824770857535, 
        -0.36181324914921853, 
        0.16738154704409067, 
        -0.271965127753232, 
        0.7231048618063656, 
        0.29027075342839403, 
        0.2211547885617678, 
        0.2557546696511252, 
        -0.09413367776172359, 
        0.27229639183716114, 
        0.23314929915649227, 
        0.17307362932490133, 
        -0.3657951398618783, 
        -1.0191244856219157, 
        0.024119097208226123, 
        0.23801098907278298, 
        -0.508051035651491, 
        0.021239481279609642, 
        -0.25070130304797533, 
        0.1032439923328751, 
        -0.5950087215901292, 
        0.5476555266801449, 
        0.06819404917057428, 
        0.4834253662927241, 
        -0.019549385014477557, 
        -0.5342323118285668, 
        0.1504811224203772, 
        -0.41220977972004236, 
        -0.1427568044155611, 
        0.5088882140360368, 
        -0.22694970256871444, 
        0.40863769955329204, 
        0.5610238920323934, 
        -0.029937539921777213, 
        -0.44653996652369854, 
        -0.27133916185723583, 
        0.10466492790556559, 
        -0.043537550492633824, 
        0.09337097652363348, 
        -0.020477296989038347, 
        -0.05141114653680902, 
        -1.4890580506161992, 
        -0.13636590859524486, 
        -0.029650557940530356, 
        -0.5918367336652115
      ]
    }, 
    {
      "activation": "rectified", 
      "architecture": "dense", 
      "bias": [], 
      "weights": []
    }, 
    {
      "activation": "linear", 
      "architecture": "dense", 
      "bias": [
        -0.16078339682084886, 
        0.1921281720889638, 
        0.164634861662493, 
        0.3058534502028624, 
        0.25723714372315554, 
        0.3738813393143211, 
        0.03201349262957915, 
        0.5044259398374451, 
        -0.19103908289380492, 
        0.67015473802881
      ], 
      "weights": [
        0.36512073809812606, 
        0.3530994884270596, 
        -0.12039808093912448, 
        -0.4109855446538507, 
        -0.1110672916287859, 
        0.057854751121952194, 
        -0.43057830994608903, 
        -0.0046494762523718374, 
        -0.011043275010773295, 
        0.4692793749811486, 
        0.48686732635121194, 
        -0.10248073390870614, 
        -0.11909783793464639, 
        -0.4410726443413909, 
        0.7960175740515226, 
        0.048948695006723976, 
        -0.08225967327149382, 
        -0.09043591585938, 
        0.30088038261945027, 
        -0.24736987117633347, 
        -0.4775845631742983, 
        -0.27239231668785235, 
        0.47067269094416425, 
        -0.22976395042046702, 
        -0.001688432551198832, 
        -0.2704746883230497, 
        0.48101722991719337, 
        -0.38456100919812103, 
        0.33654089865293774, 
        0.5573786763329975, 
        -0.18981450965723087, 
        0.2360806543757143, 
        0.6211900954480755, 
        0.3709743827543025, 
        -0.1207232141608577, 
        0.29666991228672196, 
        -0.43014717494597055, 
        0.08618619066814309, 
        -0.07803168800211965, 
        0.1448430035980321, 
        0.14116698331254254, 
        0.20834848008554946, 
        -0.05287080778004985, 
        -0.15913262219233043, 
        -0.040997407406355456, 
        0.21189352971147596, 
        0.4933880268376282, 
        -0.3332932913850561, 
        0.1258853397806886, 
        0.03516584650348674, 
        0.009202202775769016, 
        -0.4257424903057483, 
        0.3314480624656719, 
        0.5040039604755421, 
        0.45537771458925747, 
        -0.3174223074690533, 
        -0.028706166131321036, 
        0.6726470727866797, 
        0.4045258011067115, 
        -0.3514595247967769, 
        -0.5329982459763332, 
        0.11034927857979812, 
        -0.08614368013710007, 
        -0.4997509723297268, 
        0.8617967361263569, 
        -0.03334378106768479, 
        0.6202091129237897, 
        -0.6478002873467761, 
        0.20556857095937187, 
        0.08343309137225727, 
        0.5829960101749413, 
        0.6865640177385692, 
        0.4057987898554724, 
        0.22766707718918866, 
        -0.4232768859533713, 
        -0.5139718715158309, 
        0.1405351492857219, 
        0.15768865449157443, 
        0.36811419718144156, 
        0.4892020941893129, 
        -0.3104267932408619, 
        -0.2257192243583952, 
        0.7500584652976858, 
        0.10223096703139768, 
        0.12195938274484147, 
        0.43838373112516743, 
        0.3423803239863535, 
        0.0013932278241448603, 
        -0.11078718354572122, 
        0.6926823788998528, 
        0.01766271440324972, 
        0.3783884754024134, 
        -0.11754844939267856, 
        0.20500805376553136, 
        -0.3253334374071388, 
        0.07685689613698009, 
        -0.1624564965121451, 
        -0.4492813930083915, 
        -0.21000970192226154, 
        -0.05166104859136896
      ]
    }, 
    {
      "activation": "rectified", 
      "architecture": "dense", 
      "bias": [], 
      "weights": []
    }, 
    {
      "activation": "linear", 
      "architecture": "dense", 
      "bias": [
        -0.49398397790245036, 
        0.10589062884246646, 
        0.48100512098705955
      ], 
      "weights": [
        0.5639487732330518, 
        -0.9162185837152969, 
        -0.23797306803761425, 
        0.09892917555928152, 
        0.7614391992310814, 
        -0.6171636120731042, 
        0.683915779083618, 
        -0.2673634008161951, 
        0.5471053854439144, 
        -0.1272549107435638, 
        0.4235889681572633, 
        -0.5429197613642358, 
        -0.5627871363056554, 
        0.8672567035171908, 
        -0.6466711255631594, 
        -0.2770309001171989, 
        -0.8233544887322426, 
        0.5868216244872259, 
        -0.051486275127147915, 
        0.9105689967265596, 
        0.16618748518170984, 
        0.5162030961112277, 
        -0.7053918112458945, 
        -0.6027536890330315, 
        -0.3982417201698393, 
        0.42536774568315194, 
        0.058019684315534635, 
        -0.17139246865477215, 
        -0.8740546166038508, 
        -0.7071525078204887
      ]
    }, 
    {
      "activation": "softmax", 
      "architecture": "dense", 
      "bias": [], 
      "weights": []
    }
  ], 
  "miscellaneous": {
    "scikit-learn": "0.18.1"
  }, 
  "outputs": [
    "Wjets", 
    "ttbar", 
    "Tprime"
  ]
}
