{
  "defaults": {}, 
  "inputs": [
    {
      "name": "dnnJ_1", 
      "offset": -0.3448113977268341, 
      "scale": 2.686813227462712
    }, 
    {
      "name": "dnnJ_2", 
      "offset": -0.3059187412945042, 
      "scale": 2.740863285033869
    }, 
    {
      "name": "dnnJ_3", 
      "offset": -0.3447788604452253, 
      "scale": 2.68169832200543
    }, 
    {
      "name": "tau21_3", 
      "offset": -0.5160259185883316, 
      "scale": 4.26233969212279
    }, 
    {
      "name": "AK4HT", 
      "offset": -1268.6529191005307, 
      "scale": 0.002291519310573875
    }, 
    {
      "name": "t_mass", 
      "offset": -30.04821711480858, 
      "scale": 0.002294148224742145
    }, 
    {
      "name": "t_dRWb", 
      "offset": -126.48466693115806, 
      "scale": 0.0030195926867619648
    }, 
    {
      "name": "AK4HTpMETpLepPt", 
      "offset": -1581.184928030444, 
      "scale": 0.0019090040021030642
    }, 
    {
      "name": "NJets_JetSubCalc", 
      "offset": -5.649461787238738, 
      "scale": 0.5854220688228564
    }, 
    {
      "name": "NJetsDeepFlavwithSF_JetSubCalc", 
      "offset": -1.2607556355461773, 
      "scale": 0.9308534374746781
    }, 
    {
      "name": "minDR_leadAK8otherAK8", 
      "offset": -2.1196039551958368, 
      "scale": 1.5338978367662093
    }
  ], 
  "layers": [
    {
      "activation": "linear", 
      "architecture": "dense", 
      "bias": [
        0.6534108781249062, 
        0.1963700808866197, 
        0.18631916544080568, 
        0.24338019469003092, 
        0.3893031197536569, 
        -0.09446107890319362, 
        0.20351556630428874, 
        1.0028374723246969, 
        0.4459796445257111, 
        0.649455931227014
      ], 
      "weights": [
        0.21468318797253527, 
        0.1640380382117372, 
        0.3405164138599637, 
        -0.026616153590639704, 
        -0.05892365006044947, 
        0.2612950441152695, 
        0.30810166140825584, 
        0.0812216473599218, 
        -0.2732774878215915, 
        -0.8908622089537787, 
        0.055425655496858246, 
        -0.09250644582243826, 
        0.001093100480044249, 
        0.7873619177276382, 
        0.14806068306661455, 
        -0.10326504464809509, 
        -0.47441627690642013, 
        -1.0514363008164163, 
        -0.044870109889690264, 
        0.21655910921629015, 
        0.23918732855321856, 
        -0.1288777284398158, 
        0.8390512158482386, 
        -0.10935183303129531, 
        -0.1490542899369569, 
        -0.04109271760521011, 
        -0.15241054829124046, 
        -0.24961193564056655, 
        -0.38709602611436245, 
        0.11447991736979604, 
        0.14977311662340168, 
        0.10528459327250013, 
        0.04888784048516859, 
        -0.386951291376604, 
        0.45009291131879087, 
        -0.24170512458539645, 
        0.024167044239199693, 
        0.16168517324538778, 
        0.19542907596051062, 
        -0.19621347984021684, 
        -0.42009387470222476, 
        0.20384173250563709, 
        0.31595011902947273, 
        -0.2376107319498054, 
        -0.032090131450837715, 
        -0.0029733621381415557, 
        0.04411310810732868, 
        -0.07757846042766595, 
        -0.2228010578580059, 
        0.08050633699805607, 
        -0.03129300777650258, 
        -0.9832454779906019, 
        0.07732924433373088, 
        -0.08992858524816812, 
        -0.42433508675467535, 
        -0.09486841748829977, 
        0.2065322814594339, 
        0.12551500705793942, 
        -0.08878681093427306, 
        -0.08351030427380932, 
        -0.690078322824682, 
        -0.7280143639747608, 
        0.46453016704126604, 
        -0.13859676683737807, 
        -0.08208841819156092, 
        0.016617009909835088, 
        0.1268131612764028, 
        -0.07594477736727054, 
        0.03711496386471813, 
        -0.5850808730113036, 
        -0.17975531322630706, 
        -0.18506637546728646, 
        0.3294737478043992, 
        0.550414473127758, 
        0.40127030759718046, 
        -0.3724543556643659, 
        -0.28483105433393646, 
        -0.5640360982824486, 
        -0.3480783525411138, 
        -0.2030075872767082, 
        -0.06618800081813088, 
        -0.30102726457271406, 
        0.34905241971230005, 
        0.8648220581146795, 
        0.5714963307425707, 
        0.1940278898642421, 
        0.13788210851855548, 
        -0.16561325561665413, 
        0.13369859087163175, 
        0.14531412798445986, 
        -0.10663035513951283, 
        0.15363534538668075, 
        0.06093805705692318, 
        0.027724451189671744, 
        0.7919690008717732, 
        0.10641467239186514, 
        -0.3810343467365226, 
        0.31243809409963863, 
        -0.12608310228138786, 
        0.11147624650429258, 
        0.10897558445316055, 
        0.16677965601697686, 
        -0.10583384181545946, 
        0.6353727372339282, 
        0.11542401211350396, 
        0.09248413715468244, 
        -1.1487528552688255, 
        0.21711830322262737, 
        -0.0371293058660855, 
        0.48053120453988707
      ]
    }, 
    {
      "activation": "rectified", 
      "architecture": "dense", 
      "bias": [], 
      "weights": []
    }, 
    {
      "activation": "linear", 
      "architecture": "dense", 
      "bias": [
        0.019588895053158157, 
        0.36875831140884463, 
        0.7220990039911734, 
        0.13064975609947876, 
        0.21539305171683265, 
        -0.49762173842210505, 
        0.311189031014409, 
        -0.2822696639796982, 
        0.6146456863957243, 
        -0.14447822364770965
      ], 
      "weights": [
        -0.1790949092205032, 
        0.2929556370348934, 
        -0.6453868048919748, 
        0.13988107604009772, 
        0.381398907990524, 
        0.15414069787609075, 
        0.5877111696627038, 
        0.03421621514700374, 
        -0.14976486029471342, 
        -0.6151420914066955, 
        0.5389484393886871, 
        -0.3868573285034428, 
        -0.33087899279629585, 
        -0.24773296802293554, 
        0.4862859692943591, 
        -0.6039372065280283, 
        0.006817170836409525, 
        0.05295690202757777, 
        0.6867160678513246, 
        0.04246166090799904, 
        0.5314894323536842, 
        -0.1081062585477204, 
        -0.1895944592079872, 
        0.04952233401777431, 
        -0.5450737878119359, 
        -0.27601648726082, 
        0.2462945530382363, 
        0.646522172262676, 
        0.5615913238770848, 
        -0.2945477820046746, 
        -0.10523380630083264, 
        0.03534894947614244, 
        0.613679122295603, 
        0.3837550812153329, 
        -0.035975039403238374, 
        0.6036785779176745, 
        0.3923718832087278, 
        -0.06563065160605394, 
        -0.2827873828056604, 
        -0.30133555010480784, 
        -0.6178595508443682, 
        -0.249784238506283, 
        -0.406925701371709, 
        0.21328549770369548, 
        0.8332341762707302, 
        -0.12786948675607795, 
        -0.38665950597903775, 
        -0.33706259504839853, 
        -0.13047747119096506, 
        0.08726988349339568, 
        0.7225478351142027, 
        -0.09744539319067377, 
        -0.1195724629588961, 
        -0.07372964125078288, 
        -0.12759281828933217, 
        -0.18385247231429463, 
        0.5098700280508747, 
        -0.324458591372827, 
        -0.1872872846708566, 
        -0.006287770929322906, 
        0.5036876538719945, 
        0.0705280277824356, 
        -0.11268154684029866, 
        -0.03133340331357102, 
        0.9201346201260714, 
        0.1424455965317679, 
        0.0438638384352033, 
        -0.276826903960432, 
        0.04026561237019011, 
        0.8925154804008878, 
        0.6007244621421826, 
        0.21540602083374855, 
        0.05456778006239062, 
        0.20082712268783862, 
        0.23879562857078873, 
        0.1897722773307403, 
        0.49197501151097256, 
        -0.07031503268328339, 
        0.47694464434137873, 
        0.12292263129835701, 
        -0.44048642952076694, 
        0.7435665294161315, 
        0.5013781174613533, 
        0.5650601475703245, 
        -0.18003125850287885, 
        0.3488716879929632, 
        -0.1621153485297901, 
        0.5436645265007846, 
        -0.17828292836597728, 
        0.35850789272259026, 
        -0.19241336606986362, 
        -0.05275015517565926, 
        -0.5512253717601675, 
        -0.22163732090918514, 
        -0.1667371194900648, 
        -0.5766905668346608, 
        -0.052442479205942166, 
        -0.13136372362070065, 
        0.38907143013208134, 
        0.6561254757449909
      ]
    }, 
    {
      "activation": "rectified", 
      "architecture": "dense", 
      "bias": [], 
      "weights": []
    }, 
    {
      "activation": "linear", 
      "architecture": "dense", 
      "bias": [
        -0.3676997008899883, 
        0.6083357175018881, 
        -0.390555852352485
      ], 
      "weights": [
        -0.09618280340267259, 
        0.11509910615985916, 
        -0.3984563370037567, 
        -0.8964992612499111, 
        -0.40726440001916875, 
        0.5368830082605056, 
        0.7161263652593545, 
        0.6956009267214402, 
        -1.1290124489435756, 
        0.9280913298212984, 
        -0.6170057586419888, 
        -0.7902601825790562, 
        -0.7487554415567312, 
        0.4531891791200737, 
        0.13248024250323723, 
        -0.8291850469824714, 
        0.45731311576121814, 
        -0.0688546124904637, 
        0.15418299505841382, 
        -0.11434506520851166, 
        -0.6141501112584746, 
        0.017539133333865125, 
        0.8103903295234166, 
        -0.44212264173010135, 
        -0.7533587164680245, 
        -0.30905538654998727, 
        -0.7246599308197736, 
        -0.45847058154044035, 
        0.1609651460709035, 
        -0.3491463977537285
      ]
    }, 
    {
      "activation": "softmax", 
      "architecture": "dense", 
      "bias": [], 
      "weights": []
    }
  ], 
  "miscellaneous": {
    "scikit-learn": "0.18.1"
  }, 
  "outputs": [
    "Wjets", 
    "ttbar", 
    "Bprime"
  ]
}