{
  "defaults": {}, 
  "inputs": [
    {
      "name": "corr_met_MultiLepCalc", 
      "offset": -163.30187298987784, 
      "scale": 0.008008018833605458
    }, 
    {
      "name": "AK4HTpMETpLepPt", 
      "offset": -1596.7674954763906, 
      "scale": 0.001802309789865987
    }, 
    {
      "name": "AK4HT", 
      "offset": -1285.0639756918283, 
      "scale": 0.002147411376037859
    }, 
    {
      "name": "NJets_JetSubCalc", 
      "offset": -5.64133620928046, 
      "scale": 0.5846783149838386
    }, 
    {
      "name": "NJetsAK8_JetSubCalc", 
      "offset": -3.097809855649577, 
      "scale": 3.0544409207205234
    }, 
    {
      "name": "jetPt_1", 
      "offset": -531.3872915579875, 
      "scale": 0.004353622860862733
    }, 
    {
      "name": "jetPt_2", 
      "offset": -375.4932028612899, 
      "scale": 0.006613062036854905
    }, 
    {
      "name": "jetPt_3", 
      "offset": -274.50260653943326, 
      "scale": 0.01219083964678768
    }, 
    {
      "name": "dnnJ_1", 
      "offset": -0.34674013068247206, 
      "scale": 2.6169468118225505
    }, 
    {
      "name": "dnnJ_2 ", 
      "offset": -0.30907401070576535, 
      "scale": 2.671239119236241
    }, 
    {
      "name": "dnnJ_3", 
      "offset": -0.34227942850574017, 
      "scale": 2.6263602981544953
    }
  ], 
  "layers": [
    {
      "activation": "linear", 
      "architecture": "dense", 
      "bias": [
        0.23442967389157715, 
        0.10000421289173635, 
        0.5842927383984399, 
        0.3065202800071238, 
        -0.40683670357892143, 
        1.0824967007913557, 
        -0.37609787600838535, 
        0.37999698528243575, 
        0.25596676931311535, 
        0.8334901311747188
      ], 
      "weights": [
        0.15552095110689634, 
        -0.2767545557059039, 
        0.2145909270083891, 
        -0.30404590655310965, 
        -0.6078233686188759, 
        0.8129350750550881, 
        0.2721046681477948, 
        -0.10635989912093673, 
        0.06442674581469404, 
        0.2455137893054838, 
        0.4219070792215491, 
        0.11267566475220463, 
        0.0741203552223294, 
        -0.49947691799570665, 
        -0.6162850552779738, 
        -0.8412647387114488, 
        0.16778895832901364, 
        0.03016984395069989, 
        0.20739140291735603, 
        0.13035511342292416, 
        0.10268429811354884, 
        -0.07520205479181676, 
        0.20363411874572196, 
        0.5309115377413955, 
        0.2595843180882325, 
        -0.2256498308486308, 
        -0.022493973600057084, 
        -0.30733600217450474, 
        0.09859828747008856, 
        -0.06908530607896761, 
        -0.35683682516940324, 
        -0.6601869552383883, 
        0.07837674384077334, 
        0.2719079882387571, 
        0.4538448201564893, 
        0.07087038944511984, 
        -0.023423649379244627, 
        0.19010360899764644, 
        -0.1198480759909315, 
        0.09037848336508261, 
        -0.294606098742897, 
        -0.4959718237997803, 
        0.6888721029639706, 
        0.07283095673438443, 
        0.054981341945244, 
        -0.5433977875876105, 
        0.17290102743125935, 
        0.16825509909131123, 
        0.6400096757499381, 
        0.4581089678264427, 
        -0.11874290670923958, 
        0.05145118806955432, 
        -1.1781349311081477, 
        0.038380368439385096, 
        0.07133502998458496, 
        -0.1240450595845218, 
        -1.6224470514043754, 
        -0.01585463033740707, 
        0.08762225170997581, 
        0.02954344374628213, 
        0.08748450677084278, 
        0.016906705999161387, 
        -0.2014461413772675, 
        -0.16842727183128553, 
        0.11270308367821122, 
        0.015617197564051022, 
        -0.04386448268862327, 
        0.11091706024920243, 
        0.15508820088688596, 
        -0.09011016224494542, 
        0.34795187111305087, 
        -0.12453349570300151, 
        -0.07819155096329757, 
        0.09809091384591477, 
        -0.052710396688861204, 
        0.012974266117298208, 
        -1.1681358344536283, 
        -0.23466227448289384, 
        0.6605592949588974, 
        -0.09022313340768533, 
        -0.16268082488617008, 
        0.3832531391518772, 
        -0.2612537919775052, 
        -0.09822361251664385, 
        -0.011245297227641855, 
        -0.5486891585396741, 
        -0.6914835698848915, 
        -0.6481056240700539, 
        0.0368638831186858, 
        -0.7492425307761233, 
        0.5407199013085011, 
        0.41444639905736086, 
        0.2859522017463372, 
        0.31222236519988794, 
        -0.1581200016035502, 
        -0.061130316233652275, 
        0.7022014932558407, 
        -0.1627998694564289, 
        0.037442363266442256, 
        -0.5005855110525964, 
        -0.053909521169564746, 
        -0.1404102158022397, 
        0.03734444532566971, 
        0.19859002822797484, 
        -0.33861837635262965, 
        0.10480570325076037, 
        -0.40787060200807285, 
        0.19353646336915997, 
        0.5932015527333346, 
        0.7202568743478677
      ]
    }, 
    {
      "activation": "rectified", 
      "architecture": "dense", 
      "bias": [], 
      "weights": []
    }, 
    {
      "activation": "linear", 
      "architecture": "dense", 
      "bias": [
        0.165490567569221, 
        0.07303349661461624, 
        -0.09761788805212565, 
        0.5614748551447019, 
        0.13034380726271003, 
        -0.28380050894736575, 
        0.09046466664987894, 
        -0.10859663199249481, 
        -0.44778630154440224, 
        0.30270920083261116
      ], 
      "weights": [
        -0.27236315277712086, 
        0.2961692498116499, 
        0.7678175419453257, 
        0.3911942588603856, 
        0.0410426194213368, 
        -0.413948092323578, 
        0.4689569233698517, 
        0.7411862524515679, 
        0.01259353996688528, 
        0.2690823250245711, 
        0.03302200581120831, 
        0.5162130114282958, 
        0.212723557818752, 
        -0.07052273759635427, 
        -1.0288563689141959, 
        -0.027113210632755853, 
        -0.07053795225567876, 
        0.2601687160928434, 
        -0.4157792148937329, 
        0.3185284834305315, 
        -0.46340474085747485, 
        -0.3051718107316262, 
        0.590170849549355, 
        -0.04382769597855336, 
        -0.13663716655220642, 
        -0.2988656319592062, 
        0.3249081432195322, 
        0.4666432644843489, 
        0.1142963521452017, 
        0.4431852306908474, 
        -0.2849310312056085, 
        0.1936379713554396, 
        -0.183993562178358, 
        -0.679065922336131, 
        -0.45595462371164014, 
        0.5725936876803366, 
        -0.4239787761667032, 
        -0.36599742908599897, 
        -0.14789827376403072, 
        0.039421900817520436, 
        -0.429696560129699, 
        -0.717639323717831, 
        -0.41580737426592584, 
        0.3996688222254605, 
        -0.49266453986905234, 
        -0.3257391971571067, 
        0.1552925165912466, 
        -0.7300673478914053, 
        0.19332378546280285, 
        -0.0968826208222768, 
        -0.28266377737515763, 
        0.3188379685299918, 
        -0.3201221546712246, 
        -0.0020514981836219017, 
        -0.36503030971136496, 
        -0.26319459446365495, 
        0.4667565120226046, 
        0.5555412496662641, 
        -0.17998930030055518, 
        -0.16362822198085222, 
        0.41263847567420053, 
        0.07581311242439222, 
        -0.8923994925414326, 
        -0.5283988901376532, 
        -0.26226416319032764, 
        0.34309019338486146, 
        -0.9950289740833894, 
        0.08182723988116292, 
        -0.043121032146704874, 
        0.029107256790146124, 
        -0.15016467039934606, 
        -0.36309800887576343, 
        0.37495193391844667, 
        0.2619925231047978, 
        0.8195148604862165, 
        0.24065382418627226, 
        0.8934791139680417, 
        0.2659566271040091, 
        0.8601870242889958, 
        0.4355065628232687, 
        0.4047873884401251, 
        0.7092186379025206, 
        0.055865978402154175, 
        -0.0913259557854596, 
        -0.5270634222241201, 
        0.5344165872281411, 
        -0.04746332644694456, 
        0.2481297402547738, 
        0.5156582774739122, 
        0.5040484725797552, 
        0.3887293238015267, 
        0.4413945652287976, 
        -0.3941257142033156, 
        -0.0031200862091400384, 
        -0.8987516509959336, 
        0.13893814005363458, 
        -0.9919028738257275, 
        -1.0895634442781457, 
        0.04814539791760746, 
        0.2898369208659384
      ]
    }, 
    {
      "activation": "rectified", 
      "architecture": "dense", 
      "bias": [], 
      "weights": []
    }, 
    {
      "activation": "linear", 
      "architecture": "dense", 
      "bias": [
        -0.1704262587210568, 
        0.011862875126950643, 
        -0.4855371619895281
      ], 
      "weights": [
        -0.5384145107073706, 
        0.754744440709195, 
        0.26615190922131143, 
        0.855431558900791, 
        -0.05114757434811167, 
        -0.21109889584547906, 
        0.668124110524777, 
        -0.2948043573125321, 
        0.412589625514612, 
        0.4206706872383389, 
        -0.3166976261045651, 
        -0.5820881614721498, 
        0.4620309607444587, 
        0.19859051281309026, 
        0.01992984971505096, 
        -0.3033639948387573, 
        -0.18252498210243315, 
        1.0651562996767017, 
        0.4610076658782763, 
        -0.6116287362859187, 
        0.8553532280543802, 
        0.2984340895406423, 
        0.8064740523550851, 
        -0.7808636624873999, 
        -0.4798711522658001, 
        0.05052824773692916, 
        -0.10829942711186819, 
        0.45780839005913565, 
        -0.4332637070660974, 
        -0.28533134651254516
      ]
    }, 
    {
      "activation": "softmax", 
      "architecture": "dense", 
      "bias": [], 
      "weights": []
    }
  ], 
  "miscellaneous": {
    "scikit-learn": "0.18.1"
  }, 
  "outputs": [
    "WjetsBB", 
    "ttbarBB", 
    "Bprime"
  ]
}