{
  "defaults": {}, 
  "inputs": [
    {
      "name": "dnnJ_1", 
      "offset": -0.35101679396049307, 
      "scale": 2.665336624408363
    }, 
    {
      "name": "dnnJ_2", 
      "offset": -0.31524591025455206, 
      "scale": 2.7034891923093154
    }, 
    {
      "name": "tau21_3", 
      "offset": -0.5163061154404426, 
      "scale": 4.243966888538991
    }, 
    {
      "name": "AK4HT", 
      "offset": -1266.7684776938731, 
      "scale": 0.002266919793987575
    }, 
    {
      "name": "t_pt", 
      "offset": -245.02746317801515, 
      "scale": 0.0019347835326803413
    }, 
    {
      "name": "t_mass", 
      "offset": -30.183587144635077, 
      "scale": 0.0022876380615827626
    }, 
    {
      "name": "AK4HTpMETpLepPt", 
      "offset": -1578.7820241377294, 
      "scale": 0.0018887626750384193
    }, 
    {
      "name": "NJets_JetSubCalc", 
      "offset": -5.634539178460476, 
      "scale": 0.5873855239217194
    }, 
    {
      "name": "NJetsDeepFlavwithSF_JetSubCalc", 
      "offset": -1.2491612012426647, 
      "scale": 0.9169245408446098
    }, 
    {
      "name": "minDR_leadAK8otherAK8", 
      "offset": -2.1124877362762353, 
      "scale": 1.5357249905706905
    }
  ], 
  "layers": [
    {
      "activation": "linear", 
      "architecture": "dense", 
      "bias": [
        0.508034571272, 
        0.5552193733115147, 
        0.9187481470919541, 
        0.08016838324523126, 
        0.55519484332968, 
        0.9869827067668833, 
        0.5270192199794318, 
        -0.29816481079639323, 
        0.9241186311183325, 
        -0.17847616698136234
      ], 
      "weights": [
        0.5416553963673084, 
        0.06746492773097297, 
        0.023123866049607374, 
        0.2888907293981662, 
        0.2468325405994852, 
        0.09374497096470878, 
        -0.9790338046499194, 
        -0.04357708279846789, 
        -0.13827427398336703, 
        0.10953070003052144, 
        0.20934885258126018, 
        0.23085210795834535, 
        -0.02900174867118877, 
        0.6535869056794946, 
        0.3012326163289389, 
        -0.9043541583833232, 
        0.11131727221709088, 
        -0.06338460548882685, 
        -0.1715401903834733, 
        0.4277188077038398, 
        -0.07550257855896354, 
        -0.1975081943792089, 
        -0.10180251153572586, 
        -0.2532987649877124, 
        -1.4220939575794358, 
        0.06842158643531791, 
        0.8753309043856551, 
        -0.14054687128025659, 
        0.18059612980530212, 
        -0.11766783173746855, 
        -0.34142871278301673, 
        -1.0597786658158987, 
        -0.13316704091969853, 
        -0.22737733867818138, 
        -0.4528922501177091, 
        0.3888076840985076, 
        0.35901660794730994, 
        -0.05972040402230433, 
        0.16062011821526204, 
        -0.01637897122252913, 
        -0.12238804005385234, 
        -0.007383899254859197, 
        0.0260001166339867, 
        0.3932548032428761, 
        0.10248876875951939, 
        -0.04360988313854207, 
        -1.321747377630928, 
        0.13701375799333523, 
        -0.07973579024223917, 
        -0.20371008337152002, 
        0.3539442864601109, 
        0.12494883367571147, 
        -0.05179644714518793, 
        0.21539982360709717, 
        -0.4174180790803638, 
        -0.741704022861553, 
        -0.363355467048959, 
        0.16628657046705125, 
        0.21720891909071377, 
        -0.12605632889220927, 
        -0.823844473720066, 
        0.3245834628749311, 
        -0.05223057394946634, 
        0.03388393101937945, 
        0.18718863823344856, 
        -0.25273474342532853, 
        0.1818112245214635, 
        0.2733722487738701, 
        0.5740408193081113, 
        -0.157250241190461, 
        0.6581445864882045, 
        -0.9718061863317792, 
        0.00433971905310843, 
        0.06334111880504743, 
        -0.3483144179515916, 
        0.04812963803576357, 
        0.22198083615879918, 
        0.11595496110381073, 
        0.04616078540373789, 
        0.01587979293586333, 
        0.45919982964557465, 
        0.04600463343551377, 
        0.011009550783428407, 
        0.01926069665964975, 
        1.011418425544996, 
        -0.01087520732344693, 
        0.12820826359040657, 
        0.21686396156599577, 
        -0.04174822919745763, 
        -0.4501469315999595, 
        0.1610114288079943, 
        0.04835579397511425, 
        0.030725994902511516, 
        0.1264540508448929, 
        -0.09993200567889342, 
        0.16666037103137152, 
        -0.056852151913166324, 
        -0.44692880680073677, 
        -1.251370230273275, 
        -0.05676090577201824
      ]
    }, 
    {
      "activation": "rectified", 
      "architecture": "dense", 
      "bias": [], 
      "weights": []
    }, 
    {
      "activation": "linear", 
      "architecture": "dense", 
      "bias": [
        -0.24794881634891275, 
        0.040051651228834466, 
        -0.26660374763283445, 
        -0.180454975753327, 
        0.1634877218903068, 
        0.6313453583068291, 
        -0.0774282952316712, 
        -0.4690921220720214, 
        -0.0812583931406995, 
        0.7508206803491767
      ], 
      "weights": [
        0.6213438817769512, 
        0.684864457162417, 
        0.04067813161420763, 
        0.11017262212816763, 
        0.9380917113365262, 
        0.11319969188791382, 
        -0.024591108674602444, 
        0.15346326340818828, 
        -0.5054988605395352, 
        0.12405232196020191, 
        0.6151758783784023, 
        0.44701517985229744, 
        0.18230234384314697, 
        -0.9094753790720398, 
        0.44735291142401196, 
        -0.815151085908631, 
        -0.4651752780235564, 
        0.029426090531066255, 
        0.4496468683321855, 
        0.7083087743762031, 
        0.21186317958168083, 
        -0.29065662581042506, 
        -0.39257078192869277, 
        0.05266497301982342, 
        0.8303683660918952, 
        0.7491700499819981, 
        -0.22793222414792627, 
        -0.29465832638269385, 
        0.5073002107172845, 
        0.07653525903637967, 
        -0.1166418941038735, 
        -0.4928073594384504, 
        1.0252267241657542, 
        -0.41006466414659637, 
        -0.6870877475309733, 
        0.5763286413237778, 
        -0.6972059342873331, 
        -0.418750841037008, 
        -0.8541472685155616, 
        0.4080419646075785, 
        0.20709263480556891, 
        0.14958208995724748, 
        -0.009883410911475468, 
        0.04514186649758004, 
        -0.46024172840171174, 
        0.6068775838356796, 
        -0.24767812253207785, 
        0.13685770804299946, 
        0.3078809659007185, 
        -0.5192032218182073, 
        -1.0526903676155663, 
        -0.0691878158963098, 
        -0.48325148005494584, 
        -0.06325792723713479, 
        0.4930767412130712, 
        -0.4409014685635114, 
        0.3746702562434412, 
        0.5338384188491364, 
        -0.5682992289893105, 
        0.20797693228462788, 
        -0.0069482671233571805, 
        -3.59559191488294e-05, 
        -0.03179871608409868, 
        0.03313802701767971, 
        -0.0732603315501961, 
        -2.93567139019332e-06, 
        -0.002798930047281225, 
        -0.005769638714517533, 
        -0.0475586999914059, 
        0.014501436991217576, 
        0.07904284937340707, 
        0.16522902625312832, 
        0.625472075774934, 
        0.8849130950702132, 
        -0.6349117971942423, 
        -0.2724278899322426, 
        0.7014660143482262, 
        0.1512768996310541, 
        0.19098058062870812, 
        0.22307294398116817, 
        0.20980350682462925, 
        0.5330357680100265, 
        -0.5648848869394367, 
        0.38654522397887475, 
        0.1955792612076962, 
        0.6511606854087671, 
        0.45606516224163435, 
        0.7120200128176608, 
        -0.0456974998911045, 
        -0.2179838129189851, 
        0.06380547673653257, 
        -0.09951918458727296, 
        0.9423260274900784, 
        0.6031903174533653, 
        -0.49452818231046164, 
        0.1997971674452962, 
        0.2772781603402485, 
        0.025444632782984526, 
        0.12803408996017163, 
        -0.29652803931617316
      ]
    }, 
    {
      "activation": "rectified", 
      "architecture": "dense", 
      "bias": [], 
      "weights": []
    }, 
    {
      "activation": "linear", 
      "architecture": "dense", 
      "bias": [
        -0.568424886998086, 
        -0.5175327752207783, 
        -0.4520167770241585
      ], 
      "weights": [
        0.3522456957327037, 
        1.016046674269488, 
        -0.4067339472862065, 
        1.3634305937240927, 
        -0.4762181487209218, 
        -1.232122426418615, 
        3.0633988576224234e-05, 
        -0.10183541418849983, 
        -0.3057889923767662, 
        -0.12021601116495201, 
        0.09262423062051335, 
        -0.3256098077073645, 
        -0.33969276832627904, 
        -2.3884667100077293, 
        0.5922883255817559, 
        1.0162269234873913, 
        0.004887426869674119, 
        0.26505855215012686, 
        0.7873605617389683, 
        -0.044386352861483, 
        -1.1231642512479323, 
        0.04687583054117209, 
        -1.0026546583764104, 
        0.2262738032183643, 
        0.5747689424763528, 
        0.18128930041309246, 
        0.00012012858570622993, 
        0.8205297212105948, 
        -0.5864845633281952, 
        0.7627573086277705
      ]
    }, 
    {
      "activation": "softmax", 
      "architecture": "dense", 
      "bias": [], 
      "weights": []
    }
  ], 
  "miscellaneous": {
    "scikit-learn": "0.18.1"
  }, 
  "outputs": [
    "Wjets", 
    "ttbar", 
    "Bprime"
  ]
}